0.000000000000000000e+00 0.000000000000000000e+00 0.000000000000000000e+00 0.000000000000000000e+00 0.000000000000000000e+00 0.000000000000000000e+00 0.000000000000000000e+00 0.000000000000000000e+00 0.000000000000000000e+00 0.000000000000000000e+00
0.000000000000000000e+00 0.000000000000000000e+00 0.000000000000000000e+00 0.000000000000000000e+00 0.000000000000000000e+00 0.000000000000000000e+00 0.000000000000000000e+00 0.000000000000000000e+00 0.000000000000000000e+00 0.000000000000000000e+00
0.000000000000000000e+00 0.000000000000000000e+00 0.000000000000000000e+00 0.000000000000000000e+00 0.000000000000000000e+00 0.000000000000000000e+00 0.000000000000000000e+00 0.000000000000000000e+00 0.000000000000000000e+00 0.000000000000000000e+00
0.000000000000000000e+00 0.000000000000000000e+00 0.000000000000000000e+00 0.000000000000000000e+00 0.000000000000000000e+00 0.000000000000000000e+00 0.000000000000000000e+00 0.000000000000000000e+00 0.000000000000000000e+00 0.000000000000000000e+00
0.000000000000000000e+00 0.000000000000000000e+00 0.000000000000000000e+00 0.000000000000000000e+00 0.000000000000000000e+00 0.000000000000000000e+00 0.000000000000000000e+00 0.000000000000000000e+00 0.000000000000000000e+00 0.000000000000000000e+00
0.000000000000000000e+00 0.000000000000000000e+00 0.000000000000000000e+00 0.000000000000000000e+00 0.000000000000000000e+00 0.000000000000000000e+00 0.000000000000000000e+00 0.000000000000000000e+00 0.000000000000000000e+00 0.000000000000000000e+00
0.000000000000000000e+00 0.000000000000000000e+00 0.000000000000000000e+00 0.000000000000000000e+00 0.000000000000000000e+00 0.000000000000000000e+00 0.000000000000000000e+00 0.000000000000000000e+00 0.000000000000000000e+00 0.000000000000000000e+00
0.000000000000000000e+00 0.000000000000000000e+00 0.000000000000000000e+00 0.000000000000000000e+00 0.000000000000000000e+00 0.000000000000000000e+00 0.000000000000000000e+00 0.000000000000000000e+00 0.000000000000000000e+00 0.000000000000000000e+00
0.000000000000000000e+00 0.000000000000000000e+00 0.000000000000000000e+00 0.000000000000000000e+00 0.000000000000000000e+00 0.000000000000000000e+00 0.000000000000000000e+00 0.000000000000000000e+00 0.000000000000000000e+00 0.000000000000000000e+00
0.000000000000000000e+00 0.000000000000000000e+00 0.000000000000000000e+00 0.000000000000000000e+00 0.000000000000000000e+00 0.000000000000000000e+00 0.000000000000000000e+00 0.000000000000000000e+00 0.000000000000000000e+00 0.000000000000000000e+00
0.000000000000000000e+00 0.000000000000000000e+00 0.000000000000000000e+00 0.000000000000000000e+00 0.000000000000000000e+00 0.000000000000000000e+00 0.000000000000000000e+00 0.000000000000000000e+00 0.000000000000000000e+00 0.000000000000000000e+00
0.000000000000000000e+00 0.000000000000000000e+00 0.000000000000000000e+00 0.000000000000000000e+00 0.000000000000000000e+00 0.000000000000000000e+00 0.000000000000000000e+00 0.000000000000000000e+00 0.000000000000000000e+00 0.000000000000000000e+00
-7.979141628311481327e-06 -6.566267984453588724e-06 -1.855327864177525043e-04 -2.644922642502933741e-05 -1.149193849414587021e-03 -3.127949821646325290e-05 1.659549307078123093e-03 -5.705306193704018369e-06 -6.594415026484057307e-05 -1.808992819860577583e-04
-1.861920100054703653e-05 -1.443007568013854325e-05 -3.444520989432930946e-04 -5.924885044805705547e-05 -2.546973526477813721e-03 -6.852702063042670488e-05 3.610146231949329376e-03 -1.330133909505093470e-05 -1.456238533137366176e-04 -3.989707620348781347e-04
-1.277098363061668351e-06 -5.810437286868364026e-08 6.877235136926174164e-05 -1.484669382989523001e-06 -3.409132841625250876e-05 -3.973817896962827945e-08 -2.636734097904991359e-05 -8.999119813779543620e-07 -1.367527602269547060e-06 -3.186774620189680718e-06
-5.321243179423618130e-08 -2.421015388165415061e-09 2.865514488803455606e-06 -6.186122192275433918e-08 -1.420472017343854532e-06 -1.655757309038108360e-09 -1.098639131669187918e-06 -3.749633137317687215e-08 -5.698031202427955577e-08 -1.327822758412366966e-07
0.000000000000000000e+00 0.000000000000000000e+00 0.000000000000000000e+00 0.000000000000000000e+00 0.000000000000000000e+00 0.000000000000000000e+00 0.000000000000000000e+00 0.000000000000000000e+00 0.000000000000000000e+00 0.000000000000000000e+00
0.000000000000000000e+00 0.000000000000000000e+00 0.000000000000000000e+00 0.000000000000000000e+00 0.000000000000000000e+00 0.000000000000000000e+00 0.000000000000000000e+00 0.000000000000000000e+00 0.000000000000000000e+00 0.000000000000000000e+00
0.000000000000000000e+00 0.000000000000000000e+00 0.000000000000000000e+00 0.000000000000000000e+00 0.000000000000000000e+00 0.000000000000000000e+00 0.000000000000000000e+00 0.000000000000000000e+00 0.000000000000000000e+00 0.000000000000000000e+00
0.000000000000000000e+00 0.000000000000000000e+00 0.000000000000000000e+00 0.000000000000000000e+00 0.000000000000000000e+00 0.000000000000000000e+00 0.000000000000000000e+00 0.000000000000000000e+00 0.000000000000000000e+00 0.000000000000000000e+00
0.000000000000000000e+00 0.000000000000000000e+00 0.000000000000000000e+00 0.000000000000000000e+00 0.000000000000000000e+00 0.000000000000000000e+00 0.000000000000000000e+00 0.000000000000000000e+00 0.000000000000000000e+00 0.000000000000000000e+00
0.000000000000000000e+00 0.000000000000000000e+00 0.000000000000000000e+00 0.000000000000000000e+00 0.000000000000000000e+00 0.000000000000000000e+00 0.000000000000000000e+00 0.000000000000000000e+00 0.000000000000000000e+00 0.000000000000000000e+00
0.000000000000000000e+00 0.000000000000000000e+00 0.000000000000000000e+00 0.000000000000000000e+00 0.000000000000000000e+00 0.000000000000000000e+00 0.000000000000000000e+00 0.000000000000000000e+00 0.000000000000000000e+00 0.000000000000000000e+00
0.000000000000000000e+00 0.000000000000000000e+00 0.000000000000000000e+00 0.000000000000000000e+00 0.000000000000000000e+00 0.000000000000000000e+00 0.000000000000000000e+00 0.000000000000000000e+00 0.000000000000000000e+00 0.000000000000000000e+00
0.000000000000000000e+00 0.000000000000000000e+00 0.000000000000000000e+00 0.000000000000000000e+00 0.000000000000000000e+00 0.000000000000000000e+00 0.000000000000000000e+00 0.000000000000000000e+00 0.000000000000000000e+00 0.000000000000000000e+00
0.000000000000000000e+00 0.000000000000000000e+00 0.000000000000000000e+00 0.000000000000000000e+00 0.000000000000000000e+00 0.000000000000000000e+00 0.000000000000000000e+00 0.000000000000000000e+00 0.000000000000000000e+00 0.000000000000000000e+00
0.000000000000000000e+00 0.000000000000000000e+00 0.000000000000000000e+00 0.000000000000000000e+00 0.000000000000000000e+00 0.000000000000000000e+00 0.000000000000000000e+00 0.000000000000000000e+00 0.000000000000000000e+00 0.000000000000000000e+00
0.000000000000000000e+00 0.000000000000000000e+00 0.000000000000000000e+00 0.000000000000000000e+00 0.000000000000000000e+00 0.000000000000000000e+00 0.000000000000000000e+00 0.000000000000000000e+00 0.000000000000000000e+00 0.000000000000000000e+00
0.000000000000000000e+00 0.000000000000000000e+00 0.000000000000000000e+00 0.000000000000000000e+00 0.000000000000000000e+00 0.000000000000000000e+00 0.000000000000000000e+00 0.000000000000000000e+00 0.000000000000000000e+00 0.000000000000000000e+00
0.000000000000000000e+00 0.000000000000000000e+00 0.000000000000000000e+00 0.000000000000000000e+00 0.000000000000000000e+00 0.000000000000000000e+00 0.000000000000000000e+00 0.000000000000000000e+00 0.000000000000000000e+00 0.000000000000000000e+00
0.000000000000000000e+00 0.000000000000000000e+00 0.000000000000000000e+00 0.000000000000000000e+00 0.000000000000000000e+00 0.000000000000000000e+00 0.000000000000000000e+00 0.000000000000000000e+00 0.000000000000000000e+00 0.000000000000000000e+00
0.000000000000000000e+00 0.000000000000000000e+00 0.000000000000000000e+00 0.000000000000000000e+00 0.000000000000000000e+00 0.000000000000000000e+00 0.000000000000000000e+00 0.000000000000000000e+00 0.000000000000000000e+00 0.000000000000000000e+00
-1.283609396551810278e-08 -3.689908822934739874e-08 -7.600314347655512393e-06 -7.693523151885983680e-09 -1.711669028736650944e-05 -1.347813736174430232e-07 2.595394835225306451e-05 -4.567563038904154382e-08 -2.738723594575276366e-07 -7.251609304148587398e-07
-5.119391133234785229e-08 -1.083945164737087907e-07 -2.255519757454749197e-05 -2.348079597425112297e-08 -7.413371349684894085e-05 -3.964507584441889776e-07 1.004795049084350467e-04 -1.992207643297660979e-07 -8.094573900052637327e-07 -2.202323912570136599e-06
-1.405295506629045121e-06 -6.615770598017434168e-09 -9.236756886821240187e-05 -1.193254661302489694e-06 -5.284264683723449707e-03 -3.397242835490033031e-06 5.421693902462720871e-03 -1.133306977862957865e-05 -1.076808189282019157e-06 -2.665017200342845172e-05
-5.425511062639998272e-06 -2.865698479581624269e-05 -1.960135414265096188e-04 -5.191417585592716932e-06 -1.264396589249372482e-02 -6.370305527525488287e-06 1.306432392448186874e-02 -8.825965051073580980e-05 -1.622616946406196803e-05 -7.421647023875266314e-05
-2.597411912574898452e-05 -1.315808971412479877e-03 5.980558926239609718e-04 -6.227651465451344848e-05 -1.311853993684053421e-02 -2.693016358534805477e-05 1.494535617530345917e-02 -4.788475052919238806e-04 -2.778896887321025133e-04 -2.371437149122357368e-04
-1.596216316102072597e-04 -1.149645540863275528e-03 -1.562878169352188706e-04 -1.540297234896570444e-04 -6.172028835862874985e-03 -1.307377970078960061e-04 8.889416232705116272e-03 -2.888365415856242180e-04 -3.860472934320569038e-04 -2.921797276940196753e-04
-1.092832535505294800e-03 -1.182158594019711018e-03 -1.802357845008373260e-03 -5.690872203558683395e-04 -1.250984612852334976e-02 -6.407429464161396027e-04 2.040431089699268341e-02 -7.646564044989645481e-04 -8.207585779018700123e-04 -1.021870179101824760e-03
2.874564146623015404e-03 -7.635575020685791969e-04 -4.681353922933340073e-03 -5.560821155086159706e-04 -2.185828983783721924e-02 -3.641485236585140228e-04 3.045908175408840179e-02 -2.034340053796768188e-03 -7.151904283091425896e-04 -2.360686892643570900e-03
6.686155218631029129e-03 -6.520701572299003601e-04 -6.463705096393823624e-03 -9.974897839128971100e-04 -3.795675188302993774e-02 -1.003568759188055992e-03 4.875913634896278381e-02 -3.357798093929886818e-03 -8.921451517380774021e-04 -4.121749196201562881e-03
2.544522751122713089e-03 -5.137789412401616573e-04 -5.341306794434785843e-03 -6.431029178202152252e-04 -2.199871093034744263e-02 -1.176987541839480400e-03 3.186028823256492615e-02 -1.570725115016102791e-03 -7.991300080902874470e-04 -2.361079445108771324e-03
-6.212595617398619652e-04 4.641870968043804169e-03 -7.130576996132731438e-04 -1.566199003718793392e-03 -8.309679105877876282e-03 -7.774779805913567543e-04 9.521606378257274628e-03 -4.129538137931376696e-04 -9.009974310174584389e-04 -8.618574356660246849e-04
2.434044610708951950e-03 7.131914142519235611e-03 2.782307798042893410e-03 -2.097871154546737671e-03 -1.721724681556224823e-02 -7.986091659404337406e-04 1.276458799839019775e-02 -5.577991250902414322e-04 -9.206773829646408558e-04 -3.520649392157793045e-03
7.314820308238267899e-03 -1.647873548790812492e-03 1.074629370123147964e-02 -1.371448859572410583e-03 -1.831370033323764801e-02 -8.618304273113608360e-04 1.592177152633666992e-02 -1.373467850498855114e-03 -1.460797153413295746e-03 -8.953758515417575836e-03
3.320464864373207092e-03 -1.163320732302963734e-03 1.439512358047068119e-03 -6.097002187743782997e-04 -8.846473880112171173e-03 -5.312582361511886120e-04 1.357015501707792282e-02 -7.018843898549675941e-04 -1.077058841474354267e-03 -5.400437861680984497e-03
-3.295789356343448162e-04 -1.642243441892787814e-04 -3.530462039634585381e-03 -1.040967545122839510e-04 -3.626737277954816818e-03 -6.473223329521715641e-04 1.014891546219587326e-02 -1.267051848117262125e-04 -5.437965155579149723e-04 -1.075989566743373871e-03
-3.851815708912909031e-04 -1.137282743002288043e-04 -3.710366785526275635e-03 -7.493443263228982687e-05 -5.852644331753253937e-03 -7.132908212952315807e-04 1.177373901009559631e-02 -1.133378027589060366e-04 -3.521831240504980087e-04 -4.580659442581236362e-04
-4.702356236521154642e-04 -1.755355187924578786e-04 -2.930301707237958908e-03 -1.155554200522601604e-04 -4.420113284140825272e-03 -5.315321031957864761e-04 9.485508315265178680e-03 -1.125447961385361850e-04 -3.081618051510304213e-04 -4.215252120047807693e-04
-1.845090446295216680e-04 -8.528832404408603907e-05 -1.589448424056172371e-03 -5.750047421315684915e-05 -4.867579322308301926e-03 -1.688752527115866542e-04 7.492439821362495422e-03 -3.829500928986817598e-05 -2.953049261122941971e-04 -2.056400699075311422e-04
-8.831415470922365785e-06 -2.732482926148804836e-06 -1.668215554673224688e-04 -2.091722762997960672e-06 -5.473640281707048416e-03 -1.209669972013216466e-05 5.847725085914134979e-03 -1.173687360278563574e-05 -5.165350012248381972e-05 -1.181206025648862123e-04
-4.086365152033977211e-06 -1.311169853579485789e-06 -1.102627284126356244e-04 -8.536122209079621825e-07 -9.203255176544189453e-04 -1.526963387732394040e-05 1.148461829870939255e-03 -1.622333002160303295e-05 -1.984003392863087356e-05 -6.028952338965609670e-05
0.000000000000000000e+00 0.000000000000000000e+00 0.000000000000000000e+00 0.000000000000000000e+00 0.000000000000000000e+00 0.000000000000000000e+00 0.000000000000000000e+00 0.000000000000000000e+00 0.000000000000000000e+00 0.000000000000000000e+00
0.000000000000000000e+00 0.000000000000000000e+00 0.000000000000000000e+00 0.000000000000000000e+00 0.000000000000000000e+00 0.000000000000000000e+00 0.000000000000000000e+00 0.000000000000000000e+00 0.000000000000000000e+00 0.000000000000000000e+00
0.000000000000000000e+00 0.000000000000000000e+00 0.000000000000000000e+00 0.000000000000000000e+00 0.000000000000000000e+00 0.000000000000000000e+00 0.000000000000000000e+00 0.000000000000000000e+00 0.000000000000000000e+00 0.000000000000000000e+00
0.000000000000000000e+00 0.000000000000000000e+00 0.000000000000000000e+00 0.000000000000000000e+00 0.000000000000000000e+00 0.000000000000000000e+00 0.000000000000000000e+00 0.000000000000000000e+00 0.000000000000000000e+00 0.000000000000000000e+00
0.000000000000000000e+00 0.000000000000000000e+00 0.000000000000000000e+00 0.000000000000000000e+00 0.000000000000000000e+00 0.000000000000000000e+00 0.000000000000000000e+00 0.000000000000000000e+00 0.000000000000000000e+00 0.000000000000000000e+00
0.000000000000000000e+00 0.000000000000000000e+00 0.000000000000000000e+00 0.000000000000000000e+00 0.000000000000000000e+00 0.000000000000000000e+00 0.000000000000000000e+00 0.000000000000000000e+00 0.000000000000000000e+00 0.000000000000000000e+00
-1.420583402023112285e-07 -6.828650533918789733e-09 -5.683481845153437462e-07 -1.638322011388027022e-08 -2.202830046371673234e-06 -1.655781261433730833e-06 6.419836608984041959e-06 -2.034375307102820329e-10 -7.852275984987500124e-07 -1.042237045112415217e-06
1.588551531312987208e-04 -6.096064097960152139e-09 -5.317522663972340524e-06 -9.172968020720873028e-07 -1.583351113367825747e-04 -3.007678606081753969e-05 7.822338375262916088e-05 -1.878279181255493313e-05 -6.610905074921902269e-06 -1.703193993307650089e-05
7.662777352379634976e-05 -8.553546990697213914e-07 -2.284138463437557220e-04 -6.449520242313155904e-07 -2.141869044862687588e-04 -7.322385499719530344e-06 4.150855529587715864e-04 -8.512512977176811546e-06 -1.377325952489627525e-05 -1.800395330064930022e-05
-1.892736036097630858e-04 -6.187899271026253700e-05 3.419526037760078907e-04 -2.055060213024262339e-05 -1.994125195778906345e-04 -8.561619324609637260e-05 3.038838040083646774e-04 -3.539037788868881762e-05 -3.843937156489118934e-05 -1.527489803265780210e-05
-2.980176359415054321e-03 -3.236616321373730898e-04 1.540751894935965538e-03 -1.428304385626688600e-04 -6.248459685593843460e-03 -4.783931653946638107e-04 9.267230518162250519e-03 -2.977595431730151176e-04 -2.373649185756221414e-04 -9.933690307661890984e-05
-3.798419842496514320e-03 -1.187961432151496410e-03 -3.864882746711373329e-04 -8.161458536051213741e-04 -2.279354073107242584e-02 -1.044219709001481533e-03 3.237106278538703918e-02 -1.011160435155034065e-03 -6.106931250542402267e-04 -7.224263972602784634e-04
-4.072060342878103256e-03 -6.082089617848396301e-03 -3.051843959838151932e-04 -2.414608839899301529e-03 -3.104532696306705475e-02 -9.114848216995596886e-04 4.889775067567825317e-02 -1.658157445490360260e-03 -1.245469436980783939e-03 -1.163371605798602104e-03
-7.041660137474536896e-03 -1.147528365254402161e-02 1.130735408514738083e-02 -5.461489316076040268e-03 -3.307782858610153198e-02 -2.030514646321535110e-03 5.601108819246292114e-02 -2.466236241161823273e-03 -3.793986747041344643e-03 -1.971438294276595116e-03
-8.892323821783065796e-03 -1.323733665049076080e-02 8.088193833827972412e-03 -4.377096425741910934e-03 -6.378073990345001221e-02 -7.960859686136245728e-03 1.088040024042129517e-01 -5.004666280001401901e-03 -8.094086311757564545e-03 -5.545129533857107162e-03
-1.029501110315322876e-02 -1.444581337273120880e-02 2.231970056891441345e-02 1.166223315522074699e-03 -8.332268148660659790e-02 -1.531396433711051941e-02 1.300311535596847534e-01 -8.836206048727035522e-03 -1.126085873693227768e-02 -1.004257053136825562e-02
-1.188149582594633102e-02 -4.642848856747150421e-03 2.452389150857925415e-02 -1.761444960720837116e-03 -1.087899878621101379e-01 -1.764706522226333618e-02 1.586035937070846558e-01 -8.621065877377986908e-03 -1.552202738821506500e-02 -1.426151860505342484e-02
-2.023715898394584656e-02 1.468376442790031433e-02 2.403380163013935089e-02 -7.261741906404495239e-03 -9.610021859407424927e-02 -2.255456335842609406e-02 1.507802009582519531e-01 -7.243103813380002975e-03 -1.948614232242107391e-02 -1.661469787359237671e-02
-3.303282707929611206e-02 2.477523498237133026e-02 2.621744573116302490e-02 -6.138043943792581558e-03 -7.258018106222152710e-02 -2.812111750245094299e-02 1.353551000356674194e-01 -9.135907515883445740e-03 -2.064382098615169525e-02 -1.669554039835929871e-02
-3.952474892139434814e-02 4.336791113018989563e-02 2.915008552372455597e-02 -1.216747891157865524e-02 -7.538926601409912109e-02 -2.331135608255863190e-02 1.357076913118362427e-01 -1.147549040615558624e-02 -2.585491724312305450e-02 -2.050230838358402252e-02
-3.445246443152427673e-02 2.488778904080390930e-02 1.563097722828388214e-02 -8.328195661306381226e-03 -6.865026056766510010e-02 -9.888858534395694733e-03 1.372226327657699585e-01 -7.555630523711442947e-03 -2.649372629821300507e-02 -2.237227559089660645e-02
-2.806957811117172241e-02 -1.790992682799696922e-04 -2.328405622392892838e-03 -5.170533433556556702e-03 -3.800185769796371460e-02 7.548911496996879578e-03 1.053284928202629089e-01 -4.314688965678215027e-03 -1.961586065590381622e-02 -1.519742421805858612e-02
-2.383900806307792664e-02 -4.270951729267835617e-03 -1.716383546590805054e-02 -1.072680857032537460e-02 -3.115748614072799683e-02 1.089455746114253998e-02 1.013014838099479675e-01 -3.261231351643800735e-03 -1.091099809855222702e-02 -1.086562592536211014e-02
-1.830577850341796875e-02 -2.808354038279503584e-04 -3.189349174499511719e-02 -7.570873945951461792e-03 -1.739672571420669556e-02 -1.797116361558437347e-03 9.956508874893188477e-02 -2.199594862759113312e-03 -1.285882759839296341e-02 -7.261888124048709869e-03
-1.105825882405042648e-02 -5.465223919600248337e-03 -2.237110584974288940e-02 -4.433498717844486237e-03 -8.902537636458873749e-03 -1.119334343820810318e-02 7.429159432649612427e-02 -1.227421569637954235e-03 -6.198657676577568054e-03 -3.441616194322705269e-03
-5.366938188672065735e-03 -3.985935356467962265e-03 -1.752539537847042084e-02 -3.660745918750762939e-03 -7.030047941952943802e-03 -6.037061568349599838e-03 5.006243288516998291e-02 -4.980514058843255043e-04 -4.223454743623733521e-03 -1.734805875457823277e-03
-2.612733980640769005e-03 -3.423453774303197861e-03 -1.660883985459804535e-02 -2.821706933900713921e-03 -9.258331730961799622e-03 -1.995359314605593681e-03 4.122846573591232300e-02 -3.072889230679720640e-04 -3.282759105786681175e-03 -9.179890039376914501e-04
-1.259990502148866653e-03 -1.987092662602663040e-03 -5.921887699514627457e-03 -9.876639815047383308e-04 -5.935254506766796112e-03 -4.052876029163599014e-03 2.191581204533576965e-02 -7.809772068867459893e-05 -1.480160630308091640e-03 -2.127843181369826198e-04
-3.981854533776640892e-04 -6.096707656979560852e-04 5.509179085493087769e-03 -1.903186785057187080e-04 -1.576329348608851433e-03 -3.376457607373595238e-03 1.644990523345768452e-03 -2.334246164537034929e-05 -9.414173546247184277e-04 -3.844642196781933308e-05
-5.511962626769673079e-06 -1.643689211050514132e-05 4.790443927049636841e-03 -7.910339832051249687e-07 -1.438605686416849494e-04 -5.826260312460362911e-04 -3.728703130036592484e-03 -7.271399926622734711e-09 -3.084899799432605505e-04 -4.016562797914957628e-06
0.000000000000000000e+00 0.000000000000000000e+00 0.000000000000000000e+00 0.000000000000000000e+00 0.000000000000000000e+00 0.000000000000000000e+00 0.000000000000000000e+00 0.000000000000000000e+00 0.000000000000000000e+00 0.000000000000000000e+00
0.000000000000000000e+00 0.000000000000000000e+00 0.000000000000000000e+00 0.000000000000000000e+00 0.000000000000000000e+00 0.000000000000000000e+00 0.000000000000000000e+00 0.000000000000000000e+00 0.000000000000000000e+00 0.000000000000000000e+00
0.000000000000000000e+00 0.000000000000000000e+00 0.000000000000000000e+00 0.000000000000000000e+00 0.000000000000000000e+00 0.000000000000000000e+00 0.000000000000000000e+00 0.000000000000000000e+00 0.000000000000000000e+00 0.000000000000000000e+00
0.000000000000000000e+00 0.000000000000000000e+00 0.000000000000000000e+00 0.000000000000000000e+00 0.000000000000000000e+00 0.000000000000000000e+00 0.000000000000000000e+00 0.000000000000000000e+00 0.000000000000000000e+00 0.000000000000000000e+00
-3.142596938232600223e-07 6.083529297029599547e-05 -5.687650173058500513e-06 -2.028823928412748501e-06 -4.880389042227761820e-06 -3.967794327763840556e-06 -2.644539563334546983e-05 -9.650243271153158275e-09 -1.514697032689582556e-05 -2.354496700718300417e-06
2.919073449447751045e-05 1.442090979253407568e-05 -5.012645124224945903e-05 -1.663095645199064165e-05 -6.692983442917466164e-04 -7.154243940021842718e-05 1.062255469150841236e-03 -6.247862620512023568e-05 -1.051528379321098328e-04 -1.306373742409050465e-04
-2.223646035417914391e-03 -7.484020170522853732e-05 -5.838732467964291573e-04 -6.209069979377090931e-04 -6.000151624903082848e-04 1.923891599290072918e-03 2.727097831666469574e-03 -3.575050504878163338e-04 -1.318436407018452883e-04 -5.835931733599863946e-05
-1.172297541052103043e-02 -4.878607287537306547e-04 1.647458411753177643e-03 1.678106561303138733e-02 -1.012966618873178959e-03 -7.503577508032321930e-03 3.790641669183969498e-03 -4.281919391360133886e-04 -9.079467272385954857e-04 -1.556507486384361982e-04
-1.597318053245544434e-02 -1.198741141706705093e-03 4.517977591603994370e-03 1.409584656357765198e-02 -1.225960627198219299e-02 -6.174897309392690659e-03 2.072053402662277222e-02 -8.881773683242499828e-04 -2.153787529096007347e-03 -6.859574932605028152e-04
-2.022844925522804260e-02 -6.381954066455364227e-03 2.043250016868114471e-02 2.317227795720100403e-02 -2.786114253103733063e-02 -1.270072534680366516e-02 3.693415597081184387e-02 -4.868174903094768524e-03 -5.761288106441497803e-03 -2.737204311415553093e-03
-1.565060950815677643e-02 -1.903291046619415283e-02 4.423168301582336426e-02 2.943184785544872284e-02 -5.731976032257080078e-02 -1.499271579086780548e-02 6.096016988158226013e-02 -1.174162048846483231e-02 -9.968278929591178894e-03 -5.917711183428764343e-03
-2.677885442972183228e-02 -3.068545646965503693e-02 1.161151081323623657e-01 1.685127802193164825e-02 -8.751346170902252197e-02 -2.538050524890422821e-02 8.818475157022476196e-02 -1.708887144923210144e-02 -2.318225428462028503e-02 -1.052165590226650238e-02
-2.511044032871723175e-02 -4.888555780053138733e-02 1.362218558788299561e-01 3.738645464181900024e-02 -1.148814707994461060e-01 -2.724137529730796814e-02 1.244108825922012329e-01 -2.772061899304389954e-02 -3.532682731747627258e-02 -1.885275356471538544e-02
-1.792631857097148895e-02 -7.858084142208099365e-02 1.771288663148880005e-01 1.006606146693229675e-01 -1.462935060262680054e-01 -4.665963351726531982e-02 1.275573223829269409e-01 -3.613969311118125916e-02 -5.162940546870231628e-02 -2.811770513653755188e-02
-3.497305884957313538e-02 -5.661537125706672668e-02 2.100946456193923950e-01 1.378121078014373779e-01 -2.015136927366256714e-01 -4.795966669917106628e-02 1.234554871916770935e-01 -3.171463683247566223e-02 -6.167108938097953796e-02 -3.691476210951805115e-02
-3.111895732581615448e-02 -2.930251695215702057e-02 2.239510416984558105e-01 1.304590851068496704e-01 -2.171655148267745972e-01 -5.995828285813331604e-02 1.358649581670761108e-01 -3.427071496844291687e-02 -6.962213665246963501e-02 -4.883678257465362549e-02
-4.418684542179107666e-02 -2.771718055009841919e-02 1.545672416687011719e-01 1.853916496038436890e-01 -1.826182007789611816e-01 -4.501300677657127380e-02 1.501367837190628052e-01 -3.667803853750228882e-02 -9.084789454936981201e-02 -6.303469091653823853e-02
-5.625005438923835754e-02 -3.056863090023398399e-03 1.023446917533874512e-01 1.753017455339431763e-01 -1.688118875026702881e-01 -4.733445122838020325e-03 1.580782234668731689e-01 -3.834525495767593384e-02 -9.296147525310516357e-02 -7.156592607498168945e-02
-6.663122028112411499e-02 -5.527874454855918884e-04 7.857909053564071655e-02 1.469325274229049683e-01 -1.350250095129013062e-01 1.158982422202825546e-02 1.495658755302429199e-01 -3.096752054989337921e-02 -9.024020284414291382e-02 -6.325056403875350952e-02
-7.555937021970748901e-02 -4.051505401730537415e-02 2.370055392384529114e-02 1.268446147441864014e-01 -9.725066274404525757e-02 5.091721937060356140e-02 1.608992666006088257e-01 -2.236730419099330902e-02 -7.998886704444885254e-02 -4.668044298887252808e-02
-9.812096506357192993e-02 -5.796563625335693359e-02 -6.389532238245010376e-02 9.607943147420883179e-02 -6.846193224191665649e-02 8.050701022148132324e-02 2.091146558523178101e-01 -1.961086876690387726e-02 -4.912285506725311279e-02 -2.852351963520050049e-02
-8.931390941143035889e-02 -4.834264144301414490e-02 -8.555470407009124756e-02 7.085427641868591309e-02 -3.631206229329109192e-02 6.110112369060516357e-02 2.208289802074432373e-01 -1.394260115921497345e-02 -5.537488311529159546e-02 -2.394332922995090485e-02
-6.194160133600234985e-02 -4.520758241415023804e-02 -8.029260486364364624e-02 4.971896484494209290e-02 -7.569554261863231659e-03 5.697121471166610718e-02 1.544643044471740723e-01 -1.055249106138944626e-02 -3.702833130955696106e-02 -1.856241561472415924e-02
-5.023564398288726807e-02 -3.053053840994834900e-02 -6.505707651376724243e-02 -1.641143672168254852e-02 -8.256082655861973763e-04 4.736080020666122437e-02 1.481653302907943726e-01 -6.099702324718236923e-03 -1.440487708896398544e-02 -1.196124497801065445e-02
-3.371701017022132874e-02 -2.294790744781494141e-02 -5.847652629017829895e-02 -2.561510726809501648e-02 -1.191348885186016560e-03 1.858361810445785522e-02 1.299710422754287720e-01 -2.187517238780856133e-03 1.450489071430638433e-04 -4.564231727272272110e-03
-1.754645071923732758e-02 -1.718452572822570801e-02 -4.230563342571258545e-02 -1.374196074903011322e-02 1.401024637743830681e-03 -1.503615453839302063e-02 1.017320975661277771e-01 -9.564208448864519596e-04 5.406464915722608566e-03 -1.768463989719748497e-03
-7.721012458205223083e-03 -1.138156279921531677e-02 -1.099948398768901825e-02 -4.679602570831775665e-03 -4.581695422530174255e-03 -1.916861534118652344e-02 5.967250466346740723e-02 -3.331059997435659170e-04 -2.830447629094123840e-04 -5.243582418188452721e-04
-2.827754477038979530e-03 -2.916611731052398682e-03 2.507578348740935326e-03 -3.935284039471298456e-04 -2.303525398019701242e-04 4.207594785839319229e-03 4.785930505022406578e-04 -2.770895298453979194e-05 -7.065110839903354645e-04 -9.129871614277362823e-05
-6.063884939067065716e-04 -3.032199805602431297e-03 -3.000472206622362137e-04 -3.924328484572470188e-05 -1.134066696977242827e-04 1.185668748803436756e-03 3.683632472530007362e-03 -3.691347956191748381e-07 -7.756654522381722927e-04 -1.981110472115688026e-06
0.000000000000000000e+00 0.000000000000000000e+00 0.000000000000000000e+00 0.000000000000000000e+00 0.000000000000000000e+00 0.000000000000000000e+00 0.000000000000000000e+00 0.000000000000000000e+00 0.000000000000000000e+00 0.000000000000000000e+00
0.000000000000000000e+00 0.000000000000000000e+00 0.000000000000000000e+00 0.000000000000000000e+00 0.000000000000000000e+00 0.000000000000000000e+00 0.000000000000000000e+00 0.000000000000000000e+00 0.000000000000000000e+00 0.000000000000000000e+00
-1.547744155061536730e-08 -3.058385189547152549e-08 -5.698516361007932574e-06 7.394793101411778480e-06 -9.830925762344122631e-08 -1.137772756010235753e-06 -1.142239547391454835e-08 -9.103939824228746147e-09 -3.858215222862781957e-07 -7.744541008491978573e-09
-1.332284591626375914e-05 2.056629309663549066e-04 -1.445999805582687259e-04 2.321782085346058011e-04 -2.649153884703991935e-06 -1.439285697415471077e-04 -1.485679240431636572e-04 -9.919156696014397312e-08 1.990682903851848096e-05 -4.580253062158590183e-06
-1.189003160106949508e-04 -6.421514990506693721e-05 -4.501174844335764647e-04 2.866707975044846535e-03 -2.839084481820464134e-04 -1.372157013975083828e-03 -1.734562974888831377e-04 7.712556543992832303e-05 -3.279573575127869844e-04 -1.531215093564242125e-04
-2.572527388110756874e-03 6.470498628914356232e-04 -4.633167758584022522e-03 1.117120124399662018e-02 3.241187892854213715e-03 -8.200447075068950653e-03 3.054376458749175072e-03 -6.650942377746105194e-04 -1.692656194791197777e-03 -3.499227168504148722e-04
-2.017145417630672455e-02 7.355874404311180115e-03 1.115340273827314377e-02 5.492693558335304260e-02 4.815356340259313583e-03 -3.934690728783607483e-02 -2.887435723096132278e-03 -5.843850784003734589e-03 -7.096671964973211288e-03 -2.905261237174272537e-03
-2.390577457845211029e-02 -7.740869768895208836e-04 4.075597226619720459e-02 8.316690474748611450e-02 -1.217590272426605225e-02 -5.964287370443344116e-02 -2.033622469753026962e-03 -6.792828440666198730e-03 -1.399098243564367294e-02 -4.606736823916435242e-03
-1.863490417599678040e-02 -2.266611717641353607e-02 6.145270541310310364e-02 1.264162510633468628e-01 -2.666636556386947632e-02 -7.578238099813461304e-02 1.409261673688888550e-02 -1.841167174279689789e-02 -2.776160649955272675e-02 -1.203858014196157455e-02
-1.901538111269474030e-02 -4.576731845736503601e-02 1.360525041818618774e-01 1.747050583362579346e-01 -6.926595419645309448e-02 -1.303990036249160767e-01 4.507384449243545532e-02 -3.305796533823013306e-02 -3.366390988230705261e-02 -2.466156333684921265e-02
-8.980031125247478485e-03 -6.058519333600997925e-02 2.459768354892730713e-01 1.752392053604125977e-01 -1.119410023093223572e-01 -1.352067440748214722e-01 3.574756160378456116e-02 -5.557968840003013611e-02 -4.093180224299430847e-02 -4.373958334326744080e-02
-2.134450152516365051e-02 -5.673101171851158142e-02 2.681109309196472168e-01 2.299143373966217041e-01 -1.739564836025238037e-01 -1.159809306263923645e-01 5.123006179928779602e-02 -8.218629658222198486e-02 -3.714391216635704041e-02 -6.191249564290046692e-02
-1.689586974680423737e-02 -5.319048836827278137e-02 3.153728246688842773e-01 2.684120237827301025e-01 -2.000600844621658325e-01 -8.661416172981262207e-02 -2.690995670855045319e-02 -1.036124154925346375e-01 -1.029623392969369888e-02 -8.620543032884597778e-02
-3.923759981989860535e-02 2.074052952229976654e-02 3.112275004386901855e-01 2.515952885150909424e-01 -2.268462479114532471e-01 -1.105241328477859497e-01 -3.727280721068382263e-02 -1.233171075582504272e-01 7.514580339193344116e-02 -1.215112730860710144e-01
-2.971073798835277557e-02 1.079182028770446777e-01 2.230953872203826904e-01 2.633513510227203369e-01 -1.963047534227371216e-01 -1.427668184041976929e-01 -5.120126157999038696e-02 -1.444912403821945190e-01 1.124312132596969604e-01 -1.423216909170150757e-01
-4.182652384042739868e-02 1.206808090209960938e-01 1.798192262649536133e-01 2.358033806085586548e-01 -2.034248262643814087e-01 -6.082338839769363403e-02 -3.403948619961738586e-02 -1.538802534341812134e-01 1.538398265838623047e-01 -1.961489021778106689e-01
-1.908657513558864594e-02 1.034763529896736145e-01 1.195086389780044556e-01 2.212971895933151245e-01 -1.969856768846511841e-01 4.316579550504684448e-02 -6.873526610434055328e-03 -1.513259410858154297e-01 1.130905747413635254e-01 -2.262667566537857056e-01
-5.642742663621902466e-02 6.643216311931610107e-02 1.174562573432922363e-01 1.901648342609405518e-01 -1.430716961622238159e-01 7.619623094797134399e-02 7.781838625669479370e-02 -1.386841535568237305e-01 3.394543007016181946e-02 -2.238298356533050537e-01
-4.266115278005599976e-02 7.767254021018743515e-03 6.355670094490051270e-02 1.282209306955337524e-01 -1.007905676960945129e-01 1.042371392250061035e-01 1.632331907749176025e-01 -1.134693995118141174e-01 -3.578238561749458313e-02 -1.743115782737731934e-01
-7.686286419630050659e-02 7.749248761683702469e-03 -5.537314806133508682e-03 1.222253739833831787e-01 -6.476394087076187134e-02 1.176210418343544006e-01 1.894249618053436279e-01 -9.069538861513137817e-02 -5.750715732574462891e-02 -1.416538357734680176e-01
-8.121720701456069946e-02 7.724618911743164062e-02 -7.556746900081634521e-02 2.378526143729686737e-02 1.460091676563024521e-02 4.557016491889953613e-02 2.227011024951934814e-01 -6.470934301614761353e-02 -4.521610215306282043e-02 -1.171932220458984375e-01
-6.399951875209808350e-02 8.670851588249206543e-02 -8.705778419971466064e-02 -5.153372883796691895e-02 5.461789295077323914e-02 -6.086549255996942520e-04 2.211242020130157471e-01 -4.845652729272842407e-02 -2.269285172224044800e-02 -8.810147643089294434e-02
-6.685505062341690063e-02 9.285834431648254395e-02 -1.401304900646209717e-01 -9.614779055118560791e-02 5.464639514684677124e-02 8.914458751678466797e-02 2.373359948396682739e-01 -3.144560381770133972e-02 -7.391367107629776001e-02 -6.549274176359176636e-02
-5.227785557508468628e-02 5.716253444552421570e-02 -1.333345174789428711e-01 -8.500884473323822021e-02 6.657557934522628784e-02 8.740703761577606201e-02 2.029955685138702393e-01 -2.261006087064743042e-02 -8.426804840564727783e-02 -3.664115071296691895e-02
-5.477244779467582703e-02 1.860692352056503296e-02 -9.514045715332031250e-02 -8.148881793022155762e-02 6.306748092174530029e-02 1.014427840709686279e-01 1.425457447767257690e-01 -1.087937597185373306e-02 -6.806700676679611206e-02 -1.531463582068681717e-02
-4.613295942544937134e-02 -3.137689456343650818e-02 -4.564768821001052856e-02 -1.950827240943908691e-02 3.842309489846229553e-02 6.642913073301315308e-02 5.142199993133544922e-02 -4.096985794603824615e-03 -4.658156074583530426e-03 -4.853358492255210876e-03
-1.343998499214649200e-02 -1.784285716712474823e-02 -5.199145991355180740e-03 -2.050234237685799599e-03 3.188089700415730476e-03 1.968024298548698425e-02 8.662747219204902649e-03 -1.113418373279273510e-03 9.743150323629379272e-03 -1.628583413548767567e-03
-1.309189479798078537e-03 -2.184481592848896980e-03 -9.009619243443012238e-04 -1.857924798969179392e-04 -2.187048085033893585e-03 2.071876544505357742e-03 -1.521054946351796389e-04 -2.767812693491578102e-04 5.686160176992416382e-03 -5.616758135147392750e-04
-7.175611972343176603e-05 -7.726961630396544933e-04 -6.426612380892038345e-04 -1.098012144211679697e-04 -5.806871340610086918e-04 -7.201807457022368908e-04 2.321339678019285202e-03 -4.123531834920868278e-05 6.900574080646038055e-04 -7.237912359414622188e-05
0.000000000000000000e+00 0.000000000000000000e+00 0.000000000000000000e+00 0.000000000000000000e+00 0.000000000000000000e+00 0.000000000000000000e+00 0.000000000000000000e+00 0.000000000000000000e+00 0.000000000000000000e+00 0.000000000000000000e+00
0.000000000000000000e+00 0.000000000000000000e+00 0.000000000000000000e+00 0.000000000000000000e+00 0.000000000000000000e+00 0.000000000000000000e+00 0.000000000000000000e+00 0.000000000000000000e+00 0.000000000000000000e+00 0.000000000000000000e+00
-7.437106978613883257e-05 9.514641533314716071e-06 9.760903776623308659e-05 6.629764684475958347e-04 -1.471956693421816453e-05 -6.633559823967516422e-04 5.306970706442371011e-05 -1.687983626652567182e-06 -6.666045374004170299e-05 -2.374802306803758256e-06
-1.310187974013388157e-03 1.362966606393456459e-03 1.686650561168789864e-03 1.581120491027832031e-02 -2.396752825006842613e-04 -7.623019162565469742e-03 -5.865236744284629822e-03 -4.220548726152628660e-04 -2.856316743418574333e-03 -5.443314439617097378e-04
-7.708291988819837570e-03 2.414898946881294250e-03 2.221192000433802605e-03 4.586420953273773193e-02 2.017116639763116837e-03 -3.178936243057250977e-02 7.414788706228137016e-04 -2.541615394875407219e-03 -8.893833495676517487e-03 -2.325773937627673149e-03
-3.192761540412902832e-02 1.340780686587095261e-02 1.677253842353820801e-02 1.131194755434989929e-01 1.523056067526340485e-02 -6.966089457273483276e-02 -3.051781281828880310e-02 1.221932377666234970e-02 -2.516674995422363281e-02 -1.347647234797477722e-02
-3.307944163680076599e-02 -1.246401295065879822e-02 5.868992209434509277e-02 1.712046563625335693e-01 1.915753632783889771e-02 -1.067149415612220764e-01 -2.530362270772457123e-02 9.019471704959869385e-03 -4.292642325162887573e-02 -3.758300840854644775e-02
-4.031018167734146118e-02 -5.721043422818183899e-02 1.356275975704193115e-01 1.886219680309295654e-01 6.953532807528972626e-03 -8.799131959676742554e-02 -1.963620074093341827e-02 -2.828042255714535713e-03 -5.858236923813819885e-02 -6.464429199695587158e-02
-4.420811310410499573e-02 -1.182061210274696350e-01 2.233555912971496582e-01 1.804352998733520508e-01 -3.217457560822367668e-03 -9.301947802305221558e-02 1.375550311058759689e-02 -7.288718596100807190e-03 -6.290166825056076050e-02 -8.870504051446914673e-02
-3.385516256093978882e-02 -1.383646279573440552e-01 2.652853429317474365e-01 1.877256035804748535e-01 -2.448875270783901215e-02 -4.086130857467651367e-02 -8.439889177680015564e-03 -4.783252254128456116e-02 -3.417731821537017822e-02 -1.249917149543762207e-01
1.964952796697616577e-03 -9.442762285470962524e-02 2.688418626785278320e-01 1.846182048320770264e-01 -1.069832518696784973e-01 4.648972302675247192e-03 -1.344844140112400055e-02 -1.104669272899627686e-01 -4.594343528151512146e-02 -8.880495280027389526e-02
5.794568918645381927e-03 -5.267533287405967712e-02 2.589500248432159424e-01 1.424090415239334106e-01 -1.359564214944839478e-01 2.326394803822040558e-02 -1.526902467012405396e-01 -1.632804125547409058e-01 9.335105121135711670e-02 -1.916650310158729553e-02
2.295585535466670990e-02 1.271225325763225555e-02 2.399214953184127808e-01 7.554312050342559814e-02 -1.735877990722656250e-01 -2.074627950787544250e-02 -1.324170082807540894e-01 -2.135273367166519165e-01 2.015734761953353882e-01 -1.242789812386035919e-02
1.208913698792457581e-01 8.231791853904724121e-02 2.180852144956588745e-01 6.912495940923690796e-02 -1.826297789812088013e-01 -5.697602406144142151e-02 -1.710860282182693481e-01 -2.610036432743072510e-01 1.822949498891830444e-01 -1.019013812765479088e-03
1.439007818698883057e-01 1.071301028132438660e-01 1.971565186977386475e-01 4.951442405581474304e-02 -1.111792996525764465e-01 -7.470207661390304565e-02 -8.917481452226638794e-02 -3.083851039409637451e-01 1.908212900161743164e-01 -1.050818264484405518e-01
1.413192301988601685e-01 1.083603873848915100e-01 2.210771739482879639e-01 1.071021705865859985e-01 -6.507158279418945312e-02 -5.730775371193885803e-02 -8.767042309045791626e-02 -3.292083740234375000e-01 1.568470448255538940e-01 -1.954477876424789429e-01
1.405944079160690308e-01 -3.169098636135458946e-04 2.588419318199157715e-01 1.398511976003646851e-01 -6.114379037171602249e-03 2.578138560056686401e-02 -6.015445291996002197e-02 -3.047603964805603027e-01 1.370948404073715210e-01 -3.308179378509521484e-01
1.731523275375366211e-01 -6.854002177715301514e-02 2.165214121341705322e-01 3.831373900175094604e-02 7.239390164613723755e-03 8.889763802289962769e-02 1.300218049436807632e-02 -2.830075323581695557e-01 1.448866128921508789e-01 -3.304653465747833252e-01
1.194591149687767029e-01 -1.956580206751823425e-02 1.333667188882827759e-01 2.147029899060726166e-02 5.677248165011405945e-02 8.060488104820251465e-02 9.947760403156280518e-02 -2.588629126548767090e-01 5.144717171788215637e-02 -2.841688394546508789e-01
3.451088443398475647e-02 4.829064011573791504e-02 1.476418226957321167e-02 9.718753397464752197e-03 8.983079344034194946e-02 5.695156380534172058e-02 1.469473540782928467e-01 -2.304748892784118652e-01 6.596827507019042969e-02 -2.365072220563888550e-01
-1.998837850987911224e-02 1.311975717544555664e-01 -4.435623809695243835e-02 -5.170896649360656738e-02 7.587632536888122559e-02 1.152798756957054138e-01 1.408594101667404175e-01 -1.839916408061981201e-01 3.808925300836563110e-02 -2.012566030025482178e-01
5.760298576205968857e-03 1.999687701463699341e-01 -7.324671000242233276e-02 -1.541129499673843384e-01 9.280672669410705566e-02 1.278389245271682739e-01 1.378454864025115967e-01 -1.230220347642898560e-01 -4.405834153294563293e-02 -1.697804480791091919e-01
-2.419671975076198578e-02 1.709141135215759277e-01 -1.139717251062393188e-01 -1.793026179075241089e-01 1.563288718461990356e-01 2.164655029773712158e-01 1.013339906930923462e-01 -8.544212579727172852e-02 -9.483552724123001099e-02 -1.472938358783721924e-01
-8.625052869319915771e-02 8.831723779439926147e-02 -1.251731961965560913e-01 -1.606065779924392700e-01 1.960968077182769775e-01 2.286506146192550659e-01 9.063234925270080566e-02 -4.928932338953018188e-02 -8.565646409988403320e-02 -9.672067314386367798e-02
-8.543062955141067505e-02 1.259832922369241714e-02 -7.839033752679824829e-02 -5.408920720219612122e-02 8.442936837673187256e-02 1.728444844484329224e-01 4.478131607174873352e-02 -2.054591476917266846e-02 -2.859517559409141541e-02 -4.760205000638961792e-02
-3.553496301174163818e-02 -2.768287807703018188e-02 -1.723108813166618347e-02 -1.037270482629537582e-02 1.525372848846018314e-03 8.748956024646759033e-02 -1.293166424147784710e-03 -5.830806680023670197e-03 2.137915976345539093e-02 -1.244848873466253281e-02
-9.571343660354614258e-03 -3.592799883335828781e-03 -3.456030040979385376e-03 -1.711361575871706009e-03 -3.771275049075484276e-03 2.499410510063171387e-02 3.502499312162399292e-03 -2.445205580443143845e-03 -2.024900633841753006e-03 -1.923677278682589531e-03
-2.202850533649325371e-03 -7.651920313946902752e-04 -9.301520767621695995e-04 -1.839280739659443498e-04 -1.770445815054699779e-04 1.493347226642072201e-03 3.464946988970041275e-03 -8.539608097635209560e-05 -5.666915676556527615e-04 -4.703873491962440312e-05
0.000000000000000000e+00 0.000000000000000000e+00 0.000000000000000000e+00 0.000000000000000000e+00 0.000000000000000000e+00 0.000000000000000000e+00 0.000000000000000000e+00 0.000000000000000000e+00 0.000000000000000000e+00 0.000000000000000000e+00
-6.048459795238159131e-07 -4.200213936655927682e-07 -1.231606006513175089e-06 3.316770016681402922e-05 -9.928367461498055491e-08 -6.769208994228392839e-06 -6.578797240308631444e-08 -8.101555408757121768e-07 -2.075494421660550870e-06 -2.109130582539364696e-05
-1.357468718197196722e-04 -1.836926676332950592e-03 -8.899549138732254505e-04 3.682050853967666626e-03 -7.131742313504219055e-04 -8.488069870509207249e-04 -2.308303228346630931e-04 2.974621485918760300e-03 -7.100690854713320732e-04 -1.291161752305924892e-03
-1.619604765437543392e-03 1.901726936921477318e-03 5.606153979897499084e-03 3.210234642028808594e-02 -7.101214490830898285e-03 -2.292477525770664215e-02 -7.034636568278074265e-03 1.450697705149650574e-02 -8.867529220879077911e-03 -6.569466553628444672e-03
-1.410764921456575394e-02 1.253022463060915470e-03 1.920125819742679596e-02 8.896518498659133911e-02 1.891937339678406715e-03 -5.984680727124214172e-02 -3.734746016561985016e-03 6.765170954167842865e-03 -1.932980492711067200e-02 -2.105759643018245697e-02
-2.902797795832157135e-02 -1.427300833165645599e-02 4.247435927391052246e-02 1.550408452749252319e-01 4.207616299390792847e-02 -8.120264112949371338e-02 -3.394287079572677612e-02 3.090269304811954498e-02 -3.875987231731414795e-02 -7.328762114048004150e-02
-3.878572583198547363e-02 -4.385340958833694458e-02 1.057612225413322449e-01 1.968699395656585693e-01 5.525754764676094055e-02 -8.950944989919662476e-02 -5.569605901837348938e-02 5.874653533101081848e-02 -6.725343316793441772e-02 -1.215374544262886047e-01
-5.338648706674575806e-02 -9.483042359352111816e-02 1.667788326740264893e-01 1.225872784852981567e-01 5.054307729005813599e-02 -3.467462584376335144e-02 -1.709012687206268311e-02 7.192569971084594727e-02 -3.981887549161911011e-02 -1.720343381166458130e-01
-6.363788247108459473e-02 -1.628091186285018921e-01 1.745744198560714722e-01 1.253625452518463135e-01 1.530316378921270370e-02 3.477353602647781372e-03 -3.217060118913650513e-02 1.015359386801719666e-01 1.947921887040138245e-02 -1.811149716377258301e-01
-8.453470468521118164e-02 -2.091302424669265747e-01 1.929125636816024780e-01 1.560547500848770142e-01 -7.485053502023220062e-03 4.317583143711090088e-02 -6.904099136590957642e-02 7.351530343294143677e-02 4.507521539926528931e-02 -1.405424475669860840e-01
-2.203829400241374969e-02 -1.570906639099121094e-01 1.426586359739303589e-01 1.401118487119674683e-01 -8.753471821546554565e-02 7.319177687168121338e-02 -1.333204209804534912e-01 8.995621651411056519e-02 2.623723261058330536e-02 -7.217117398977279663e-02
7.324861362576484680e-03 -8.515500277280807495e-02 6.449126452207565308e-02 8.554909378290176392e-02 -1.822297871112823486e-01 5.667562410235404968e-02 -1.504036039113998413e-01 6.843250244855880737e-02 8.909571170806884766e-02 4.621935263276100159e-02
3.869270905852317810e-02 -7.829205691814422607e-02 7.281266897916793823e-02 8.610559999942779541e-02 -2.070176750421524048e-01 1.485131774097681046e-02 -1.362329572439193726e-01 -2.904376015067100525e-02 1.310261338949203491e-01 1.070983186364173889e-01
1.128282919526100159e-01 -7.993873208761215210e-02 9.252597391605377197e-02 1.464377790689468384e-01 -2.415868490934371948e-01 7.631562650203704834e-03 -1.828947663307189941e-01 -1.427171528339385986e-01 4.412337765097618103e-02 2.435908168554306030e-01
1.274733841419219971e-01 -7.735836505889892578e-02 7.056849449872970581e-02 1.198922246694564819e-01 -2.811616659164428711e-01 5.942273885011672974e-02 -1.647082716226577759e-01 -1.637721210718154907e-01 6.672696024179458618e-02 2.429169267416000366e-01
1.112387552857398987e-01 -1.502734124660491943e-01 6.932008266448974609e-02 1.273400932550430298e-01 -2.662600576877593994e-01 -3.462569415569305420e-02 -1.233230531215667725e-01 -1.411407738924026489e-01 2.208976000547409058e-01 1.868266165256500244e-01
1.528861671686172485e-01 -1.863801777362823486e-01 9.878652542829513550e-02 1.518260240554809570e-01 -2.343159765005111694e-01 -6.795259565114974976e-02 -1.240475848317146301e-01 -1.256143301725387573e-01 1.482201665639877319e-01 1.865911334753036499e-01
2.070806920528411865e-01 -2.061097323894500732e-01 7.203240692615509033e-02 1.303199827671051025e-01 -1.552904695272445679e-01 -7.775001227855682373e-03 -1.169338524341583252e-01 -1.140144020318984985e-01 7.372868806123733521e-02 1.169618517160415649e-01
2.056381106376647949e-01 -8.432827144861221313e-02 5.693816393613815308e-02 1.391701847314834595e-01 -1.673425287008285522e-01 5.580644309520721436e-02 -1.264148652553558350e-01 -1.346421241760253906e-01 -2.682001888751983643e-02 8.199513703584671021e-02
1.023828759789466858e-01 -2.847342379391193390e-02 6.928070914000272751e-03 6.728908978402614594e-03 -4.187612980604171753e-02 1.068121716380119324e-01 -6.717976182699203491e-02 -1.531987935304641724e-01 9.467703849077224731e-02 -2.680080384016036987e-02
5.867736786603927612e-02 9.628195315599441528e-02 -6.566707789897918701e-02 1.867060363292694092e-02 -1.641728915274143219e-02 9.935246407985687256e-02 -2.428139373660087585e-02 -1.189754754304885864e-01 6.433173269033432007e-02 -1.119726225733757019e-01
1.164508983492851257e-01 1.128691434860229492e-01 -9.502706676721572876e-02 -3.155561909079551697e-02 7.865417748689651489e-02 9.071687608957290649e-02 -2.980565093457698822e-02 -6.577159464359283447e-02 -3.786197397857904434e-03 -1.727448850870132446e-01
1.042298451066017151e-01 1.000480651855468750e-01 -1.092050895094871521e-01 -1.631103605031967163e-01 2.407119274139404297e-01 2.136337757110595703e-01 -5.072102323174476624e-02 -8.493653684854507446e-02 -2.403217926621437073e-02 -2.266187071800231934e-01
-4.099454730749130249e-02 4.064165800809860229e-02 -1.681314706802368164e-01 -1.828088164329528809e-01 2.777177989482879639e-01 3.337212800979614258e-01 -4.195576161146163940e-02 -8.176484704017639160e-02 5.416838079690933228e-02 -1.905936598777770996e-01
-1.246138438582420349e-01 -1.934410072863101959e-02 -9.648542851209640503e-02 -7.798029482364654541e-02 1.067269966006278992e-01 3.702996969223022461e-01 -2.490380220115184784e-02 -4.696415737271308899e-02 2.175198495388031006e-02 -1.084871441125869751e-01
-7.798258960247039795e-02 -3.267010301351547241e-02 -2.453707903623580933e-02 -2.304262667894363403e-02 2.640839666128158569e-03 2.034270763397216797e-01 -1.828366331756114960e-02 -1.994833163917064667e-02 2.789292670786380768e-02 -3.749631717801094055e-02
-3.042088821530342102e-02 -3.405560739338397980e-03 -2.719672163948416710e-03 -2.995960181578993797e-03 5.767044611275196075e-03 6.733288615942001343e-02 -1.179820485413074493e-02 -7.117873523384332657e-03 -5.544719286262989044e-03 -9.097025729715824127e-03
-6.629327312111854553e-03 -2.641583705553784966e-05 -9.171333658741787076e-05 -4.714189344667829573e-05 -5.136225954629480839e-04 1.019608974456787109e-02 -7.177044171839952469e-04 -4.029350820928812027e-04 -1.137563842348754406e-03 -6.296676001511514187e-04
0.000000000000000000e+00 0.000000000000000000e+00 0.000000000000000000e+00 0.000000000000000000e+00 0.000000000000000000e+00 0.000000000000000000e+00 0.000000000000000000e+00 0.000000000000000000e+00 0.000000000000000000e+00 0.000000000000000000e+00
-9.097420843318104744e-05 -1.119038133765570819e-04 -1.270686916541308165e-04 1.320313895121216774e-03 -1.000695774564519525e-04 -2.269344404339790344e-04 -4.702606929640751332e-06 8.888250449672341347e-04 -3.669854195322841406e-04 -1.180500723421573639e-03
-3.519750316627323627e-04 -1.474555698223412037e-03 4.182210192084312439e-03 2.368701389059424400e-03 -1.194394077174365520e-03 -6.575512234121561050e-03 -8.654691046103835106e-04 1.037466246634721756e-02 -1.765187014825642109e-03 -4.698480479419231415e-03
-2.813316881656646729e-03 -2.149957930669188499e-03 9.994009509682655334e-03 3.781337663531303406e-02 -3.781581297516822815e-03 -3.993937373161315918e-02 -9.827593341469764709e-03 4.233075305819511414e-02 -8.780671283602714539e-03 -2.284562028944492340e-02
-2.381924726068973541e-02 -4.196381662040948868e-03 4.678461328148841858e-02 1.675123125314712524e-01 1.471148338168859482e-02 -1.365863680839538574e-01 -1.085111871361732483e-02 3.447360917925834656e-02 -1.234821043908596039e-02 -7.568065077066421509e-02
-3.137848898768424988e-02 -3.557339683175086975e-02 6.494442373514175415e-02 2.421018332242965698e-01 5.345069244503974915e-02 -1.427915394306182861e-01 -4.634492471814155579e-02 7.674322277307510376e-02 -2.109745517373085022e-02 -1.600543260574340820e-01
-4.228909686207771301e-02 -8.098991960287094116e-02 1.507310122251510620e-01 1.670861989259719849e-01 3.064124658703804016e-02 -9.188830107450485229e-02 -7.336098700761795044e-02 1.541130393743515015e-01 -1.386798266321420670e-02 -2.001750618219375610e-01
-6.866067647933959961e-02 -1.285294741392135620e-01 1.362045258283615112e-01 6.686308234930038452e-02 2.816577814519405365e-02 1.597730256617069244e-02 -2.777563780546188354e-02 1.765718311071395874e-01 4.114254564046859741e-02 -2.399590611457824707e-01
-9.839597344398498535e-02 -2.142129540443420410e-01 1.315251737833023071e-01 4.296328127384185791e-02 -3.215089812874794006e-02 8.541821688413619995e-02 -5.472429469227790833e-02 2.025443762540817261e-01 1.048492193222045898e-01 -1.678161174058914185e-01
-3.183374553918838501e-02 -2.272337377071380615e-01 6.503088027238845825e-02 4.651999101042747498e-02 -6.357729434967041016e-02 7.615263015031814575e-02 -9.747664630413055420e-02 2.357272654771804810e-01 7.946113497018814087e-02 -8.277046680450439453e-02
7.839825935661792755e-03 -1.943062543869018555e-01 1.636720634996891022e-02 3.198784589767456055e-02 -1.492695361375808716e-01 1.161137446761131287e-01 -1.380239874124526978e-01 2.569808065891265869e-01 6.423670798540115356e-02 -1.192643586546182632e-02
5.764883011579513550e-02 -1.696934849023818970e-01 6.010177731513977051e-02 3.098003007471561432e-02 -2.233881652355194092e-01 1.209688633680343628e-01 -1.450492441654205322e-01 2.298883199691772461e-01 -5.175847932696342468e-02 9.030137956142425537e-02
5.440061539411544800e-02 -1.119942441582679749e-01 3.269472718238830566e-02 1.163384318351745605e-01 -3.449922800064086914e-01 6.198431923985481262e-02 -1.609627902507781982e-01 1.633865237236022949e-01 -4.902446642518043518e-02 2.381697595119476318e-01
7.560895383358001709e-02 -1.309333443641662598e-01 8.411378413438796997e-02 1.405334174633026123e-01 -3.020251691341400146e-01 -2.362471446394920349e-02 -1.866384744644165039e-01 7.796620577573776245e-02 -6.798946112394332886e-02 3.329883217811584473e-01
9.231913834810256958e-02 -1.350011825561523438e-01 6.552855670452117920e-02 1.801871657371520996e-01 -4.127509593963623047e-01 5.978676304221153259e-02 -1.763261258602142334e-01 -6.180126685649156570e-03 -1.366359740495681763e-01 4.690726995468139648e-01
1.066323071718215942e-01 -2.236016988754272461e-01 8.364412002265453339e-03 1.602206826210021973e-01 -4.188759028911590576e-01 -5.774119496345520020e-02 -1.609288603067398071e-01 4.037214443087577820e-02 5.850408598780632019e-02 4.870544970035552979e-01
1.500946581363677979e-01 -2.070574611425399780e-01 -1.603131182491779327e-02 5.306845158338546753e-02 -3.692560195922851562e-01 1.440592668950557709e-02 -2.270096391439437866e-01 1.267372369766235352e-01 5.708812177181243896e-02 4.179599881172180176e-01
2.163302004337310791e-01 -1.700056791305541992e-01 -1.152621284127235413e-01 9.640797972679138184e-02 -2.435865253210067749e-01 6.373454630374908447e-02 -2.302380055189132690e-01 1.835407614707946777e-01 -5.478503927588462830e-02 2.538641989231109619e-01
2.064686566591262817e-01 -1.355684697628021240e-01 -4.968242347240447998e-02 4.164961352944374084e-02 -2.112809419631958008e-01 6.046358495950698853e-02 -2.685276269912719727e-01 1.706645041704177856e-01 5.035844817757606506e-02 1.354545205831527710e-01
1.226773411035537720e-01 -3.839906677603721619e-02 -1.481707766652107239e-02 4.787182062864303589e-02 -1.140018701553344727e-01 1.259143799543380737e-01 -2.620747685432434082e-01 1.027722805738449097e-01 -7.111726328730583191e-03 3.716896101832389832e-02
4.387021064758300781e-02 2.526688016951084137e-02 -7.185478508472442627e-02 6.342957913875579834e-02 -7.399998605251312256e-02 9.708042442798614502e-02 -2.047416567802429199e-01 7.480603456497192383e-02 6.046735122799873352e-02 -1.432384364306926727e-02
6.979898363351821899e-02 1.489594485610723495e-02 -4.049243405461311340e-02 3.981446381658315659e-03 3.115539625287055969e-02 1.048257127404212952e-01 -1.871229708194732666e-01 1.440339349210262299e-02 7.952728122472763062e-02 -9.097283333539962769e-02
1.180125921964645386e-01 -2.126546809449791908e-03 -2.549819834530353546e-02 -1.023834571242332458e-01 1.949481517076492310e-01 1.604742705821990967e-01 -1.953598409891128540e-01 1.513379742391407490e-03 7.133679091930389404e-02 -2.209173589944839478e-01
4.529777169227600098e-02 -5.294254422187805176e-02 -1.683031320571899414e-01 -1.745859831571578979e-01 2.260307371616363525e-01 3.504609465599060059e-01 -1.468762010335922241e-01 -3.397512435913085938e-02 1.857705116271972656e-01 -2.308774888515472412e-01
-8.450579643249511719e-02 -9.845106303691864014e-02 -1.235300302505493164e-01 -1.105531081557273865e-01 7.594264298677444458e-02 4.716782867908477783e-01 -5.636223033070564270e-02 -5.467373132705688477e-02 1.347534209489822388e-01 -1.542986631393432617e-01
-8.958172053098678589e-02 -5.957185104489326477e-02 -3.744099661707878113e-02 -2.981962822377681732e-02 -1.170129049569368362e-03 3.496778905391693115e-01 -4.310072958469390869e-02 -3.707799315452575684e-02 1.332869101315736771e-02 -6.524313986301422119e-02
-3.026607632637023926e-02 -4.285749047994613647e-03 -4.534705542027950287e-03 -3.000460332259535789e-03 6.209003739058971405e-03 7.864727824926376343e-02 -1.179033331573009491e-02 -6.762487813830375671e-03 -6.910299882292747498e-03 -1.730617508292198181e-02
-1.112662837840616703e-03 -1.521668513305485249e-03 -2.240662579424679279e-04 -2.543759183026850224e-04 -5.297230673022568226e-04 8.396453224122524261e-03 -2.289480064064264297e-03 -5.104829906485974789e-04 -1.342037925496697426e-03 -6.119547178968787193e-04
2.042043488472700119e-03 -8.779247195889183786e-07 -8.973776130005717278e-05 -4.661466732613916975e-07 -6.401496648322790861e-05 -2.471319248797954060e-06 -1.382839582220185548e-05 -1.130851916968822479e-03 -1.745280678733251989e-05 -7.223424036055803299e-04
-2.443788398522883654e-04 -9.054913971340283751e-05 1.083285314962267876e-03 -1.577183953486382961e-03 -2.541568595916032791e-03 -2.845136914402246475e-04 -2.428676634735893458e-05 7.371127605438232422e-03 -4.884814261458814144e-04 -3.203451633453369141e-03
-3.801365674007683992e-04 -7.145220879465341568e-04 4.179541021585464478e-03 -2.138428622856736183e-03 -1.812566886655986309e-03 -7.257943972945213318e-03 -8.427636930719017982e-04 2.795033529400825500e-02 -3.454599063843488693e-03 -1.552891544997692108e-02
-4.775252658873796463e-03 -1.625468954443931580e-03 8.547025732696056366e-03 4.322953522205352783e-02 -9.909656830132007599e-03 -4.972901940345764160e-02 -1.361006032675504684e-02 9.265834838151931763e-02 -3.688003867864608765e-03 -6.109743565320968628e-02
-3.743965551257133484e-02 -6.462784949690103531e-03 5.204581096768379211e-02 1.860212385654449463e-01 1.382004236802458763e-03 -1.779744625091552734e-01 -1.814265362918376923e-02 1.139651983976364136e-01 7.675852160900831223e-03 -1.210704892873764038e-01
-5.132767930626869202e-02 -3.530462458729743958e-02 8.675183355808258057e-02 1.888121664524078369e-01 3.193513303995132446e-02 -1.615464687347412109e-01 -6.864073127508163452e-02 1.441844254732131958e-01 3.448178246617317200e-02 -1.693459153175354004e-01
-5.077464878559112549e-02 -9.190692007541656494e-02 1.223192140460014343e-01 1.319300085306167603e-01 -1.342110615223646164e-02 -1.106736287474632263e-01 -9.577114880084991455e-02 1.694519966840744019e-01 9.310565888881683350e-02 -1.542597115039825439e-01
-6.922776252031326294e-02 -1.342357397079467773e-01 1.084620058536529541e-01 4.416771605610847473e-02 -3.046376258134841919e-02 -2.669661119580268860e-02 -6.448195129632949829e-02 2.164004147052764893e-01 1.404788196086883545e-01 -1.844031512737274170e-01
-5.403408035635948181e-02 -2.102583646774291992e-01 8.006872236728668213e-02 -1.320571824908256531e-02 -9.461694955825805664e-02 1.035122945904731750e-01 -6.035657227039337158e-02 1.779549568891525269e-01 9.865371882915496826e-02 -2.771752513945102692e-02
3.341242671012878418e-02 -2.461942285299301147e-01 4.887714236974716187e-02 6.538056302815675735e-03 -3.310256078839302063e-02 5.724482983350753784e-02 -1.016848087310791016e-01 1.545284539461135864e-01 1.433717459440231323e-01 -6.299129873514175415e-02
4.107891395688056946e-02 -2.265065759420394897e-01 1.530682146549224854e-01 3.320723399519920349e-02 -1.249003335833549500e-01 9.267477691173553467e-02 -1.473326683044433594e-01 1.661026179790496826e-01 4.909379407763481140e-02 -3.648658841848373413e-02
2.781034074723720551e-02 -1.777368187904357910e-01 1.411669105291366577e-01 -1.651638559997081757e-02 -1.768253445625305176e-01 1.391949802637100220e-01 -1.462976634502410889e-01 2.630061507225036621e-01 -2.283570822328329086e-03 -5.151830241084098816e-02
6.372325867414474487e-02 -1.101003289222717285e-01 6.281770020723342896e-02 3.702015429735183716e-02 -2.363760173320770264e-01 5.719229951500892639e-02 -1.680829375982284546e-01 2.662997543811798096e-01 7.585722953081130981e-02 -4.835053533315658569e-02
4.683210700750350952e-02 -4.819314181804656982e-02 7.316553592681884766e-02 7.093639671802520752e-02 -2.140851467847824097e-01 -2.802024409174919128e-02 -2.114535719156265259e-01 1.359177231788635254e-01 3.780175745487213135e-02 1.370990127325057983e-01
1.162266135215759277e-01 -1.572271436452865601e-02 1.389081329107284546e-01 1.433768868446350098e-01 -4.215800464153289795e-01 -6.485556066036224365e-02 -2.279213815927505493e-01 1.639281809329986572e-01 -1.052561253309249878e-01 2.728961110115051270e-01
1.697967499494552612e-01 7.969927974045276642e-03 1.046313717961311340e-01 1.444394886493682861e-01 -4.049996733665466309e-01 -1.486194431781768799e-01 -2.645251750946044922e-01 2.150803059339523315e-01 -6.341402977705001831e-02 2.396401017904281616e-01
2.726409137248992920e-01 -8.118422329425811768e-02 1.461919490247964859e-02 8.789723366498947144e-02 -3.291777372360229492e-01 -9.312321245670318604e-02 -3.154574930667877197e-01 2.500090897083282471e-01 2.629953250288963318e-02 1.674769073724746704e-01
2.635955214500427246e-01 -9.973855689167976379e-03 -2.608960308134555817e-02 9.163910895586013794e-02 -1.849730908870697021e-01 -4.959661886096000671e-02 -3.766872882843017578e-01 2.655202150344848633e-01 -3.903224691748619080e-02 6.559766829013824463e-02
2.086491882801055908e-01 -7.284946739673614502e-02 -6.179327517747879028e-02 1.357778459787368774e-01 -8.628477901220321655e-02 -1.795550808310508728e-02 -4.589658677577972412e-01 2.623722255229949951e-01 5.088489130139350891e-02 4.016474261879920959e-02
1.076157465577125549e-01 -7.566596567630767822e-02 6.237757205963134766e-02 8.566919714212417603e-02 -5.449315905570983887e-02 6.329824030399322510e-02 -4.016445279121398926e-01 1.663548350334167480e-01 8.508396148681640625e-02 -3.859601169824600220e-02
7.435574382543563843e-02 -8.381690084934234619e-02 -2.255493029952049255e-02 1.399541497230529785e-01 -5.402984097599983215e-02 1.028824225068092346e-01 -3.033935725688934326e-01 1.350208222866058350e-01 5.833572149276733398e-02 -4.675348475575447083e-02
4.812682047486305237e-02 -1.064608991146087646e-01 -2.933972328901290894e-02 1.072753816843032837e-01 -1.069524977356195450e-02 1.334998905658721924e-01 -2.665892839431762695e-01 3.308593481779098511e-02 9.199348092079162598e-02 -8.961615967564284801e-04
1.391955912113189697e-01 -1.422203481197357178e-01 -5.480939149856567383e-02 3.752731159329414368e-02 6.684128940105438232e-02 1.784049421548843384e-01 -2.681109607219696045e-01 3.947979956865310669e-02 1.529991924762725830e-01 -1.493073105812072754e-01
1.535528004169464111e-01 -1.778344213962554932e-01 -1.071277558803558350e-01 -1.992161124944686890e-01 8.421870321035385132e-02 4.551951289176940918e-01 -2.164463549852371216e-01 -7.033368106931447983e-03 2.118817269802093506e-01 -1.971907615661621094e-01
-2.716491930186748505e-02 -1.554078012704849243e-01 -1.482610404491424561e-01 -1.433164328336715698e-01 3.726071445271372795e-04 6.507032513618469238e-01 -1.231117248535156250e-01 -7.068044692277908325e-02 1.626439541578292847e-01 -1.457769423723220825e-01
-9.541326761245727539e-02 -7.118766754865646362e-02 -5.200407654047012329e-02 -4.020162671804428101e-02 -2.592135965824127197e-02 4.371047616004943848e-01 -6.390793621540069580e-02 -4.638881981372833252e-02 2.936304360628128052e-02 -7.144282013177871704e-02
-2.831069752573966980e-02 -8.119125850498676300e-03 -6.478273775428533554e-03 -3.800319740548729897e-03 -1.999766007065773010e-02 1.106806844472885132e-01 -2.396540157496929169e-02 -1.255043130367994308e-02 8.475332520902156830e-03 -1.593418978154659271e-02
-1.449153525754809380e-03 -1.267459709197282791e-03 -4.224934673402458429e-04 -2.743591903708875179e-04 -7.869987166486680508e-04 9.528221562504768372e-03 -1.650280202738940716e-03 -2.514445455744862556e-03 -2.475932706147432327e-04 -9.154395665973424911e-04
-2.050099965344998054e-06 -2.133921952918171883e-06 -2.456931724736932665e-06 -3.341231786180287600e-05 -1.573686895426362753e-04 -2.145744656445458531e-05 -1.789191514944832306e-06 8.652280666865408421e-04 -9.262359526474028826e-06 -6.352967466227710247e-04
-2.154373360099270940e-04 -9.160346053249668330e-06 -1.524946128483861685e-04 -1.427197596058249474e-03 -2.951570786535739899e-03 -3.290276799816638231e-04 -1.835014336393214762e-05 1.037315465509891510e-02 -3.278965596109628677e-04 -4.942019470036029816e-03
-9.483953472226858139e-04 -6.956569850444793701e-04 1.232600421644747257e-03 5.811354145407676697e-03 -4.783112555742263794e-03 -4.052855540066957474e-03 -1.767031382769346237e-03 3.656806424260139465e-02 -8.419138379395008087e-03 -2.294581569731235504e-02
-5.880299024283885956e-03 -2.908550668507814407e-03 8.075907826423645020e-03 5.439359322190284729e-02 -3.016896545886993408e-02 -5.360694974660873413e-02 -2.028561383485794067e-02 1.302830874919891357e-01 -4.790990147739648819e-03 -7.511126250028610229e-02
-3.679199889302253723e-02 -1.329975202679634094e-02 4.348404705524444580e-02 1.588519960641860962e-01 -4.335511103272438049e-02 -1.446269005537033081e-01 -2.424196712672710419e-02 1.770591884851455688e-01 2.519147470593452454e-02 -1.422709673643112183e-01
-5.157715082168579102e-02 -5.348122119903564453e-02 1.082959547638893127e-01 1.074751913547515869e-01 -2.890093065798282623e-02 -1.391374468803405762e-01 -8.157854527235031128e-02 1.637890189886093140e-01 7.879039645195007324e-02 -1.036750078201293945e-01
-7.191482931375503540e-02 -8.901023864746093750e-02 5.039471015334129333e-02 7.529855519533157349e-02 -8.746553212404251099e-02 -4.846267402172088623e-02 -9.012484550476074219e-02 1.384368836879730225e-01 1.409061849117279053e-01 -1.805815473198890686e-02
-7.580562680959701538e-02 -1.080897524952888489e-01 4.701290279626846313e-03 1.572008989751338959e-02 -8.649234473705291748e-02 5.077110975980758667e-02 -3.337109088897705078e-02 1.008553355932235718e-01 1.484942287206649780e-01 -1.678313314914703369e-02
-3.920030966401100159e-02 -1.669880300760269165e-01 -4.061129316687583923e-02 -5.739307403564453125e-02 -6.259439140558242798e-02 1.561309844255447388e-01 -1.693713106215000153e-02 5.297002941370010376e-02 1.496684402227401733e-01 2.495457977056503296e-02
3.749894350767135620e-02 -2.144100815057754517e-01 2.801253087818622589e-02 -8.270639181137084961e-02 -2.000435069203376770e-02 8.756238967180252075e-02 -8.522897958755493164e-02 7.111099362373352051e-02 1.850763410329818726e-01 -6.911383941769599915e-03
4.765298217535018921e-02 -1.846483498811721802e-01 1.025606021285057068e-01 -1.811311990022659302e-01 -9.120880812406539917e-02 1.849030107259750366e-01 -1.320932060480117798e-01 6.269958615303039551e-02 1.517589390277862549e-01 3.950620442628860474e-02
-2.225115522742271423e-02 -1.170983538031578064e-01 5.594975501298904419e-02 -3.022467792034149170e-01 -8.900990337133407593e-02 2.790152728557586670e-01 -1.159079447388648987e-01 1.465298235416412354e-01 1.363457739353179932e-01 2.867345698177814484e-02
2.925428561866283417e-02 -6.951459497213363647e-02 2.785317040979862213e-02 -2.634445726871490479e-01 -7.585729658603668213e-02 1.898023188114166260e-01 -1.497842669486999512e-01 1.993066519498825073e-01 7.873120903968811035e-02 3.365366160869598389e-02
1.105851233005523682e-01 5.165792629122734070e-02 4.377089440822601318e-02 -9.677515178918838501e-02 -1.747241020202636719e-01 5.418370291590690613e-02 -1.989279836416244507e-01 1.708726137876510620e-01 -1.428140141069889069e-02 5.363798514008522034e-02
5.656020715832710266e-02 1.978023946285247803e-01 1.161983758211135864e-01 1.632971614599227905e-01 -4.921558499336242676e-01 -7.935260236263275146e-02 -1.583024561405181885e-01 2.542524039745330811e-01 -1.967495381832122803e-01 1.384499073028564453e-01
4.035613313317298889e-02 2.806260585784912109e-01 1.515017002820968628e-01 2.796507179737091064e-01 -3.489227890968322754e-01 -2.305196970701217651e-01 -2.910263836383819580e-01 2.992062568664550781e-01 -2.767502069473266602e-01 9.587822109460830688e-02
1.597879678010940552e-01 1.269137859344482422e-01 1.196909770369529724e-01 2.157676219940185547e-01 -1.042750254273414612e-01 -2.547343373298645020e-01 -4.104483127593994141e-01 3.468050658702850342e-01 -1.777511686086654663e-01 -2.175683900713920593e-02
2.408337593078613281e-01 2.375753968954086304e-02 3.712933138012886047e-02 1.485379189252853394e-01 -3.455239906907081604e-02 -1.664123833179473877e-01 -5.018932819366455078e-01 3.399606049060821533e-01 -7.310649752616882324e-02 -1.425424404442310333e-02
2.491648793220520020e-01 -9.540104120969772339e-02 4.033064469695091248e-02 8.867999911308288574e-02 -1.015553437173366547e-02 -7.993619889020919800e-02 -4.984436333179473877e-01 2.542279064655303955e-01 3.102179616689682007e-02 2.051140740513801575e-02
1.864128112792968750e-01 -1.580375432968139648e-01 3.535867109894752502e-02 1.159248501062393188e-01 -2.332948893308639526e-02 -4.008265677839517593e-03 -4.291710853576660156e-01 2.332656383514404297e-01 6.890783458948135376e-02 -2.532388269901275635e-02
1.132719442248344421e-01 -1.948272734880447388e-01 -3.820020705461502075e-02 2.114057987928390503e-01 -4.009917378425598145e-02 6.007914617657661438e-02 -3.101490736007690430e-01 1.458204090595245361e-01 7.518140226602554321e-02 -2.248325198888778687e-02
3.301618620753288269e-02 -2.166573703289031982e-01 -6.399416178464889526e-02 1.775476783514022827e-01 -4.463108628988265991e-02 1.810277998447418213e-01 -2.477796077728271484e-01 1.286436915397644043e-01 1.221501305699348450e-01 -6.932308524847030640e-02
1.096791699528694153e-01 -2.257140874862670898e-01 -4.428541660308837891e-02 8.479190617799758911e-02 -3.381809219717979431e-02 2.585180997848510742e-01 -2.616145312786102295e-01 6.721767783164978027e-02 1.710877120494842529e-01 -1.258626729249954224e-01
2.238773554563522339e-01 -2.052384316921234131e-01 -1.190022006630897522e-01 -1.223831847310066223e-01 -6.234487146139144897e-02 5.027492642402648926e-01 -1.821613907814025879e-01 -4.705334827303886414e-02 1.882620900869369507e-01 -1.767058223485946655e-01
4.724124073982238770e-02 -1.350260674953460693e-01 -1.431690007448196411e-01 -1.203726232051849365e-01 -1.478260457515716553e-01 7.479037046432495117e-01 -1.305715441703796387e-01 -6.786441802978515625e-02 7.133772969245910645e-02 -1.216522008180618286e-01
-9.609971940517425537e-02 -5.504085496068000793e-02 -4.685451090335845947e-02 -2.891600690782070160e-02 -9.328283369541168213e-02 5.076220035552978516e-01 -9.372381120920181274e-02 -3.404240310192108154e-02 -1.785908592864871025e-03 -5.787567794322967529e-02
-2.855754643678665161e-02 -6.261148024350404739e-03 -6.062922999262809753e-03 -4.361647181212902069e-03 -2.807622030377388000e-02 1.057092100381851196e-01 -3.241042420268058777e-02 -9.096705354750156403e-03 2.670784667134284973e-02 -1.759040541946887970e-02
-5.520163686014711857e-04 -3.817083779722452164e-04 -3.198084014002233744e-04 -8.566796168452128768e-05 -1.657564775086939335e-03 5.940740462392568588e-03 -1.551566645503044128e-03 2.823146991431713104e-03 -3.119316883385181427e-03 -1.096238731406629086e-03
-3.318691142339957878e-06 -2.529182893340475857e-06 -5.169893483980558813e-06 -5.260475518298335373e-05 -1.850976259447634220e-04 -2.955914533231407404e-05 -2.136730017809895799e-06 1.350095844827592373e-03 -1.370735299133230001e-05 -1.055971835739910603e-03
-8.687072113389149308e-05 -6.086794201110024005e-06 -5.104604861116968095e-05 -1.115423510782420635e-03 -2.832161728292703629e-03 -3.083211195189505816e-04 -9.494198820902965963e-06 1.023127604275941849e-02 -2.161737356800585985e-04 -5.605699028819799423e-03
2.489588689059019089e-03 -7.612875197082757950e-04 1.260964665561914444e-03 6.414200761355459690e-04 -1.150754746049642563e-02 -5.460540298372507095e-03 -5.528992041945457458e-03 5.656132847070693970e-02 -7.970150560140609741e-03 -2.972477674484252930e-02
-1.041895058006048203e-02 -7.964471355080604553e-03 1.271539647132158279e-02 6.218176707625389099e-02 -3.603134676814079285e-02 -4.342456534504890442e-02 -2.028265967965126038e-02 1.317742317914962769e-01 -1.744806952774524689e-02 -7.110144942998886108e-02
-4.065681993961334229e-02 -1.612403802573680878e-02 -8.166544139385223389e-03 6.610179692506790161e-02 -4.634579643607139587e-02 -7.492460310459136963e-02 -3.694193437695503235e-02 2.032356113195419312e-01 5.304731056094169617e-02 -9.922501444816589355e-02
-4.836018010973930359e-02 -5.461874604225158691e-02 3.503784537315368652e-02 2.885967260226607323e-03 -7.329606264829635620e-02 -6.492272764444351196e-02 -7.338573783636093140e-02 1.842521578073501587e-01 9.033279865980148315e-02 2.074566436931490898e-03
-7.058448344469070435e-02 -9.528919309377670288e-02 4.740316886454820633e-03 -5.441779643297195435e-02 -1.230411008000373840e-01 2.648239396512508392e-02 -5.988705903291702271e-02 1.002057269215583801e-01 1.717887818813323975e-01 1.000028327107429504e-01
-4.725059866905212402e-02 -1.071236431598663330e-01 -1.300369799137115479e-01 -1.369918882846832275e-01 -7.858567684888839722e-02 1.239790543913841248e-01 2.536126412451267242e-02 6.271091103553771973e-02 2.007385194301605225e-01 8.719938248395919800e-02
-3.755842568352818489e-03 -1.340314298868179321e-01 -1.463034898042678833e-01 -2.634234428405761719e-01 -3.039811970666050911e-03 2.012523859739303589e-01 3.653874993324279785e-02 -4.561733081936836243e-02 2.072624266147613525e-01 1.511173397302627563e-01
1.488762255758047104e-02 -1.863556057214736938e-01 -1.551438868045806885e-01 -3.339222371578216553e-01 1.037714332342147827e-01 2.347808629274368286e-01 -4.744099080562591553e-02 4.949450865387916565e-02 2.324619591236114502e-01 8.746615797281265259e-02
-4.345840215682983398e-02 -1.433735340833663940e-01 -1.273267418146133423e-01 -4.003546833992004395e-01 6.181891635060310364e-02 2.431232333183288574e-01 -3.804387897253036499e-02 7.299725711345672607e-02 2.410158514976501465e-01 1.336020678281784058e-01
1.128644030541181564e-02 -8.536956459283828735e-02 -1.716213673353195190e-01 -4.275038242340087891e-01 5.515111610293388367e-02 2.733748555183410645e-01 -7.323531806468963623e-02 5.105325952172279358e-02 1.876235753297805786e-01 1.792410016059875488e-01
3.606784716248512268e-02 -2.239897847175598145e-02 -2.207406163215637207e-01 -3.730883002281188965e-01 1.125790104269981384e-01 3.018668591976165771e-01 -1.001927256584167480e-01 3.952842578291893005e-02 1.342266201972961426e-01 9.215193241834640503e-02
5.723961070179939270e-02 1.549804508686065674e-01 -2.727373838424682617e-01 -1.102641038596630096e-02 -1.976280659437179565e-01 2.033437341451644897e-01 -7.014444470405578613e-02 1.677734553813934326e-01 4.750027880072593689e-02 -7.930107414722442627e-02
-3.278490900993347168e-02 4.147889018058776855e-01 -1.488057971000671387e-01 2.246914207935333252e-01 -5.191670060157775879e-01 6.784232705831527710e-02 -1.781962811946868896e-01 2.676131129264831543e-01 -6.833006441593170166e-02 -2.765204012393951416e-02
-1.251676380634307861e-01 4.843741655349731445e-01 -9.950172156095504761e-02 2.673918902873992920e-01 -1.824556589126586914e-01 -9.095749258995056152e-02 -3.577148616313934326e-01 3.959371447563171387e-01 -2.178499102592468262e-01 -7.405554503202438354e-02
-7.429379969835281372e-02 2.148058861494064331e-01 -1.162097789347171783e-02 2.231933027505874634e-01 5.984014272689819336e-02 -1.797729581594467163e-01 -4.158768057823181152e-01 4.708235859870910645e-01 -2.644825279712677002e-01 -2.261571586132049561e-02
9.427325427532196045e-02 3.181488020345568657e-03 4.951551184058189392e-02 1.729566752910614014e-01 5.872050300240516663e-02 -2.395087033510208130e-01 -4.137189984321594238e-01 3.594425022602081299e-01 -1.535872519016265869e-01 6.872405111789703369e-02
1.818213164806365967e-01 -1.485804617404937744e-01 6.051404774188995361e-02 1.450472027063369751e-01 -2.365836314857006073e-02 -2.411588728427886963e-01 -3.861165642738342285e-01 2.953557074069976807e-01 6.649237126111984253e-02 5.028377845883369446e-02
1.375770866870880127e-01 -1.711754649877548218e-01 6.343374028801918030e-03 1.805446892976760864e-01 -2.403828315436840057e-02 -1.767182052135467529e-01 -3.386448323726654053e-01 2.705215513706207275e-01 6.983660161495208740e-02 4.575371742248535156e-02
1.265196353197097778e-01 -2.308339178562164307e-01 -4.154079034924507141e-02 2.350518405437469482e-01 -1.197993829846382141e-01 -8.975178003311157227e-02 -2.352545559406280518e-01 2.439491599798202515e-01 5.354436859488487244e-02 5.811509862542152405e-02
9.419135004281997681e-02 -2.174609601497650146e-01 -5.501235648989677429e-02 1.373834758996963501e-01 -1.145704239606857300e-01 -1.071983389556407928e-02 -1.879829615354537964e-01 2.078348249197006226e-01 1.245140731334686279e-01 2.182263322174549103e-02
1.747858226299285889e-01 -1.879896670579910278e-01 -4.880258813500404358e-02 1.604258082807064056e-02 -1.145664155483245850e-01 3.780620545148849487e-02 -1.547963321208953857e-01 1.058468371629714966e-01 2.050752192735671997e-01 -3.340135142207145691e-02
2.825695574283599854e-01 -1.528201252222061157e-01 -9.288848191499710083e-02 -7.569678872823715210e-02 -1.876823753118515015e-01 2.698618173599243164e-01 -7.667822390794754028e-02 -7.281449437141418457e-02 1.925049126148223877e-01 -8.635593950748443604e-02
1.119531989097595215e-01 -1.026151180267333984e-01 -9.937350451946258545e-02 -8.013217151165008545e-02 -1.576267331838607788e-01 5.486862659454345703e-01 -9.256265312433242798e-02 -6.912632286548614502e-02 4.888945817947387695e-02 -1.080923676490783691e-01
-8.092765510082244873e-02 -3.447401151061058044e-02 -3.240942955017089844e-02 -1.805891282856464386e-02 -9.744918346405029297e-02 4.610249400138854980e-01 -1.019235178828239441e-01 -2.807282842695713043e-02 -1.708663254976272583e-02 -5.062255263328552246e-02
-3.003339655697345734e-02 -7.314862217754125595e-03 -3.731231205165386200e-03 -3.228746820241212845e-03 -2.392766810953617096e-02 1.142149046063423157e-01 -3.213239833712577820e-02 -6.046236027032136917e-03 7.728992495685815811e-03 -1.552940998226404190e-02
-5.304779042489826679e-04 9.969967504730448127e-05 -3.877631388604640961e-04 -5.722952482756227255e-05 -8.147280896082520485e-04 4.067887086421251297e-03 -4.242388997226953506e-03 6.915631820447742939e-05 4.530594684183597565e-03 -2.734751440584659576e-03
-4.320835159887792543e-06 -6.417402573788422160e-07 -7.071635536703979596e-06 -2.417072028038091958e-05 -3.240544174332171679e-05 -1.630094448046293110e-05 -4.507565449785033707e-07 6.284851697273552418e-04 -1.108891956391744316e-05 -5.320338532328605652e-04
1.178603270091116428e-03 1.555151393404230475e-04 -2.284548972966149449e-04 -1.276700408197939396e-03 -6.866824347525835037e-03 -1.787149347364902496e-03 -2.322731306776404381e-04 2.142187952995300293e-02 -6.440633442252874374e-04 -1.172053441405296326e-02
-2.715921495109796524e-03 -1.797248551156371832e-04 -1.113403239287436008e-03 -1.553063280880451202e-03 -3.035508841276168823e-02 -6.934085395187139511e-03 -1.460322295315563679e-03 8.654158562421798706e-02 -5.248687695711851120e-03 -3.698131814599037170e-02
-1.204998698085546494e-02 -5.287865642458200455e-03 -1.283544208854436874e-02 4.030361399054527283e-02 -3.539372980594635010e-02 -4.115029424428939819e-02 -1.851209811866283417e-02 1.519627422094345093e-01 -9.393214248120784760e-03 -5.764373391866683960e-02
-7.214080542325973511e-02 -8.293454535305500031e-03 -5.257954075932502747e-02 1.395193208009004593e-02 -6.809635460376739502e-02 -3.455826267600059509e-02 -2.725405246019363403e-02 2.200581282377243042e-01 3.473607078194618225e-02 -5.823407787829637527e-03
-6.285204738378524780e-02 -3.209377825260162354e-02 -9.727264940738677979e-02 -1.086229160428047180e-01 -7.759428024291992188e-02 6.041062064468860626e-03 -2.251537330448627472e-02 1.297324746847152710e-01 1.224607452750205994e-01 1.427164375782012939e-01
-2.175248228013515472e-02 -8.211543411016464233e-02 -2.111184149980545044e-01 -2.110267728567123413e-01 -4.967010393738746643e-02 1.270534247159957886e-01 -3.916305722668766975e-04 6.142108142375946045e-02 1.900193691253662109e-01 1.975810229778289795e-01
2.120435424149036407e-02 -1.063697859644889832e-01 -3.312604129314422607e-01 -3.183975815773010254e-01 2.375003695487976074e-02 1.280545294284820557e-01 9.477999806404113770e-02 6.857623159885406494e-02 2.617066800594329834e-01 1.579562574625015259e-01
1.994374394416809082e-02 -1.313425898551940918e-01 -3.555958867073059082e-01 -3.609647452831268311e-01 1.310408860445022583e-01 1.325301080942153931e-01 6.088575720787048340e-02 -2.093247696757316589e-02 2.523500919342041016e-01 2.720842361450195312e-01
-5.177086591720581055e-02 -1.782994270324707031e-01 -3.777826726436614990e-01 -3.447547852993011475e-01 2.407788187265396118e-01 1.437353789806365967e-01 6.059756875038146973e-02 6.873606145381927490e-02 2.963188290596008301e-01 1.424412727355957031e-01
-2.255652472376823425e-02 -1.789690256118774414e-01 -4.603899717330932617e-01 -2.908889651298522949e-01 2.743004858493804932e-01 1.460900604724884033e-01 3.574859350919723511e-02 1.152339354157447815e-01 1.969686299562454224e-01 1.844618916511535645e-01
3.759280312806367874e-03 -1.657716333866119385e-01 -5.018320679664611816e-01 -2.083933502435684204e-01 2.362131178379058838e-01 2.206623405218124390e-01 1.257896330207586288e-02 8.430609852075576782e-02 1.150913611054420471e-01 2.033849656581878662e-01
-1.019709277898073196e-02 -6.712481379508972168e-02 -5.558235645294189453e-01 -1.041908636689186096e-01 2.038082778453826904e-01 3.411638438701629639e-01 6.587070971727371216e-02 -1.522525213658809662e-02 1.491162031888961792e-01 -7.397280540317296982e-03
-3.968708589673042297e-02 1.834694445133209229e-01 -5.644518733024597168e-01 1.325546205043792725e-01 -3.195576965808868408e-01 3.624173402786254883e-01 4.534611850976943970e-02 1.521762926131486893e-02 2.700120806694030762e-01 -8.532161265611648560e-02
-2.550264298915863037e-01 5.732386708259582520e-01 -4.261755943298339844e-01 2.253378778696060181e-01 -4.496346116065979004e-01 1.124057844281196594e-01 -2.092498838901519775e-01 1.532320529222488403e-01 3.011445999145507812e-01 -2.527236752212047577e-02
-4.060478508472442627e-01 5.560021400451660156e-01 -3.071086406707763672e-01 2.371292114257812500e-01 1.563660427927970886e-02 -7.927513122558593750e-02 -3.994071185588836670e-01 3.302686512470245361e-01 -3.678493574261665344e-02 8.958604186773300171e-02
-3.776439726352691650e-01 1.979176849126815796e-01 -1.418699771165847778e-01 1.310349404811859131e-01 2.888274788856506348e-01 -1.577159315347671509e-01 -3.211272954940795898e-01 3.837752342224121094e-01 -1.485347598791122437e-01 1.453368663787841797e-01
-1.286376863718032837e-01 -3.453326225280761719e-02 -1.249360516667366028e-01 1.791917383670806885e-01 1.166184768080711365e-01 -2.090248465538024902e-01 -2.805194258689880371e-01 3.347145318984985352e-01 -1.089716330170631409e-01 2.560980618000030518e-01
1.308403722941875458e-02 -9.422752261161804199e-02 -5.404660478234291077e-02 1.476636081933975220e-01 -3.575656190514564514e-02 -2.188752591609954834e-01 -2.155227214097976685e-01 3.037882149219512939e-01 -6.434286385774612427e-02 2.182359099388122559e-01
1.048438474535942078e-01 -1.529999822378158569e-01 5.796532705426216125e-02 1.594653725624084473e-01 -7.911899685859680176e-02 -3.492720723152160645e-01 -1.755647659301757812e-01 1.825456768274307251e-01 -1.250817533582448959e-02 2.646437287330627441e-01
1.270009279251098633e-01 -1.565132737159729004e-01 -4.730001837015151978e-02 1.558177918195724487e-01 -1.340557485818862915e-01 -4.380401372909545898e-01 -1.005880385637283325e-01 1.871847659349441528e-01 8.291699737310409546e-02 3.235767483711242676e-01
1.509472876787185669e-01 -1.279641836881637573e-01 -3.097673319280147552e-02 -4.210890084505081177e-02 -1.091996654868125916e-01 -4.055698513984680176e-01 -1.845525391399860382e-02 1.643629968166351318e-01 1.935109943151473999e-01 2.254537492990493774e-01
2.141548991203308105e-01 -9.588662534952163696e-02 -6.521230936050415039e-02 -8.158918470144271851e-02 -1.261945664882659912e-01 -3.718836307525634766e-01 4.018308594822883606e-02 9.443666040897369385e-02 2.769880294799804688e-01 1.150036081671714783e-01
2.985182106494903564e-01 -6.688567250967025757e-02 -9.589704126119613647e-02 -8.836364746093750000e-02 -1.668334752321243286e-01 -1.619296520948410034e-01 1.046658679842948914e-01 -5.720173940062522888e-02 2.603707611560821533e-01 -2.644369192421436310e-02
1.658923029899597168e-01 -4.700630530714988708e-02 -5.123849585652351379e-02 -5.652441829442977905e-02 -1.231085062026977539e-01 8.542682975530624390e-02 4.521687515079975128e-05 -5.727875977754592896e-02 1.586275398731231689e-01 -7.483514398336410522e-02
-4.256485402584075928e-02 -1.844154857099056244e-02 1.698996056802570820e-04 -5.901068914681673050e-03 -5.214180052280426025e-02 2.026503384113311768e-01 -6.830741465091705322e-02 -1.859338954091072083e-02 4.078545421361923218e-02 -3.765557333827018738e-02
-1.839650608599185944e-02 -4.828627221286296844e-03 1.215059775859117508e-03 -1.047109486535191536e-03 -7.104923017323017120e-03 5.656198412179946899e-02 -3.399360179901123047e-02 -5.838870536535978317e-03 2.372688986361026764e-02 -1.029431261122226715e-02
-4.190254840068519115e-04 8.031569886952638626e-04 -1.113809048547409475e-04 -2.923868669313378632e-05 -4.761583986692130566e-04 2.401669742539525032e-03 -2.475030021741986275e-03 -7.402400369755923748e-04 2.321466570720076561e-03 -1.275219838134944439e-03
-1.834047907323110849e-06 -1.533638567252637586e-07 -6.065584329917328432e-06 -8.170512955985032022e-06 -1.176915429823566228e-05 -5.079367383586941287e-06 -1.806504030810174299e-07 6.429856293834745884e-04 -6.453479727497324347e-06 -6.032792152836918831e-04
-8.123074076138436794e-05 -4.490479113883338869e-05 -1.985417657124344260e-05 -1.619710354134440422e-03 -9.389886632561683655e-03 -2.025921829044818878e-03 -3.683666873257607222e-04 2.332822792232036591e-02 -6.157602765597403049e-04 -9.162592701613903046e-03
-2.039443003013730049e-03 -6.094541749916970730e-04 -4.894366720691323280e-04 -6.255768705159425735e-03 -2.812228538095951080e-02 -5.002714693546295166e-03 -1.408003503456711769e-03 8.108964562416076660e-02 -3.306333208456635475e-03 -3.385619819164276123e-02
-1.637323014438152313e-02 -1.121514360420405865e-03 -2.974171377718448639e-02 2.493758511263877153e-04 -5.013097077608108521e-02 -2.004531770944595337e-02 -1.483932510018348694e-02 1.557491123676300049e-01 5.030754953622817993e-03 -2.877714484930038452e-02
-7.297873497009277344e-02 -8.877842919901013374e-04 -8.782095462083816528e-02 -3.331112489104270935e-02 -8.556558936834335327e-02 -3.980180772487074137e-04 -3.673554584383964539e-02 1.999954581260681152e-01 1.234954595565795898e-02 1.053528487682342529e-01
-2.877698279917240143e-02 -2.401883527636528015e-02 -2.556051015853881836e-01 -1.424478888511657715e-01 -4.962683096528053284e-02 4.653913900256156921e-02 -3.752014599740505219e-03 1.249010190367698669e-01 8.997457474470138550e-02 2.428133785724639893e-01
7.319271564483642578e-02 -4.737707599997520447e-02 -4.552202522754669189e-01 -2.671030461788177490e-01 7.217112928628921509e-02 1.457509398460388184e-01 8.588042110204696655e-02 3.675769269466400146e-02 1.032788977026939392e-01 2.526693046092987061e-01
8.071375638246536255e-02 -7.590649276971817017e-02 -5.351082682609558105e-01 -3.379624783992767334e-01 1.836648434400558472e-01 1.308768242597579956e-01 1.422125250101089478e-01 1.108642071485519409e-01 1.312428712844848633e-01 1.694025993347167969e-01
3.402511402964591980e-02 -1.141003742814064026e-01 -4.490035474300384521e-01 -3.046064376831054688e-01 2.953609526157379150e-01 8.815833181142807007e-02 1.034539639949798584e-01 9.487855434417724609e-02 8.846512436866760254e-02 1.633691042661666870e-01
8.347615599632263184e-03 -1.626827418804168701e-01 -4.412022531032562256e-01 -1.689019352197647095e-01 2.687501907348632812e-01 2.935131266713142395e-02 1.240010857582092285e-01 1.392378471791744232e-02 1.255299150943756104e-01 2.028834819793701172e-01
3.424802049994468689e-02 -2.593248784542083740e-01 -4.754353463649749756e-01 -2.890389040112495422e-02 4.132554233074188232e-01 1.539927124977111816e-01 5.877722054719924927e-02 -5.228352919220924377e-02 -2.136306837201118469e-02 1.770378053188323975e-01
5.623679980635643005e-02 -3.139956593513488770e-01 -4.774454534053802490e-01 -3.859748691320419312e-02 4.636495411396026611e-01 2.965658307075500488e-01 1.543036401271820068e-01 -1.481925547122955322e-01 -4.742033034563064575e-02 5.489562824368476868e-02
6.934474408626556396e-02 -1.071852371096611023e-01 -4.749271273612976074e-01 4.196881875395774841e-02 3.650456368923187256e-01 3.387950658798217773e-01 1.393028199672698975e-01 -3.626106977462768555e-01 1.573094576597213745e-01 -1.670435965061187744e-01
-1.266200691461563110e-01 2.049914002418518066e-01 -4.314138591289520264e-01 1.580893397331237793e-01 -1.227045655250549316e-01 2.883409261703491211e-01 3.063803538680076599e-02 -4.342802464962005615e-01 4.148031473159790039e-01 1.815643347799777985e-02
-4.428795278072357178e-01 6.935598850250244141e-01 -3.731625378131866455e-01 2.952871620655059814e-01 -2.535485923290252686e-01 3.784711286425590515e-02 -2.290427386760711670e-01 -1.676230579614639282e-01 2.529315054416656494e-01 1.866307556629180908e-01
-5.601015686988830566e-01 4.905863702297210693e-01 -3.557561635971069336e-01 1.814164966344833374e-01 1.514199823141098022e-01 -1.190101578831672668e-01 -2.550603449344635010e-01 1.741835027933120728e-01 7.844243198633193970e-02 2.138798385858535767e-01
-5.000552535057067871e-01 1.308314502239227295e-01 -2.560483217239379883e-01 1.368496567010879517e-01 2.932919263839721680e-01 -2.950316369533538818e-01 -1.168255135416984558e-01 3.533286154270172119e-01 -3.950641024857759476e-03 2.576099932193756104e-01
-2.297832816839218140e-01 2.837669104337692261e-03 -2.116001546382904053e-01 1.176258027553558350e-01 1.102884560823440552e-01 -2.693920135498046875e-01 -1.059043258428573608e-01 3.013302087783813477e-01 -3.041654266417026520e-02 3.150148093700408936e-01
-4.688338190317153931e-02 -9.140443801879882812e-02 -1.267290413379669189e-01 1.125087291002273560e-01 3.538716956973075867e-02 -2.251394093036651611e-01 -1.360353529453277588e-01 2.258043885231018066e-01 -7.241953909397125244e-02 3.249115049839019775e-01
1.963373832404613495e-02 -1.373019069433212280e-01 4.521900787949562073e-02 -8.116330020129680634e-03 2.875927649438381195e-02 -2.733349800109863281e-01 -1.437065899372100830e-01 5.865775793790817261e-02 4.149766638875007629e-02 3.686925172805786133e-01
3.189085423946380615e-02 -1.057737693190574646e-01 -3.605474159121513367e-02 -9.595325589179992676e-02 -2.108676126226782799e-04 -3.685745298862457275e-01 -5.554307997226715088e-02 8.459760248661041260e-02 1.538500189781188965e-01 3.917723596096038818e-01
1.170571148395538330e-01 -6.881837546825408936e-02 -5.166666582226753235e-02 -2.029400020837783813e-01 2.776818349957466125e-02 -5.049952864646911621e-01 8.524041622877120972e-02 5.217790976166725159e-02 2.539303898811340332e-01 2.922466397285461426e-01
2.479215711355209351e-01 -5.299811437726020813e-02 -1.100790128111839294e-01 -1.566869616508483887e-01 -2.512032911181449890e-02 -5.519760251045227051e-01 2.181872427463531494e-01 2.481113001704216003e-02 2.453735470771789551e-01 1.605670452117919922e-01
3.287529647350311279e-01 -3.237987682223320007e-02 -1.628290861845016479e-01 -9.436212480068206787e-02 -9.367992728948593140e-02 -4.294202923774719238e-01 2.726390063762664795e-01 -4.107540100812911987e-02 2.158083766698837280e-01 3.654544427990913391e-02
2.275272458791732788e-01 -2.056197077035903931e-02 -1.134980656206607819e-02 -3.964904695749282837e-02 -5.107438564300537109e-02 -2.512223422527313232e-01 1.218620613217353821e-01 -4.544540122151374817e-02 1.373177766799926758e-01 -6.740388274192810059e-02
-2.765963785350322723e-03 -6.652237847447395325e-03 3.877016529440879822e-02 -2.601675805635750294e-05 -1.018101442605257034e-02 6.852773018181324005e-03 -2.480194903910160065e-02 -1.596399350091814995e-03 3.197807446122169495e-02 -3.157744184136390686e-02
-8.875967003405094147e-03 -4.115845542401075363e-03 3.042968921363353729e-02 -2.246973162982612848e-04 -2.231332473456859589e-03 2.275181002914905548e-02 -3.025502897799015045e-02 1.640113536268472672e-03 8.986360044218599796e-04 -1.001737546175718307e-02
-6.997062882874161005e-05 9.046847699210047722e-04 3.166247392073273659e-03 -2.486515040800441056e-05 -1.461381674744188786e-03 -4.825354262720793486e-04 -1.645098440349102020e-03 1.189815113320946693e-03 -1.405420713126659393e-03 -1.714752434054389596e-04
-8.717858435147718410e-09 2.191195744671858847e-05 -3.055206661883858033e-06 -7.298365289898356423e-06 -1.412983579029969405e-07 -4.498971293287468143e-07 -9.875923296931432560e-07 -2.616065785332466476e-06 -3.894396286341361701e-06 -3.460436801105970517e-06
8.102898391371127218e-06 -1.048162903316551819e-05 -1.143853296525776386e-05 -1.415436738170683384e-03 -6.236700341105461121e-03 -8.180369623005390167e-04 -1.606479927431792021e-04 1.297219004482030869e-02 -2.049301110673695803e-04 -4.122621845453977585e-03
-1.851227483712136745e-03 -3.283014521002769470e-04 -3.547756350599229336e-04 -5.578142590820789337e-03 -1.596629433333873749e-02 -2.789579797536134720e-03 -9.620224591344594955e-04 5.001039430499076843e-02 -9.482995956204831600e-04 -2.123175561428070068e-02
-1.525746658444404602e-02 7.880363264121115208e-04 -3.466546535491943359e-02 -5.614526104182004929e-03 -3.224864602088928223e-02 -4.182258155196905136e-03 -1.252203620970249176e-02 1.035439744591712952e-01 3.813103307038545609e-03 -3.654724452644586563e-03
-4.868548363447189331e-02 2.116431249305605888e-03 -1.326094269752502441e-01 -5.377933382987976074e-02 -2.913261950016021729e-02 1.952719874680042267e-02 -4.202682152390480042e-02 1.117283776402473450e-01 -1.877501606941223145e-02 1.916366815567016602e-01
1.972592668607831001e-03 -1.980408281087875366e-02 -3.343042731285095215e-01 -1.305668950080871582e-01 7.578638941049575806e-02 7.044104486703872681e-02 2.101214975118637085e-02 5.768200382590293884e-02 -1.492350362241268158e-02 2.727046012878417969e-01
1.495631933212280273e-01 -4.122844338417053223e-02 -5.148414373397827148e-01 -2.440242171287536621e-01 2.224791795015335083e-01 6.694915890693664551e-02 1.644282639026641846e-01 2.220959961414337158e-02 -2.799580246210098267e-02 2.024610191583633423e-01
1.730206459760665894e-01 -7.161700725555419922e-02 -4.990331530570983887e-01 -2.913464605808258057e-01 2.894287705421447754e-01 1.237257495522499084e-01 1.296023279428482056e-01 4.193802177906036377e-02 -5.331027507781982422e-02 1.575913876295089722e-01
1.145205646753311157e-01 -8.901476114988327026e-02 -3.677892088890075684e-01 -1.838707774877548218e-01 3.097784519195556641e-01 6.604320555925369263e-02 1.109629794955253601e-01 -1.064531691372394562e-02 -8.682738989591598511e-02 1.368425786495208740e-01
9.260441362857818604e-02 -1.923556625843048096e-01 -2.813719213008880615e-01 -9.284503757953643799e-02 3.055456578731536865e-01 9.441057592630386353e-02 1.241541728377342224e-01 -9.987753629684448242e-02 -3.763751685619354248e-02 8.737349510192871094e-02
1.178670004010200500e-01 -3.712102472782135010e-01 -2.142524123191833496e-01 -1.355847418308258057e-01 4.285607933998107910e-01 2.199410647153854370e-01 1.786161810159683228e-01 -1.861648857593536377e-01 -1.136686205863952637e-01 7.589597254991531372e-02
1.134626716375350952e-01 -4.310636222362518311e-01 -1.271858513355255127e-01 -1.257640570402145386e-01 5.443028211593627930e-01 2.710469067096710205e-01 1.684757620096206665e-01 -4.157047867774963379e-01 6.108763813972473145e-02 -5.865700170397758484e-02
2.740609459578990936e-02 -1.793787181377410889e-01 -1.215193346142768860e-01 6.806372851133346558e-02 3.087278008460998535e-01 2.890242040157318115e-01 1.127537712454795837e-01 -6.690167784690856934e-01 2.547723948955535889e-01 -9.083323180675506592e-02
-3.047208189964294434e-01 2.873307168483734131e-01 -4.266021773219108582e-02 2.065932303667068481e-01 -5.775910988450050354e-02 1.777375191450119019e-01 -4.609572142362594604e-02 -6.801567673683166504e-01 3.541903495788574219e-01 1.055414080619812012e-01
-5.201743841171264648e-01 6.382105946540832520e-01 -8.710916340351104736e-02 1.758634001016616821e-01 -7.883886247873306274e-02 -1.888117566704750061e-02 -1.362591534852981567e-01 -3.221899569034576416e-01 1.274564415216445923e-01 2.219225168228149414e-01
-6.001218557357788086e-01 4.244584143161773682e-01 -2.504280507564544678e-01 1.079705730080604553e-02 1.872391998767852783e-01 -2.285813242197036743e-01 2.146856300532817841e-02 1.806931942701339722e-02 2.015714496374130249e-01 2.155280113220214844e-01
-4.985163807868957520e-01 1.143775582313537598e-01 -2.538988590240478516e-01 1.065431162714958191e-01 2.586252987384796143e-01 -3.420796990394592285e-01 4.359443858265876770e-02 1.743416041135787964e-01 6.751131266355514526e-02 3.295025229454040527e-01
-2.442461699247360229e-01 -3.697469085454940796e-02 -1.647649556398391724e-01 1.032240763306617737e-01 2.402740865945816040e-01 -2.110565751791000366e-01 -8.326555043458938599e-02 1.435613781213760376e-01 -9.144274890422821045e-02 3.446903824806213379e-01
-9.695053845643997192e-02 -1.892763227224349976e-01 -1.312373727560043335e-01 7.994171977043151855e-02 1.733540445566177368e-01 -1.006598025560379028e-01 -1.259143352508544922e-01 1.228381469845771790e-01 -1.373511739075183868e-02 2.816396653652191162e-01
-7.811164855957031250e-02 -1.653411686420440674e-01 -1.006142348051071167e-01 -9.091204404830932617e-02 1.527520567178726196e-01 -6.326624751091003418e-02 -4.301460087299346924e-02 8.589547127485275269e-02 7.370500825345516205e-03 2.952417135238647461e-01
-8.045253157615661621e-02 -1.094433888792991638e-01 -9.342917799949645996e-02 -2.230434268712997437e-01 1.503900289535522461e-01 -1.035249829292297363e-01 -3.149663284420967102e-02 1.202543899416923523e-01 8.081392943859100342e-02 2.899318635463714600e-01
7.531715184450149536e-02 -7.340266555547714233e-02 -8.334103971719741821e-02 -2.050921469926834106e-01 1.069283038377761841e-01 -2.469573616981506348e-01 1.372990459203720093e-01 6.117333099246025085e-02 2.491343207657337189e-02 2.031615078449249268e-01
2.408017516136169434e-01 -5.819376185536384583e-02 -1.213826686143875122e-01 -1.828316748142242432e-01 1.716452091932296753e-02 -3.123998343944549561e-01 2.854115962982177734e-01 2.078078873455524445e-02 4.131129011511802673e-02 6.933796405792236328e-02
3.381498157978057861e-01 -4.633736982941627502e-02 -1.073683947324752808e-01 -9.414616227149963379e-02 -5.314008146524429321e-02 -3.505786955356597900e-01 3.378013372421264648e-01 -1.101205358281731606e-03 4.630324617028236389e-02 -6.958281993865966797e-02
2.070378810167312622e-01 -3.322526440024375916e-02 5.302495881915092468e-02 -3.681452944874763489e-02 -5.709857121109962463e-02 -2.279159277677536011e-01 1.764238923788070679e-01 1.417263774783350527e-05 2.037121541798114777e-02 -1.018174365162849426e-01
1.612340472638607025e-02 -1.567128859460353851e-02 1.148080900311470032e-01 -4.251748323440551758e-03 -6.407441105693578720e-03 -3.509420901536941528e-02 -3.202527016401290894e-02 8.968880400061607361e-03 -3.679810557514429092e-03 -4.277053475379943848e-02
-3.119414672255516052e-03 -6.547896191477775574e-03 7.457339763641357422e-02 -8.076903177425265312e-04 -6.717885844409465790e-03 -1.127473777160048485e-03 -3.592013940215110779e-02 -9.733609040267765522e-04 -8.267605677247047424e-03 -1.109192799776792526e-02
