0.000000000000000000e+00 0.000000000000000000e+00 0.000000000000000000e+00 0.000000000000000000e+00 0.000000000000000000e+00 0.000000000000000000e+00 0.000000000000000000e+00 0.000000000000000000e+00 0.000000000000000000e+00 0.000000000000000000e+00
0.000000000000000000e+00 0.000000000000000000e+00 0.000000000000000000e+00 0.000000000000000000e+00 0.000000000000000000e+00 0.000000000000000000e+00 0.000000000000000000e+00 0.000000000000000000e+00 0.000000000000000000e+00 0.000000000000000000e+00
0.000000000000000000e+00 0.000000000000000000e+00 0.000000000000000000e+00 0.000000000000000000e+00 0.000000000000000000e+00 0.000000000000000000e+00 0.000000000000000000e+00 0.000000000000000000e+00 0.000000000000000000e+00 0.000000000000000000e+00
0.000000000000000000e+00 0.000000000000000000e+00 0.000000000000000000e+00 0.000000000000000000e+00 0.000000000000000000e+00 0.000000000000000000e+00 0.000000000000000000e+00 0.000000000000000000e+00 0.000000000000000000e+00 0.000000000000000000e+00
0.000000000000000000e+00 0.000000000000000000e+00 0.000000000000000000e+00 0.000000000000000000e+00 0.000000000000000000e+00 0.000000000000000000e+00 0.000000000000000000e+00 0.000000000000000000e+00 0.000000000000000000e+00 0.000000000000000000e+00
0.000000000000000000e+00 0.000000000000000000e+00 0.000000000000000000e+00 0.000000000000000000e+00 0.000000000000000000e+00 0.000000000000000000e+00 0.000000000000000000e+00 0.000000000000000000e+00 0.000000000000000000e+00 0.000000000000000000e+00
0.000000000000000000e+00 0.000000000000000000e+00 0.000000000000000000e+00 0.000000000000000000e+00 0.000000000000000000e+00 0.000000000000000000e+00 0.000000000000000000e+00 0.000000000000000000e+00 0.000000000000000000e+00 0.000000000000000000e+00
0.000000000000000000e+00 0.000000000000000000e+00 0.000000000000000000e+00 0.000000000000000000e+00 0.000000000000000000e+00 0.000000000000000000e+00 0.000000000000000000e+00 0.000000000000000000e+00 0.000000000000000000e+00 0.000000000000000000e+00
0.000000000000000000e+00 0.000000000000000000e+00 0.000000000000000000e+00 0.000000000000000000e+00 0.000000000000000000e+00 0.000000000000000000e+00 0.000000000000000000e+00 0.000000000000000000e+00 0.000000000000000000e+00 0.000000000000000000e+00
0.000000000000000000e+00 0.000000000000000000e+00 0.000000000000000000e+00 0.000000000000000000e+00 0.000000000000000000e+00 0.000000000000000000e+00 0.000000000000000000e+00 0.000000000000000000e+00 0.000000000000000000e+00 0.000000000000000000e+00
0.000000000000000000e+00 0.000000000000000000e+00 0.000000000000000000e+00 0.000000000000000000e+00 0.000000000000000000e+00 0.000000000000000000e+00 0.000000000000000000e+00 0.000000000000000000e+00 0.000000000000000000e+00 0.000000000000000000e+00
0.000000000000000000e+00 0.000000000000000000e+00 0.000000000000000000e+00 0.000000000000000000e+00 0.000000000000000000e+00 0.000000000000000000e+00 0.000000000000000000e+00 0.000000000000000000e+00 0.000000000000000000e+00 0.000000000000000000e+00
-7.166481736931018531e-07 -1.741419282552669756e-06 -1.213048162753693759e-04 -1.047515706886770204e-05 -7.957222405821084976e-04 -1.552136382088065147e-05 1.082884729839861393e-03 -1.761952489687246270e-06 -2.930270966317038983e-05 -1.063384042936377227e-04
-2.693172746148775332e-06 -3.827195087069412693e-06 -2.141783188562840223e-04 -2.452280568832065910e-05 -1.774386386387050152e-03 -3.405302413739264011e-05 2.357178367674350739e-03 -4.095310487173264846e-06 -6.469043000834062696e-05 -2.347317786188796163e-04
-1.250752916348574217e-06 -1.567700458338094904e-08 5.723998765461146832e-05 -1.764720309438416734e-06 -3.564211510820314288e-05 -7.410480407088471111e-08 -1.554117989144288003e-05 -2.640048251123516820e-07 -5.871256121281476226e-07 -2.100226538459537551e-06
-5.211470011090568732e-08 -6.532084873001053893e-10 2.384999334026360884e-06 -7.353000341936422046e-08 -1.485088205299689434e-06 -3.087700317649932913e-09 -6.475491431956470478e-07 -1.100020075028851352e-08 -2.446356717200615094e-08 -8.750943436552915955e-08
0.000000000000000000e+00 0.000000000000000000e+00 0.000000000000000000e+00 0.000000000000000000e+00 0.000000000000000000e+00 0.000000000000000000e+00 0.000000000000000000e+00 0.000000000000000000e+00 0.000000000000000000e+00 0.000000000000000000e+00
0.000000000000000000e+00 0.000000000000000000e+00 0.000000000000000000e+00 0.000000000000000000e+00 0.000000000000000000e+00 0.000000000000000000e+00 0.000000000000000000e+00 0.000000000000000000e+00 0.000000000000000000e+00 0.000000000000000000e+00
0.000000000000000000e+00 0.000000000000000000e+00 0.000000000000000000e+00 0.000000000000000000e+00 0.000000000000000000e+00 0.000000000000000000e+00 0.000000000000000000e+00 0.000000000000000000e+00 0.000000000000000000e+00 0.000000000000000000e+00
0.000000000000000000e+00 0.000000000000000000e+00 0.000000000000000000e+00 0.000000000000000000e+00 0.000000000000000000e+00 0.000000000000000000e+00 0.000000000000000000e+00 0.000000000000000000e+00 0.000000000000000000e+00 0.000000000000000000e+00
0.000000000000000000e+00 0.000000000000000000e+00 0.000000000000000000e+00 0.000000000000000000e+00 0.000000000000000000e+00 0.000000000000000000e+00 0.000000000000000000e+00 0.000000000000000000e+00 0.000000000000000000e+00 0.000000000000000000e+00
0.000000000000000000e+00 0.000000000000000000e+00 0.000000000000000000e+00 0.000000000000000000e+00 0.000000000000000000e+00 0.000000000000000000e+00 0.000000000000000000e+00 0.000000000000000000e+00 0.000000000000000000e+00 0.000000000000000000e+00
0.000000000000000000e+00 0.000000000000000000e+00 0.000000000000000000e+00 0.000000000000000000e+00 0.000000000000000000e+00 0.000000000000000000e+00 0.000000000000000000e+00 0.000000000000000000e+00 0.000000000000000000e+00 0.000000000000000000e+00
0.000000000000000000e+00 0.000000000000000000e+00 0.000000000000000000e+00 0.000000000000000000e+00 0.000000000000000000e+00 0.000000000000000000e+00 0.000000000000000000e+00 0.000000000000000000e+00 0.000000000000000000e+00 0.000000000000000000e+00
0.000000000000000000e+00 0.000000000000000000e+00 0.000000000000000000e+00 0.000000000000000000e+00 0.000000000000000000e+00 0.000000000000000000e+00 0.000000000000000000e+00 0.000000000000000000e+00 0.000000000000000000e+00 0.000000000000000000e+00
0.000000000000000000e+00 0.000000000000000000e+00 0.000000000000000000e+00 0.000000000000000000e+00 0.000000000000000000e+00 0.000000000000000000e+00 0.000000000000000000e+00 0.000000000000000000e+00 0.000000000000000000e+00 0.000000000000000000e+00
0.000000000000000000e+00 0.000000000000000000e+00 0.000000000000000000e+00 0.000000000000000000e+00 0.000000000000000000e+00 0.000000000000000000e+00 0.000000000000000000e+00 0.000000000000000000e+00 0.000000000000000000e+00 0.000000000000000000e+00
0.000000000000000000e+00 0.000000000000000000e+00 0.000000000000000000e+00 0.000000000000000000e+00 0.000000000000000000e+00 0.000000000000000000e+00 0.000000000000000000e+00 0.000000000000000000e+00 0.000000000000000000e+00 0.000000000000000000e+00
0.000000000000000000e+00 0.000000000000000000e+00 0.000000000000000000e+00 0.000000000000000000e+00 0.000000000000000000e+00 0.000000000000000000e+00 0.000000000000000000e+00 0.000000000000000000e+00 0.000000000000000000e+00 0.000000000000000000e+00
0.000000000000000000e+00 0.000000000000000000e+00 0.000000000000000000e+00 0.000000000000000000e+00 0.000000000000000000e+00 0.000000000000000000e+00 0.000000000000000000e+00 0.000000000000000000e+00 0.000000000000000000e+00 0.000000000000000000e+00
0.000000000000000000e+00 0.000000000000000000e+00 0.000000000000000000e+00 0.000000000000000000e+00 0.000000000000000000e+00 0.000000000000000000e+00 0.000000000000000000e+00 0.000000000000000000e+00 0.000000000000000000e+00 0.000000000000000000e+00
0.000000000000000000e+00 0.000000000000000000e+00 0.000000000000000000e+00 0.000000000000000000e+00 0.000000000000000000e+00 0.000000000000000000e+00 0.000000000000000000e+00 0.000000000000000000e+00 0.000000000000000000e+00 0.000000000000000000e+00
-1.390499626552355039e-08 -2.421026223942135402e-08 -2.048219130301731639e-06 -3.869435438730306487e-09 -1.429973781341686845e-05 -1.581031909836383420e-07 1.763134423526935279e-05 -3.611947008153038041e-08 -3.451100099027826218e-07 -7.020908583399432246e-07
-9.226252473126805853e-08 -7.153357728384435177e-08 -8.650603376736398786e-06 -2.153043787700426037e-08 -7.972138701006770134e-05 -4.766880579154531006e-07 9.271653834730386734e-05 -3.122702310065506026e-07 -1.044855366671981756e-06 -2.325447212569997646e-06
-2.788989149848930538e-06 -2.960400813378782914e-08 -1.442595676053315401e-04 -2.009171339523163624e-06 -5.860287230461835861e-03 -7.798297701810952276e-06 6.082809995859861374e-03 -2.105064231727737933e-05 -2.841014520527096465e-06 -4.174528658040799201e-05
-6.029777068761177361e-06 -3.540545003488659859e-05 -3.286042774561792612e-04 -5.560648332902928814e-06 -1.335663255304098129e-02 -1.441612403141334653e-05 1.393338758498430252e-02 -4.904613888356834650e-05 -4.248109689797274768e-05 -9.520995081402361393e-05
-1.736816921038553119e-05 -1.621374394744634628e-03 -2.847722789738327265e-04 -5.903335113544017076e-05 -1.164408028125762939e-02 -2.757522815954871476e-05 1.467666495591402054e-02 -1.643851719563826919e-04 -7.057128823362290859e-04 -1.523630780866369605e-04
-1.270258362637832761e-04 -1.344404416158795357e-03 -6.560095935128629208e-04 -1.421558845322579145e-04 -6.659738253802061081e-03 -7.107137935236096382e-05 1.032340340316295624e-02 -2.558543346822261810e-04 -7.989481091499328613e-04 -2.681972400750964880e-04
-8.595413528382778168e-04 -1.142696710303425789e-03 1.790743554010987282e-03 -4.726225452031940222e-04 -1.437002420425415039e-02 -4.864624643232673407e-04 1.793269999325275421e-02 -6.664953543804585934e-04 -7.903832010924816132e-04 -9.352197521366178989e-04
3.401583293452858925e-03 -8.152001537382602692e-04 -9.673544991528615355e-05 -6.151364068500697613e-04 -2.026647329330444336e-02 -6.884696194902062416e-04 2.463093586266040802e-02 -2.188590588048100471e-03 -1.026162062771618366e-03 -2.335763070732355118e-03
8.078403770923614502e-03 -4.061142390128225088e-04 -4.605276044458150864e-03 -4.363647312857210636e-04 -3.395956009626388550e-02 -1.012483262456953526e-03 4.044879227876663208e-02 -3.911294974386692047e-03 -9.422576986253261566e-04 -3.253835951909422874e-03
2.447020495310425758e-03 -3.627852129284292459e-04 -5.147417541593313217e-03 -4.794317064806818962e-04 -1.984773389995098114e-02 -1.385195413604378700e-03 3.084315918385982513e-02 -1.709668315015733242e-03 -2.004840411245822906e-03 -2.353101503103971481e-03
-1.447417424060404301e-03 5.554400850087404251e-03 -3.965000156313180923e-03 -1.213080016896128654e-03 -1.039110589772462845e-02 -1.231287489645183086e-03 1.666250638663768768e-02 -6.909549701958894730e-04 -1.975263468921184540e-03 -1.302793738432228565e-03
2.363375620916485786e-03 9.043636731803417206e-03 1.444202382117509842e-03 -1.468030735850334167e-03 -1.937780529260635376e-02 -1.312295673415064812e-03 1.490028854459524155e-02 -8.772657602094113827e-04 -1.311835483647882938e-03 -3.404261544346809387e-03
7.917654700577259064e-03 -1.551726018078625202e-03 1.392132416367530823e-02 -6.590590928681194782e-04 -2.000952884554862976e-02 -1.155328354798257351e-03 1.156837213784456253e-02 -1.239939825609326363e-03 -1.304194680415093899e-03 -7.487581577152013779e-03
3.698316635563969612e-03 -1.182281994260847569e-03 2.085856394842267036e-03 -2.563001471571624279e-04 -9.194030426442623138e-03 -7.544456748291850090e-04 1.120537985116243362e-02 -5.449523450806736946e-04 -9.404941229149699211e-04 -4.117044154554605484e-03
-3.683497780002653599e-04 -9.483622125117108226e-05 -3.447821829468011856e-03 -4.875589002040214837e-05 -5.255178082734346390e-03 -5.485569126904010773e-04 1.130297314375638962e-02 -1.117548235924914479e-04 -6.414583767764270306e-04 -7.862650090828537941e-04
-2.629344235174357891e-04 -4.848561729886569083e-05 -4.358545877039432526e-03 -3.917702633771114051e-05 -6.852261256426572800e-03 -5.443558329716324806e-04 1.322250999510288239e-02 -8.877941581886261702e-05 -4.897977923974394798e-04 -5.381730152294039726e-04
-1.874359295470640063e-04 -7.100834045559167862e-05 -3.066295292228460312e-03 -4.396523218019865453e-05 -4.635911900550127029e-03 -3.399009292479604483e-04 9.263983927667140961e-03 -3.422158988541923463e-05 -4.749868530780076981e-04 -4.102594102732837200e-04
-6.612430297536775470e-05 -8.252709085354581475e-05 -1.034522661939263344e-03 -2.006370777962729335e-05 -5.404890049248933792e-03 -6.705167470499873161e-05 7.310783956199884415e-03 -4.073745913046877831e-06 -3.584180085454136133e-04 -2.731130807660520077e-04
-1.543870166642591357e-05 -9.956707799574360251e-06 -1.456879690522328019e-04 -6.139189281384460628e-06 -6.065811961889266968e-03 -1.595921821717638522e-05 6.636480335146188736e-03 -2.898557067965157330e-05 -7.866722444305196404e-05 -2.698331954888999462e-04
-1.312810127274133265e-05 -4.772457486978964880e-06 -1.398176391376182437e-04 -6.828268851677421480e-06 -1.377122476696968079e-03 -1.985711242014076561e-05 1.921568997204303741e-03 -4.032701690448448062e-05 -5.213355325395241380e-05 -2.675821015145629644e-04
0.000000000000000000e+00 0.000000000000000000e+00 0.000000000000000000e+00 0.000000000000000000e+00 0.000000000000000000e+00 0.000000000000000000e+00 0.000000000000000000e+00 0.000000000000000000e+00 0.000000000000000000e+00 0.000000000000000000e+00
0.000000000000000000e+00 0.000000000000000000e+00 0.000000000000000000e+00 0.000000000000000000e+00 0.000000000000000000e+00 0.000000000000000000e+00 0.000000000000000000e+00 0.000000000000000000e+00 0.000000000000000000e+00 0.000000000000000000e+00
0.000000000000000000e+00 0.000000000000000000e+00 0.000000000000000000e+00 0.000000000000000000e+00 0.000000000000000000e+00 0.000000000000000000e+00 0.000000000000000000e+00 0.000000000000000000e+00 0.000000000000000000e+00 0.000000000000000000e+00
0.000000000000000000e+00 0.000000000000000000e+00 0.000000000000000000e+00 0.000000000000000000e+00 0.000000000000000000e+00 0.000000000000000000e+00 0.000000000000000000e+00 0.000000000000000000e+00 0.000000000000000000e+00 0.000000000000000000e+00
0.000000000000000000e+00 0.000000000000000000e+00 0.000000000000000000e+00 0.000000000000000000e+00 0.000000000000000000e+00 0.000000000000000000e+00 0.000000000000000000e+00 0.000000000000000000e+00 0.000000000000000000e+00 0.000000000000000000e+00
0.000000000000000000e+00 0.000000000000000000e+00 0.000000000000000000e+00 0.000000000000000000e+00 0.000000000000000000e+00 0.000000000000000000e+00 0.000000000000000000e+00 0.000000000000000000e+00 0.000000000000000000e+00 0.000000000000000000e+00
-2.104509064793091966e-07 -3.520718827587643318e-09 -7.331574352065217681e-07 -2.480726202236382960e-08 -2.748723318291013129e-06 -4.990130264559411444e-07 7.843093044357374310e-06 -2.098559936936084114e-10 -7.779833595122909173e-07 -2.845339167834026739e-06
2.371697046328336000e-04 -5.512957201858625922e-09 -1.032598720485111699e-05 -5.928115456299565267e-07 -1.859400217654183507e-04 -2.147293707821518183e-05 7.332852692343294621e-05 -5.181458982406184077e-05 -6.397009656211594120e-06 -3.394941450096666813e-05
1.062283845385536551e-04 -1.745803047015215270e-06 -2.679715398699045181e-04 -1.504641431893105619e-06 -2.263922069687396288e-04 -7.214606284833280370e-06 4.662152496166527271e-04 -2.077663702948484570e-05 -1.785658969311043620e-05 -2.898160528275184333e-05
-7.555763295385986567e-05 -6.616942300752270967e-07 -7.316308619920164347e-05 -5.826622782478807494e-06 -1.907039113575592637e-04 -2.068581579806050286e-06 3.619579656515270472e-04 -2.221747536168550141e-06 -5.476305432239314541e-06 -6.278384262259351090e-06
-3.348242957144975662e-03 -6.580422632396221161e-05 -1.015794114209711552e-03 -8.177572453860193491e-05 -6.485158577561378479e-03 -3.342184209031984210e-05 1.146870199590921402e-02 -2.750609128270298243e-04 -9.253367170458659530e-05 -7.090333383530378342e-05
-4.142045974731445312e-03 -1.065569347701966763e-03 -2.466995734721422195e-03 -6.526737124659121037e-04 -2.407314628362655640e-02 -6.280690431594848633e-04 3.482390195131301880e-02 -7.052333676256239414e-04 -5.254002753645181656e-04 -5.647676298394799232e-04
-6.133774295449256897e-03 -6.627611815929412842e-03 5.418573855422437191e-04 -2.518928376957774162e-03 -2.846573665738105774e-02 -1.021974603645503521e-03 4.842339456081390381e-02 -1.336619257926940918e-03 -1.640065223909914494e-03 -1.220540958456695080e-03
-8.820329792797565460e-03 -1.144751440733671188e-02 1.351437624543905258e-02 -5.621409509330987930e-03 -3.308644890785217285e-02 -3.361611859872937202e-03 5.894696339964866638e-02 -2.676756586879491806e-03 -4.738140385597944260e-03 -2.709090011194348335e-03
-8.370826952159404755e-03 -1.135098189115524292e-02 1.293312106281518936e-02 -4.972869995981454849e-03 -6.359302252531051636e-02 -9.461347013711929321e-03 1.033446639776229858e-01 -5.042594391852617264e-03 -7.669715210795402527e-03 -5.816388409584760666e-03
-8.673409931361675262e-03 -1.143279671669006348e-02 2.487305179238319397e-02 2.054458949714899063e-03 -7.489671558141708374e-02 -1.816394366323947906e-02 1.153934299945831299e-01 -9.803533554077148438e-03 -1.106863934546709061e-02 -8.281972259283065796e-03
-1.158758066594600677e-02 2.488410682417452335e-04 1.862392947077751160e-02 2.978242002427577972e-03 -1.021812260150909424e-01 -2.403070405125617981e-02 1.538541018962860107e-01 -1.086767483502626419e-02 -1.470295619219541550e-02 -1.233477238565683365e-02
-1.779122650623321533e-02 2.394654043018817902e-02 8.311809971928596497e-03 -4.469924140721559525e-03 -9.390185028314590454e-02 -2.827670797705650330e-02 1.546326279640197754e-01 -8.526268415153026581e-03 -1.935048587620258331e-02 -1.457462087273597717e-02
-3.063242509961128235e-02 2.697764150798320770e-02 2.418325282633304596e-02 -4.193752072751522064e-03 -7.786692678928375244e-02 -2.886004373431205750e-02 1.366115063428878784e-01 -9.250964969396591187e-03 -2.235588245093822479e-02 -1.461236365139484406e-02
-3.594350442290306091e-02 4.020434990525245667e-02 3.985752537846565247e-02 -7.078115828335285187e-03 -8.166518062353134155e-02 -2.033751085400581360e-02 1.138654574751853943e-01 -9.226471185684204102e-03 -2.422599308192729950e-02 -1.545044314116239548e-02
-3.187047690153121948e-02 2.000605128705501556e-02 3.040909767150878906e-02 -5.049032159149646759e-03 -7.778323441743850708e-02 -6.193944718688726425e-03 1.212974339723587036e-01 -6.268960423767566681e-03 -2.577813342213630676e-02 -1.876895874738693237e-02
-3.008393198251724243e-02 1.816767849959433079e-03 9.470825898461043835e-04 -5.267057102173566818e-03 -4.403239488601684570e-02 6.983900442719459534e-03 1.078422069549560547e-01 -4.242881201207637787e-03 -2.007231116294860840e-02 -1.389143243432044983e-02
-2.326426841318607330e-02 -2.310655778273940086e-03 -1.518110278993844986e-02 -1.018096413463354111e-02 -3.144682198762893677e-02 7.668340113013982773e-03 9.573106467723846436e-02 -3.361561335623264313e-03 -8.227202109992504120e-03 -9.426781907677650452e-03
-1.824490353465080261e-02 1.909059355966746807e-03 -3.100902959704399109e-02 -6.941174156963825226e-03 -1.651483587920665741e-02 2.665715524926781654e-03 8.779031038284301758e-02 -1.923729781992733479e-03 -1.142432354390621185e-02 -6.307013798505067825e-03
-1.232758536934852600e-02 -3.599698189646005630e-03 -1.871926151216030121e-02 -3.663460724055767059e-03 -8.574999868869781494e-03 -7.800128310918807983e-03 6.536577641963958740e-02 -1.311423140577971935e-03 -6.066131405532360077e-03 -3.303116653114557266e-03
-6.883617956191301346e-03 -3.797298762947320938e-03 -1.541942637413740158e-02 -3.922761883586645126e-03 -7.617425639182329178e-03 -8.147008717060089111e-03 5.451898276805877686e-02 -1.026944140903651714e-03 -5.029568914324045181e-03 -2.674936782568693161e-03
-4.455132875591516495e-03 -2.721933415159583092e-03 -1.351107191294431686e-02 -3.351261373609304428e-03 -1.016715448349714279e-02 -5.668613128364086151e-03 4.843513667583465576e-02 -8.738796459510922432e-04 -5.240761674940586090e-03 -2.445350168272852898e-03
-2.246066229417920113e-03 -1.882932963781058788e-03 -5.595740396529436111e-03 -1.292446628212928772e-03 -5.993333645164966583e-03 -5.555467214435338974e-03 2.667183056473731995e-02 -4.343356995377689600e-04 -2.383556682616472244e-03 -1.287951017729938030e-03
-3.492164833005517721e-04 -5.059778923168778419e-04 4.162982571870088577e-03 -1.190686962218023837e-04 -1.523924875073134899e-03 -2.918788231909275055e-03 2.038873732089996338e-03 -1.446700844098813832e-05 -6.744612473994493484e-04 -9.595193841960281134e-05
-2.771922481770161539e-05 -9.408639016328379512e-06 3.603442804887890816e-03 -1.080475726666918490e-06 -5.403959075920283794e-04 -5.237784935161471367e-04 -2.157352166250348091e-03 -9.556102043006831082e-08 -3.069218655582517385e-04 -3.669058787636458874e-05
0.000000000000000000e+00 0.000000000000000000e+00 0.000000000000000000e+00 0.000000000000000000e+00 0.000000000000000000e+00 0.000000000000000000e+00 0.000000000000000000e+00 0.000000000000000000e+00 0.000000000000000000e+00 0.000000000000000000e+00
0.000000000000000000e+00 0.000000000000000000e+00 0.000000000000000000e+00 0.000000000000000000e+00 0.000000000000000000e+00 0.000000000000000000e+00 0.000000000000000000e+00 0.000000000000000000e+00 0.000000000000000000e+00 0.000000000000000000e+00
0.000000000000000000e+00 0.000000000000000000e+00 0.000000000000000000e+00 0.000000000000000000e+00 0.000000000000000000e+00 0.000000000000000000e+00 0.000000000000000000e+00 0.000000000000000000e+00 0.000000000000000000e+00 0.000000000000000000e+00
0.000000000000000000e+00 0.000000000000000000e+00 0.000000000000000000e+00 0.000000000000000000e+00 0.000000000000000000e+00 0.000000000000000000e+00 0.000000000000000000e+00 0.000000000000000000e+00 0.000000000000000000e+00 0.000000000000000000e+00
-4.906770527668413706e-07 1.092488382710143924e-04 -1.743937900755554438e-05 -2.431952680126414634e-06 -6.606951046705944464e-06 -1.651062689234095160e-06 -4.253153383615426719e-05 -1.478723188341746209e-08 -3.167326212860643864e-05 -6.409537945728516206e-06
2.144640311598777771e-04 2.597204183985013515e-05 -5.815879558213055134e-05 -1.922661613207310438e-05 -8.210187079384922981e-04 -1.045556655299151316e-05 1.082732575014233589e-03 -1.576788781676441431e-04 -1.316954876529052854e-04 -1.249348424607887864e-04
-1.728964503854513168e-03 -8.602105481259059161e-06 -5.581669975072145462e-04 -4.911952419206500053e-04 -4.571397148538380861e-04 2.048537833616137505e-03 1.525771222077310085e-03 -2.274988364661112428e-04 -4.203721255180425942e-05 -6.070493327570147812e-05
-1.081933081150054932e-02 -5.399899673648178577e-04 2.137861913070082664e-03 1.716979406774044037e-02 -1.013030298054218292e-03 -7.136527914553880692e-03 2.129678381606936455e-03 -3.714057384058833122e-04 -1.227319589816033840e-03 -3.297306830063462257e-04
-1.596377603709697723e-02 -2.084431936964392662e-03 7.480320986360311508e-03 1.361168455332517624e-02 -1.031905412673950195e-02 -5.397043190896511078e-03 1.746075227856636047e-02 -1.109965262003242970e-03 -2.839904977008700371e-03 -8.385769324377179146e-04
-2.005296573042869568e-02 -7.205156143754720688e-03 2.208172343671321869e-02 1.565269753336906433e-02 -2.595377899706363678e-02 -1.131798792630434036e-02 3.905373066663742065e-02 -3.947710618376731873e-03 -6.400276441127061844e-03 -1.910246792249381542e-03
-1.521160360425710678e-02 -2.084371447563171387e-02 4.689923301339149475e-02 1.768344454467296600e-02 -5.066283047199249268e-02 -1.341029163450002670e-02 6.191622465848922729e-02 -9.982264600694179535e-03 -1.166381407529115677e-02 -4.724294412881135941e-03
-3.131405264139175415e-02 -3.201851993799209595e-02 1.186180487275123596e-01 1.842478290200233459e-02 -8.158361166715621948e-02 -2.942768298089504242e-02 8.483206480741500854e-02 -1.581846177577972412e-02 -2.179009653627872467e-02 -9.922279044985771179e-03
-3.230985626578330994e-02 -4.836471378803253174e-02 1.465191841125488281e-01 4.230373352766036987e-02 -1.172560825943946838e-01 -3.566065803170204163e-02 1.231814622879028320e-01 -2.688154205679893494e-02 -3.290751203894615173e-02 -1.862413063645362854e-02
-2.240952104330062866e-02 -7.060208171606063843e-02 1.668057292699813843e-01 1.120894253253936768e-01 -1.433866918087005615e-01 -6.315457075834274292e-02 1.361064016819000244e-01 -4.088069126009941101e-02 -4.692610725760459900e-02 -2.764174714684486389e-02
-3.661435097455978394e-02 -4.779618605971336365e-02 1.906056106090545654e-01 1.615911871194839478e-01 -1.905105859041213989e-01 -6.709632277488708496e-02 1.242654174566268921e-01 -3.815756365656852722e-02 -5.938148126006126404e-02 -3.690565750002861023e-02
-3.748895972967147827e-02 -1.721677556633949280e-02 1.816302239894866943e-01 1.548038572072982788e-01 -2.115352898836135864e-01 -6.693895161151885986e-02 1.565432101488113403e-01 -3.651710599660873413e-02 -7.512422651052474976e-02 -4.815652966499328613e-02
-5.245203152298927307e-02 -9.350213222205638885e-03 1.367685794830322266e-01 2.004064321517944336e-01 -1.880737990140914917e-01 -4.959333688020706177e-02 1.640711575746536255e-01 -3.759469464421272278e-02 -1.013063564896583557e-01 -6.287522614002227783e-02
-5.550383776426315308e-02 8.945822715759277344e-03 1.008114293217658997e-01 1.869837492704391479e-01 -1.845066100358963013e-01 -3.321868600323796272e-03 1.574153900146484375e-01 -3.734973073005676270e-02 -1.002681255340576172e-01 -7.320576906204223633e-02
-5.858032777905464172e-02 1.857912575360387564e-04 1.031522303819656372e-01 1.532634496688842773e-01 -1.541236639022827148e-01 1.111393980681896210e-02 1.512979418039321899e-01 -3.228960186243057251e-02 -1.068721190094947815e-01 -6.714746356010437012e-02
-8.549624681472778320e-02 -3.020792640745639801e-02 4.502024501562118530e-02 1.232462748885154724e-01 -1.107087060809135437e-01 5.294503271579742432e-02 1.701855808496475220e-01 -2.607751823961734772e-02 -9.085406363010406494e-02 -4.805241897702217102e-02
-1.144732609391212463e-01 -4.581684991717338562e-02 -3.730969876050949097e-02 9.370725601911544800e-02 -7.848305255174636841e-02 9.086275845766067505e-02 1.940408647060394287e-01 -2.043377421796321869e-02 -5.522473528981208801e-02 -2.686959691345691681e-02
-1.014547422528266907e-01 -4.540373757481575012e-02 -6.283999979496002197e-02 6.004647165536880493e-02 -3.827437758445739746e-02 7.158433645963668823e-02 2.094841748476028442e-01 -1.388581655919551849e-02 -5.621233209967613220e-02 -2.304395288228988647e-02
-6.714840978384017944e-02 -4.550139605998992920e-02 -7.966398447751998901e-02 4.477602243423461914e-02 -9.660483337938785553e-03 5.889849737286567688e-02 1.641370952129364014e-01 -1.138498820364475250e-02 -3.675632551312446594e-02 -1.769577339291572571e-02
-5.014200881123542786e-02 -3.476552292704582214e-02 -6.828517466783523560e-02 -1.162872277200222015e-02 -2.509352751076221466e-03 3.850150853395462036e-02 1.636378765106201172e-01 -7.426900789141654968e-03 -1.594108156859874725e-02 -1.144078001379966736e-02
-3.309700265526771545e-02 -2.586455084383487701e-02 -5.929512903094291687e-02 -2.478920482099056244e-02 -1.518145669251680374e-03 1.125865522772073746e-02 1.442599594593048096e-01 -3.621864831075072289e-03 -1.458780723623931408e-03 -5.873966962099075317e-03
-1.702214218676090240e-02 -1.562762632966041565e-02 -3.816519677639007568e-02 -1.186185702681541443e-02 1.694980543106794357e-03 -3.294090554118156433e-02 1.121552810072898865e-01 -1.884892582893371582e-03 6.757753901183605194e-03 -3.105361713096499443e-03
-6.877649109810590744e-03 -1.064487546682357788e-02 -1.139196939766407013e-02 -3.841219935566186905e-03 -1.425164984539151192e-03 -2.405893057584762573e-02 6.128991395235061646e-02 -8.907480514608323574e-04 -1.325686229392886162e-03 -8.336441824212670326e-04
-2.340301405638456345e-03 -3.150832373648881912e-03 6.150355911813676357e-04 -4.732523229904472828e-04 -8.551318896934390068e-04 2.622665371745824814e-03 3.714695107191801071e-03 -1.289455576625186950e-05 -2.822547139658126980e-05 -9.175881859846413136e-05
-5.311933928169310093e-04 -3.188385395333170891e-03 -2.256868756376206875e-04 -3.885864134645089507e-05 -1.557992509333416820e-04 1.072571612894535065e-03 3.515171119943261147e-03 -5.057463567936792970e-07 -4.411744303070008755e-04 -6.138948265288490802e-06
0.000000000000000000e+00 0.000000000000000000e+00 0.000000000000000000e+00 0.000000000000000000e+00 0.000000000000000000e+00 0.000000000000000000e+00 0.000000000000000000e+00 0.000000000000000000e+00 0.000000000000000000e+00 0.000000000000000000e+00
0.000000000000000000e+00 0.000000000000000000e+00 0.000000000000000000e+00 0.000000000000000000e+00 0.000000000000000000e+00 0.000000000000000000e+00 0.000000000000000000e+00 0.000000000000000000e+00 0.000000000000000000e+00 0.000000000000000000e+00
-5.211641962432622677e-08 -3.455085817449798924e-08 -9.421672075404785573e-06 1.271180371986702085e-05 -1.804470741717523197e-07 -2.479450131431804039e-06 -4.209191928339350852e-08 -1.936226645682381786e-08 -4.714322869858733611e-07 -1.058544984999798544e-08
-8.103370419121347368e-06 3.727975999936461449e-04 -2.267121308250352740e-04 1.572831824887543917e-04 -4.243250714353052899e-06 -1.478456979384645820e-04 -2.223957562819123268e-04 -7.900873555399812176e-08 8.038963278522714972e-05 -1.091334752345574088e-06
-1.128145231632515788e-04 3.018090865225531161e-05 -6.990684778429567814e-04 3.080915426835417747e-03 -3.547023225110024214e-04 -1.493286574259400368e-03 -2.400469238637015224e-04 9.298238728661090136e-05 -2.302290231455117464e-04 -7.393076521111652255e-05
-1.666473341174423695e-03 9.561178158037364483e-04 -8.486031554639339447e-03 1.563887856900691986e-02 5.286587402224540710e-03 -1.083739940077066422e-02 1.508908811956644058e-03 -5.400712834671139717e-04 -1.565116224810481071e-03 -2.953949442598968744e-04
-1.723528653383255005e-02 5.689796060323715210e-03 5.864687729626893997e-03 5.978301540017127991e-02 6.837476044893264771e-03 -4.044187813997268677e-02 -4.946170374751091003e-03 -5.378404632210731506e-03 -7.937141694128513336e-03 -2.236076630651950836e-03
-2.629505470395088196e-02 -3.439210588112473488e-03 4.370533302426338196e-02 8.043330907821655273e-02 -7.798982784152030945e-03 -5.373970419168472290e-02 -4.714858252555131912e-03 -7.320599164813756943e-03 -1.543704885989427567e-02 -5.393095314502716064e-03
-2.340513840317726135e-02 -2.426261082291603088e-02 6.533814966678619385e-02 1.127645745873451233e-01 -2.345785684883594513e-02 -7.088546454906463623e-02 1.654186286032199860e-02 -1.694756932556629181e-02 -2.369571104645729065e-02 -1.199023891240358353e-02
-2.041886374354362488e-02 -3.952182084321975708e-02 1.121471375226974487e-01 1.667050570249557495e-01 -6.047273799777030945e-02 -1.259129047393798828e-01 4.062069579958915710e-02 -3.104169853031635284e-02 -2.083828300237655640e-02 -2.126667648553848267e-02
-1.709952391684055328e-02 -4.869260638952255249e-02 2.150323390960693359e-01 1.767743229866027832e-01 -1.074174493551254272e-01 -1.310060769319534302e-01 2.944550290703773499e-02 -5.357833206653594971e-02 -2.144004218280315399e-02 -4.201823100447654724e-02
-2.312378585338592529e-02 -4.750765115022659302e-02 2.510824203491210938e-01 2.203429043292999268e-01 -1.773798167705535889e-01 -9.887676686048507690e-02 4.600205272436141968e-02 -8.144646137952804565e-02 -2.246975898742675781e-02 -6.662253290414810181e-02
-2.427744911983609200e-03 -5.372849479317665100e-02 2.921819984912872314e-01 2.540742158889770508e-01 -1.938939988613128662e-01 -7.588890194892883301e-02 -1.830699294805526733e-02 -1.060039848089218140e-01 6.836137035861611366e-04 -9.668936580419540405e-02
-2.278555743396282196e-02 2.237717434763908386e-02 2.970642745494842529e-01 2.573684155941009521e-01 -2.128934711217880249e-01 -1.075395196676254272e-01 -2.992864698171615601e-02 -1.279204934835433960e-01 6.690599769353866577e-02 -1.426483243703842163e-01
1.642386661842465401e-03 1.087373048067092896e-01 2.205936461687088013e-01 2.599958181381225586e-01 -2.148747742176055908e-01 -1.633821427822113037e-01 -1.618953980505466461e-02 -1.433480530977249146e-01 1.111386716365814209e-01 -1.643132418394088745e-01
-1.229325309395790100e-02 1.356662362813949585e-01 1.844814717769622803e-01 2.132132351398468018e-01 -2.343275398015975952e-01 -7.383203506469726562e-02 -2.570797130465507507e-02 -1.590491235256195068e-01 1.720612496137619019e-01 -2.002127915620803833e-01
1.434592436999082565e-02 9.642782807350158691e-02 1.176807433366775513e-01 2.079669386148452759e-01 -2.095099985599517822e-01 3.465638309717178345e-02 -1.283929124474525452e-02 -1.589425206184387207e-01 1.359204798936843872e-01 -2.257059961557388306e-01
-2.524119988083839417e-02 3.467337042093276978e-02 1.232772693037986755e-01 1.782041937112808228e-01 -1.476570814847946167e-01 7.015856355428695679e-02 8.226300030946731567e-02 -1.487779319286346436e-01 5.691735073924064636e-02 -2.238173037767410278e-01
-2.202050574123859406e-02 -1.262883003801107407e-02 6.563223898410797119e-02 1.277592182159423828e-01 -1.045947298407554626e-01 1.024651825428009033e-01 1.385479867458343506e-01 -1.213742271065711975e-01 -5.090971477329730988e-03 -1.686954498291015625e-01
-5.344988033175468445e-02 -1.576046645641326904e-02 5.667004268616437912e-03 1.219463720917701721e-01 -7.449117302894592285e-02 1.225801259279251099e-01 1.577232629060745239e-01 -9.721157699823379517e-02 -4.124658927321434021e-02 -1.257569342851638794e-01
-8.025833964347839355e-02 6.690320372581481934e-02 -4.818393662571907043e-02 2.989241294562816620e-02 -8.976801298558712006e-03 5.537153407931327820e-02 2.009818553924560547e-01 -6.973442435264587402e-02 -4.369678720831871033e-02 -1.022986844182014465e-01
-6.113632395863533020e-02 8.709578961133956909e-02 -9.338242560625076294e-02 -3.091514483094215393e-02 3.983680158853530884e-02 -3.355157375335693359e-02 2.377829700708389282e-01 -5.275590345263481140e-02 -1.832065358757972717e-02 -7.465324550867080688e-02
-5.787142366170883179e-02 9.337406605482101440e-02 -1.361306458711624146e-01 -8.051842451095581055e-02 5.116032809019088745e-02 6.621610373258590698e-02 2.390777170658111572e-01 -3.750145435333251953e-02 -7.716040313243865967e-02 -6.064575910568237305e-02
-5.139499530196189880e-02 6.528538465499877930e-02 -1.384531557559967041e-01 -8.200113475322723389e-02 5.878551304340362549e-02 7.311601936817169189e-02 2.162471711635589600e-01 -2.304307185113430023e-02 -8.360127359628677368e-02 -3.493994474411010742e-02
-5.413377657532691956e-02 2.828323654830455780e-02 -9.534672647714614868e-02 -8.302255719900131226e-02 6.627234816551208496e-02 7.226520031690597534e-02 1.520669162273406982e-01 -1.023273263126611710e-02 -6.073009222745895386e-02 -1.542156655341386795e-02
-4.598516970872879028e-02 -1.938564516603946686e-02 -4.771599546074867249e-02 -2.185006439685821533e-02 4.469654336571693420e-02 6.498198211193084717e-02 5.061985552310943604e-02 -4.168535582721233368e-03 -1.581281237304210663e-02 -5.380170419812202454e-03
-1.353825349360704422e-02 -1.540233474224805832e-02 -7.295416668057441711e-03 -3.152815159410238266e-03 6.851418409496545792e-03 1.892388425767421722e-02 1.435562502592802048e-02 -7.853248389437794685e-04 1.419054926373064518e-03 -1.375844585709273815e-03
-1.614200416952371597e-03 -1.873004366643726826e-03 -9.628384141251444817e-04 -1.076845874194987118e-04 -1.536631840281188488e-03 4.258969798684120178e-03 3.685863339342176914e-05 -1.534694019937887788e-04 2.395134419202804565e-03 -4.431350098457187414e-04
-2.516831409593578428e-05 -9.503879118710756302e-04 -7.690233178436756134e-04 -9.955558198271319270e-06 -4.160070093348622322e-04 -5.333981243893504143e-04 2.376894699409604073e-03 -8.476959010295104235e-06 3.639777423813939095e-04 -2.845537164830602705e-05
0.000000000000000000e+00 0.000000000000000000e+00 0.000000000000000000e+00 0.000000000000000000e+00 0.000000000000000000e+00 0.000000000000000000e+00 0.000000000000000000e+00 0.000000000000000000e+00 0.000000000000000000e+00 0.000000000000000000e+00
0.000000000000000000e+00 0.000000000000000000e+00 0.000000000000000000e+00 0.000000000000000000e+00 0.000000000000000000e+00 0.000000000000000000e+00 0.000000000000000000e+00 0.000000000000000000e+00 0.000000000000000000e+00 0.000000000000000000e+00
-1.172914853668771684e-04 1.990453893085941672e-05 8.883183181751519442e-05 1.330959727056324482e-03 -3.445006586844101548e-05 -1.179786166176199913e-03 -2.951170472442754544e-06 -1.333299132966203615e-05 -8.588402852183207870e-05 -6.000179837428731844e-06
-1.217203680425882339e-03 6.797591340728104115e-04 9.261444793082773685e-04 2.110487781465053558e-02 1.327080244664102793e-04 -8.667170070111751556e-03 -6.250606849789619446e-03 -3.668414719868451357e-04 -5.100667942315340042e-03 -1.240997109562158585e-03
-7.005950901657342911e-03 2.197315916419029236e-03 -4.386004293337464333e-04 5.969854444265365601e-02 5.377192981541156769e-03 -3.796162456274032593e-02 -4.236450768075883389e-04 -3.109486540779471397e-03 -1.451049186289310455e-02 -3.823193255811929703e-03
-3.288359194993972778e-02 1.240314450114965439e-02 1.330644637346267700e-02 1.300894618034362793e-01 2.070537209510803223e-02 -7.380521297454833984e-02 -3.489555418491363525e-02 9.897870942950248718e-03 -2.958474680781364441e-02 -1.523310691118240356e-02
-3.911048918962478638e-02 -1.409677881747484207e-02 6.775072216987609863e-02 1.833883821964263916e-01 2.813273109495639801e-02 -1.070284321904182434e-01 -3.469015657901763916e-02 1.196050201542675495e-03 -4.527314379811286926e-02 -4.026874154806137085e-02
-4.668680205941200256e-02 -6.262183189392089844e-02 1.349152624607086182e-01 2.001522034406661987e-01 1.772781461477279663e-02 -1.005204692482948303e-01 -3.158802166581153870e-02 -1.887168735265731812e-03 -4.230739921331405640e-02 -6.718347966670989990e-02
-4.825695231556892395e-02 -1.189451366662979126e-01 2.172146141529083252e-01 1.840930283069610596e-01 -3.984651062637567520e-03 -8.987782895565032959e-02 8.671208284795284271e-03 -1.209032442420721054e-02 -4.857275262475013733e-02 -8.825147151947021484e-02
-4.210732877254486084e-02 -1.290163099765777588e-01 2.468796074390411377e-01 1.904385387897491455e-01 -3.100631013512611389e-02 -2.822712995111942291e-02 -5.110358353704214096e-03 -4.198379814624786377e-02 -3.443855419754981995e-02 -1.254282146692276001e-01
1.410260051488876343e-02 -8.877097070217132568e-02 2.653682827949523926e-01 2.062526941299438477e-01 -1.209051907062530518e-01 9.314653463661670685e-03 -1.854055188596248627e-02 -9.780397266149520874e-02 -7.256098836660385132e-02 -9.645634889602661133e-02
3.095049597322940826e-02 -6.837156414985656738e-02 2.850108742713928223e-01 1.554287523031234741e-01 -1.399012804031372070e-01 3.605490922927856445e-02 -1.415093541145324707e-01 -1.603727638721466064e-01 3.441340476274490356e-02 -3.170357644557952881e-02
4.786216095089912415e-02 7.146501448005437851e-03 2.353897094726562500e-01 1.085179969668388367e-01 -1.492086946964263916e-01 -3.065095469355583191e-02 -1.126884222030639648e-01 -2.086050808429718018e-01 1.535408347845077515e-01 -5.130400881171226501e-02
1.156033352017402649e-01 8.335544914007186890e-02 2.368357032537460327e-01 9.077157825231552124e-02 -1.890748292207717896e-01 -7.663702964782714844e-02 -1.523844301700592041e-01 -2.586888968944549561e-01 1.794002801179885864e-01 -2.918078564107418060e-02
1.449276655912399292e-01 1.176920607686042786e-01 2.154333740472793579e-01 5.730632320046424866e-02 -1.122884452342987061e-01 -1.046727895736694336e-01 -7.591282576322555542e-02 -3.119013011455535889e-01 1.785691231489181519e-01 -1.091535314917564392e-01
1.357075273990631104e-01 9.188676625490188599e-02 2.486293017864227295e-01 1.143822446465492249e-01 -5.298405885696411133e-02 -5.855581536889076233e-02 -7.939462363719940186e-02 -3.231735527515411377e-01 1.092045679688453674e-01 -1.857027262449264526e-01
1.376051604747772217e-01 -2.739116922020912170e-02 2.627916932106018066e-01 1.287664771080017090e-01 1.403413247317075729e-02 4.037728905677795410e-02 -4.550259187817573547e-02 -3.078069388866424561e-01 1.110170483589172363e-01 -3.138908445835113525e-01
1.832139045000076294e-01 -7.075166702270507812e-02 2.007952481508255005e-01 1.757483184337615967e-02 -2.869906835258007050e-03 8.599767833948135376e-02 2.736557833850383759e-02 -2.856026887893676758e-01 1.575142592191696167e-01 -3.132373690605163574e-01
1.342589110136032104e-01 -2.170682884752750397e-02 1.232004016637802124e-01 3.047399967908859253e-02 6.096644327044487000e-02 5.057997256517410278e-02 1.161431893706321716e-01 -2.511703372001647949e-01 4.457930848002433777e-02 -2.873251140117645264e-01
2.559366635978221893e-02 3.775946423411369324e-02 2.523822337388992310e-02 1.291733887046575546e-02 9.018985927104949951e-02 2.268594130873680115e-02 1.696310043334960938e-01 -2.256518006324768066e-01 7.446952909231185913e-02 -2.328334450721740723e-01
-1.998107694089412689e-02 1.274944543838500977e-01 -4.760120064020156860e-02 -6.449761241674423218e-02 8.114380389451980591e-02 9.875687211751937866e-02 1.578799486160278320e-01 -1.881333291530609131e-01 5.052227526903152466e-02 -1.955841928720474243e-01
5.236055701971054077e-03 1.928872466087341309e-01 -6.728468090295791626e-02 -1.448292583227157593e-01 9.729740768671035767e-02 9.581797569990158081e-02 1.369753777980804443e-01 -1.316929757595062256e-01 -2.000224217772483826e-02 -1.644050329923629761e-01
-2.663712576031684875e-02 1.680143922567367554e-01 -1.047920063138008118e-01 -1.716729253530502319e-01 1.516960114240646362e-01 2.032813876867294312e-01 1.153721064329147339e-01 -8.734122663736343384e-02 -1.067895963788032532e-01 -1.411307305097579956e-01
-9.995801746845245361e-02 9.610563516616821289e-02 -1.230615973472595215e-01 -1.504591852426528931e-01 2.017721533775329590e-01 2.164235562086105347e-01 1.154146641492843628e-01 -4.682240635156631470e-02 -1.177536100149154663e-01 -9.166084229946136475e-02
-8.687168359756469727e-02 1.483333669602870941e-02 -7.604102045297622681e-02 -5.417889729142189026e-02 9.088715910911560059e-02 1.536220908164978027e-01 5.878074094653129578e-02 -1.878061890602111816e-02 -3.952149301767349243e-02 -4.272968694567680359e-02
-3.503281995654106140e-02 -2.376418374478816986e-02 -2.078928612172603607e-02 -1.253498252481222153e-02 6.001109723001718521e-03 8.262176811695098877e-02 7.590952329337596893e-03 -7.206551730632781982e-03 1.688954792916774750e-02 -1.377555914223194122e-02
-9.348494000732898712e-03 -3.992152400314807892e-03 -3.629442770034074783e-03 -1.032166182994842529e-03 -4.283941350877285004e-03 2.394180372357368469e-02 3.717820160090923309e-03 -3.252665745094418526e-03 -1.813441631384193897e-04 -1.939426874741911888e-03
-2.139320597052574158e-03 -1.241148216649889946e-03 -1.127106952480971813e-03 -5.610040898318402469e-05 -1.025896926876157522e-04 1.753635937348008156e-03 3.549333661794662476e-03 -7.410577381961047649e-05 -5.475991056300699711e-04 -1.499893733125645667e-05
0.000000000000000000e+00 0.000000000000000000e+00 0.000000000000000000e+00 0.000000000000000000e+00 0.000000000000000000e+00 0.000000000000000000e+00 0.000000000000000000e+00 0.000000000000000000e+00 0.000000000000000000e+00 0.000000000000000000e+00
-6.010431548020278569e-07 -4.747848834085743874e-07 -3.769889644900104031e-06 6.842293805675581098e-05 -2.370863967371406034e-07 -5.338284154277062044e-06 -9.630063857457571430e-08 -1.332822080257756170e-06 -1.994039394048741087e-06 -5.457867155200801790e-05
-2.411660098005086184e-04 -1.983503345400094986e-03 -1.603582990355789661e-03 2.861306769773364067e-03 -6.686234264634549618e-04 -5.369993159547448158e-04 -2.244050701847299933e-04 4.351506475359201431e-03 -7.963664829730987549e-04 -1.158166560344398022e-03
-1.693799160420894623e-03 -2.220314927399158478e-04 5.440281704068183899e-03 3.715622052550315857e-02 -5.721385125070810318e-03 -2.438188903033733368e-02 -1.001961436122655869e-02 1.871917955577373505e-02 -1.341273915022611618e-02 -5.864219740033149719e-03
-1.295128837227821350e-02 8.973862859420478344e-04 1.707895286381244659e-02 9.446027874946594238e-02 1.067989412695169449e-02 -6.752379238605499268e-02 -6.397394463419914246e-03 1.088425982743501663e-02 -2.345730923116207123e-02 -2.367097325623035431e-02
-2.599124796688556671e-02 -1.543181203305721283e-02 5.002209916710853577e-02 1.612375676631927490e-01 5.018235370516777039e-02 -8.773557096719741821e-02 -4.178216308355331421e-02 2.767327986657619476e-02 -4.323545098304748535e-02 -7.493865489959716797e-02
-4.273825138807296753e-02 -4.770869389176368713e-02 1.172156780958175659e-01 1.976412236690521240e-01 6.515099853277206421e-02 -9.232072532176971436e-02 -6.779491156339645386e-02 5.972858518362045288e-02 -6.348640471696853638e-02 -1.256875544786453247e-01
-5.529268085956573486e-02 -1.087615787982940674e-01 1.673741340637207031e-01 1.542452126741409302e-01 5.667777359485626221e-02 -4.736673831939697266e-02 -3.128720447421073914e-02 8.437687158584594727e-02 -4.071750491857528687e-02 -1.792483329772949219e-01
-6.482309848070144653e-02 -1.805281341075897217e-01 1.617757976055145264e-01 1.526596397161483765e-01 1.804323308169841766e-02 7.825420238077640533e-03 -3.068633750081062317e-02 1.228690817952156067e-01 -2.760096453130245209e-03 -1.843757182359695435e-01
-8.006511628627777100e-02 -2.177496999502182007e-01 1.979882121086120605e-01 1.834926307201385498e-01 -1.027021836489439011e-02 3.033689036965370178e-02 -6.462793797254562378e-02 9.013950824737548828e-02 -4.806987009942531586e-03 -1.244371682405471802e-01
-6.443905644118785858e-03 -1.535853296518325806e-01 1.703864485025405884e-01 1.642854958772659302e-01 -1.040486618876457214e-01 6.784676760435104370e-02 -1.200919896364212036e-01 7.907695323228836060e-02 -3.386584669351577759e-02 -6.356019526720046997e-02
2.400627173483371735e-02 -8.885324001312255859e-02 8.643157035112380981e-02 9.946034103631973267e-02 -1.737829893827438354e-01 8.099995553493499756e-02 -1.429496258497238159e-01 4.583501443266868591e-02 2.673617005348205566e-02 4.211684316396713257e-02
3.142184391617774963e-02 -6.932433694601058960e-02 6.892000138759613037e-02 8.138599991798400879e-02 -1.936374306678771973e-01 2.966023795306682587e-02 -1.206609681248664856e-01 -3.972434252500534058e-02 1.084712147712707520e-01 1.034876257181167603e-01
9.406527876853942871e-02 -6.735933572053909302e-02 8.808883279561996460e-02 1.541299074888229370e-01 -2.475314587354660034e-01 2.393358945846557617e-02 -1.629290878772735596e-01 -1.333950906991958618e-01 3.363240882754325867e-02 2.173652350902557373e-01
1.173646226525306702e-01 -7.709032297134399414e-02 9.261019527912139893e-02 1.084646433591842651e-01 -2.837143242359161377e-01 8.144899457693099976e-02 -1.314902007579803467e-01 -1.621417552232742310e-01 3.726087510585784912e-02 2.172872126102447510e-01
1.100874617695808411e-01 -1.581610888242721558e-01 9.378192573785781860e-02 1.370892822742462158e-01 -2.667996585369110107e-01 -2.322364412248134613e-02 -1.001032218337059021e-01 -1.261502951383590698e-01 1.678851395845413208e-01 1.655946373939514160e-01
1.633156538009643555e-01 -1.931983083486557007e-01 1.002073362469673157e-01 1.251948475837707520e-01 -2.161170393228530884e-01 -1.290549896657466888e-02 -1.235789954662322998e-01 -1.059304699301719666e-01 1.019166931509971619e-01 1.610962450504302979e-01
2.200765758752822876e-01 -1.943184733390808105e-01 5.283800140023231506e-02 7.743664085865020752e-02 -1.593433469533920288e-01 3.518187999725341797e-02 -9.948627650737762451e-02 -1.127868890762329102e-01 6.743954122066497803e-02 1.129623204469680786e-01
2.165007740259170532e-01 -1.021857410669326782e-01 4.663266986608505249e-02 1.098089143633842468e-01 -1.369992047548294067e-01 6.604401022195816040e-02 -9.480095654726028442e-02 -1.458880305290222168e-01 -3.031753748655319214e-02 7.120481878519058228e-02
1.003288254141807556e-01 -4.708729311823844910e-02 -1.435449253767728806e-02 2.136866375803947449e-02 -2.863934636116027832e-02 1.002124994993209839e-01 -2.499707788228988647e-02 -1.471097618341445923e-01 8.277258276939392090e-02 -4.249450936913490295e-02
6.384120136499404907e-02 8.030630648136138916e-02 -6.102836132049560547e-02 2.494656667113304138e-02 8.009985089302062988e-03 8.623168617486953735e-02 -2.532332204282283783e-02 -1.229348033666610718e-01 5.817445740103721619e-02 -1.122236400842666626e-01
1.156789883971214294e-01 9.953737258911132812e-02 -7.572823762893676758e-02 -4.633720964193344116e-02 1.128063499927520752e-01 8.653558045625686646e-02 -2.696698717772960663e-02 -7.153032720088958740e-02 -6.674326024949550629e-03 -1.873216181993484497e-01
9.911270439624786377e-02 7.281570136547088623e-02 -9.762482345104217529e-02 -1.698268502950668335e-01 2.556565701961517334e-01 2.018692046403884888e-01 -2.997040934860706329e-02 -8.787342905998229980e-02 -2.079865336418151855e-02 -2.233599722385406494e-01
-4.279621317982673645e-02 4.001854360103607178e-02 -1.628893911838531494e-01 -1.952982097864151001e-01 2.801590859889984131e-01 3.163164556026458740e-01 -1.665795035660266876e-02 -7.793935388326644897e-02 3.916957601904869080e-02 -1.800820827484130859e-01
-1.235685348510742188e-01 -2.193693071603775024e-02 -9.069143235683441162e-02 -9.039662033319473267e-02 1.098045408725738525e-01 3.562058508396148682e-01 -5.242425948381423950e-03 -4.768381267786026001e-02 1.476518344134092331e-02 -1.012556031346321106e-01
-7.431588321924209595e-02 -3.307231515645980835e-02 -2.737428806722164154e-02 -2.820448391139507294e-02 6.755928974598646164e-03 1.958598494529724121e-01 -9.437930770218372345e-03 -2.357669919729232788e-02 3.393218666315078735e-02 -4.056610912084579468e-02
-2.829035744071006775e-02 -3.659169189631938934e-03 -4.114123061299324036e-03 -4.250561818480491638e-03 5.685050506144762039e-03 6.546187400817871094e-02 -1.167593523859977722e-02 -8.034480735659599304e-03 7.252304931171238422e-04 -1.184753328561782837e-02
-7.094419095665216446e-03 -8.235953282564878464e-05 -1.277249248232692480e-04 -7.582134276162832975e-05 -3.055103297811001539e-04 1.007538847625255585e-02 -5.371331935748457909e-04 -2.902749984059482813e-04 -1.196563593111932278e-03 -3.655823529697954655e-04
0.000000000000000000e+00 0.000000000000000000e+00 0.000000000000000000e+00 0.000000000000000000e+00 0.000000000000000000e+00 0.000000000000000000e+00 0.000000000000000000e+00 0.000000000000000000e+00 0.000000000000000000e+00 0.000000000000000000e+00
-6.125272193457931280e-05 -4.724031532532535493e-05 -1.609451574040576816e-04 1.978787127882242203e-03 -6.689297879347577691e-05 -2.442519471514970064e-04 -3.396470219740876928e-06 6.054553086869418621e-04 -3.944910422433167696e-04 -1.605770899914205074e-03
-2.385550033068284392e-04 -1.604866818524897099e-03 2.948346082121133804e-03 3.284690901637077332e-04 -1.024469500407576561e-03 -5.328592844307422638e-03 -9.051017696037888527e-04 1.214195881038904190e-02 -1.874344539828598499e-03 -4.442839417606592178e-03
-2.788039157167077065e-03 -2.081166952848434448e-03 9.377048350870609283e-03 3.455118462443351746e-02 -2.644837601110339165e-03 -3.805930539965629578e-02 -1.362140662968158722e-02 4.638250172138214111e-02 -9.464323520660400391e-03 -2.165164425969123840e-02
-2.268489450216293335e-02 -8.220254443585872650e-03 4.743495211005210876e-02 1.518904119729995728e-01 2.189209125936031342e-02 -1.318988800048828125e-01 -1.517998520284891129e-02 3.879047185182571411e-02 -1.078280899673700333e-02 -7.124108821153640747e-02
-2.865139022469520569e-02 -4.304531961679458618e-02 8.349600434303283691e-02 2.178270369768142700e-01 6.456891447305679321e-02 -1.410634219646453857e-01 -5.027360096573829651e-02 7.110541313886642456e-02 -1.579441875219345093e-02 -1.581689566373825073e-01
-4.459955170750617981e-02 -8.594404160976409912e-02 1.702884584665298462e-01 1.758632808923721313e-01 4.868839308619499207e-02 -9.194117784500122070e-02 -9.015931934118270874e-02 1.314798295497894287e-01 -1.006735861301422119e-02 -2.036084979772567749e-01
-6.320855021476745605e-02 -1.388528496026992798e-01 1.253962218761444092e-01 8.525280654430389404e-02 4.804079234600067139e-02 1.723749935626983643e-02 -4.412816092371940613e-02 1.712998151779174805e-01 3.686273843050003052e-02 -2.379000931978225708e-01
-9.955660253763198853e-02 -2.275733649730682373e-01 1.169203966856002808e-01 4.298323392868041992e-02 2.725414931774139404e-03 9.954594820737838745e-02 -4.300953075289726257e-02 1.900170594453811646e-01 7.999619841575622559e-02 -1.620487272739410400e-01
-3.529207780957221985e-02 -2.394716292619705200e-01 8.924189209938049316e-02 7.469931989908218384e-02 -6.468772888183593750e-02 7.376564294099807739e-02 -8.393229544162750244e-02 2.223681211471557617e-01 2.496474422514438629e-02 -6.165553256869316101e-02
6.244405638426542282e-03 -2.001024186611175537e-01 4.943956807255744934e-02 6.333899497985839844e-02 -1.630518734455108643e-01 1.427406817674636841e-01 -1.258898079395294189e-01 2.397793680429458618e-01 1.078959368169307709e-02 -2.328801341354846954e-02
3.181578963994979858e-02 -1.724100261926651001e-01 5.636488646268844604e-02 6.885825842618942261e-02 -2.232619225978851318e-01 1.255369335412979126e-01 -1.301574110984802246e-01 2.272531241178512573e-01 -6.437160819768905640e-02 8.037239313125610352e-02
3.041531704366207123e-02 -1.162653192877769470e-01 1.738850399851799011e-02 1.145842894911766052e-01 -3.302625715732574463e-01 4.890724271535873413e-02 -1.500502824783325195e-01 1.845675408840179443e-01 -3.272917121648788452e-02 2.334446310997009277e-01
4.891875013709068298e-02 -1.419270038604736328e-01 6.772066652774810791e-02 1.318831145763397217e-01 -2.954894304275512695e-01 -6.810752674937248230e-03 -1.789520084857940674e-01 8.397822082042694092e-02 -3.702750429511070251e-02 3.277068734169006348e-01
6.770384311676025391e-02 -1.573252230882644653e-01 2.370101027190685272e-02 1.604611426591873169e-01 -3.814719319343566895e-01 7.918389141559600830e-02 -1.380101889371871948e-01 -1.217774674296379089e-02 -9.932429343461990356e-02 4.572598040103912354e-01
8.181780576705932617e-02 -2.330263406038284302e-01 -2.111752890050411224e-02 1.609973162412643433e-01 -4.250186085700988770e-01 -1.840336062014102936e-02 -1.347013562917709351e-01 2.661620266735553741e-02 7.158823311328887939e-02 4.912486076354980469e-01
1.396040320396423340e-01 -1.990223973989486694e-01 -5.212414264678955078e-02 7.971782982349395752e-02 -3.868022859096527100e-01 3.989271819591522217e-02 -2.118504196405410767e-01 1.315141469240188599e-01 3.350310400128364563e-02 4.255672395229339600e-01
2.235907614231109619e-01 -1.426405757665634155e-01 -1.549501717090606689e-01 7.938257604837417603e-02 -2.577427029609680176e-01 8.003009110689163208e-02 -2.002442181110382080e-01 1.841855943202972412e-01 -7.520610839128494263e-02 2.635947167873382568e-01
2.212999314069747925e-01 -1.593143045902252197e-01 -8.329856395721435547e-02 4.644990339875221252e-02 -2.226516902446746826e-01 5.852394551038742065e-02 -2.212657928466796875e-01 1.882761269807815552e-01 1.963817141950130463e-02 1.523420214653015137e-01
1.394258886575698853e-01 -4.994005337357521057e-02 -5.062056705355644226e-02 8.962557464838027954e-02 -1.457187235355377197e-01 8.052192628383636475e-02 -2.272805422544479370e-01 1.144294664263725281e-01 -6.766951177269220352e-03 5.632400140166282654e-02
6.107311323285102844e-02 1.806782744824886322e-02 -5.353861302137374878e-02 8.305054157972335815e-02 -8.097097277641296387e-02 8.051085472106933594e-02 -2.071051597595214844e-01 7.596411556005477905e-02 3.684738650918006897e-02 -1.389892771840095520e-02
8.095730096101760864e-02 -1.126274932175874710e-02 -3.307969868183135986e-02 7.337862160056829453e-03 3.948771953582763672e-02 9.091207385063171387e-02 -1.833214014768600464e-01 1.888523250818252563e-02 9.401983767747879028e-02 -1.039359122514724731e-01
1.277591139078140259e-01 -2.643757499754428864e-02 -2.264953218400478363e-02 -1.119505614042282104e-01 1.994793415069580078e-01 1.617182940244674683e-01 -1.798708736896514893e-01 9.266097098588943481e-03 6.690671294927597046e-02 -2.242207378149032593e-01
5.108844488859176636e-02 -6.767227500677108765e-02 -1.597463339567184448e-01 -1.986429691314697266e-01 2.184731066226959229e-01 3.566072583198547363e-01 -1.246267110109329224e-01 -3.540704771876335144e-02 1.824245303869247437e-01 -2.224980592727661133e-01
-8.961097896099090576e-02 -1.033179238438606262e-01 -1.177217289805412292e-01 -1.259350925683975220e-01 7.551853358745574951e-02 4.621128737926483154e-01 -3.571222722530364990e-02 -5.358006432652473450e-02 1.337853968143463135e-01 -1.455387771129608154e-01
-9.088602662086486816e-02 -5.546189099550247192e-02 -3.260779753327369690e-02 -3.201355785131454468e-02 -2.005373360589146614e-03 3.283729553222656250e-01 -2.889373898506164551e-02 -3.899828717112541199e-02 1.470735296607017517e-02 -6.221375986933708191e-02
-3.168392553925514221e-02 -4.669258370995521545e-03 -4.948241636157035828e-03 -3.197432728484272957e-03 4.993753507733345032e-03 8.231631666421890259e-02 -1.243670471012592316e-02 -9.679624810814857483e-03 -1.261204713955521584e-03 -1.943366974592208862e-02
-2.738213632255792618e-03 -1.375276595354080200e-03 -2.254176215501502156e-04 -1.446362584829330444e-04 -5.020031821914017200e-04 8.061146363615989685e-03 -1.362516079097986221e-03 -2.435083006275817752e-04 -1.033647567965090275e-03 -4.359280865173786879e-04
2.007969189435243607e-03 -1.397659343638224527e-05 -8.430590241914615035e-05 -3.305112159068812616e-06 -1.355224812868982553e-04 -1.117646297643659636e-05 -8.540276030544191599e-05 -1.068794168531894684e-03 -3.711244789883494377e-05 -5.683733033947646618e-04
-6.524257332785055041e-05 -3.522212864481844008e-05 1.783636398613452911e-04 -6.479548173956573009e-04 -3.744376590475440025e-03 -2.912543714046478271e-04 -5.768785740656312555e-06 1.081938669085502625e-02 -5.359300412237644196e-04 -5.671999882906675339e-03
-2.530964848119765520e-04 -9.144830401055514812e-04 1.281708246096968651e-03 -1.451784977689385414e-03 -2.831915160641074181e-03 -7.240221370011568069e-03 -2.112364396452903748e-03 3.658128529787063599e-02 -3.815094707533717155e-03 -1.924403756856918335e-02
-6.270495709031820297e-03 -2.104394836351275444e-03 5.956298671662807465e-03 3.837779164314270020e-02 -8.636870421469211578e-03 -4.994503781199455261e-02 -1.737641729414463043e-02 9.287507086992263794e-02 -1.469137379899621010e-03 -5.140677839517593384e-02
-3.715396672487258911e-02 -1.314424164593219757e-02 5.659433826804161072e-02 1.664219796657562256e-01 3.588663646951317787e-03 -1.765639930963516235e-01 -2.095974609255790710e-02 1.158637702465057373e-01 1.305380556732416153e-02 -1.077006608247756958e-01
-4.963248223066329956e-02 -4.681453481316566467e-02 7.911013811826705933e-02 1.891702413558959961e-01 4.173448309302330017e-02 -1.572497338056564331e-01 -6.927917152643203735e-02 1.380870789289474487e-01 4.533605277538299561e-02 -1.704623848199844360e-01
-4.862719401717185974e-02 -9.887379407882690430e-02 1.079553663730621338e-01 1.472539901733398438e-01 1.034498959779739380e-02 -1.058983653783798218e-01 -1.036414355039596558e-01 1.527318805456161499e-01 1.013646274805068970e-01 -1.626101434230804443e-01
-6.040834635496139526e-02 -1.399887651205062866e-01 7.456979155540466309e-02 5.642352998256683350e-02 8.102763444185256958e-03 -1.566356234252452850e-02 -6.976233422756195068e-02 1.990349739789962769e-01 1.408339291810989380e-01 -1.931420564651489258e-01
-5.619527772068977356e-02 -2.218383997678756714e-01 7.030016183853149414e-02 3.639696165919303894e-03 -6.241580098867416382e-02 9.749185293912887573e-02 -6.904258579015731812e-02 1.686835438013076782e-01 9.612665325403213501e-02 -2.674986049532890320e-02
2.307068556547164917e-02 -2.590539157390594482e-01 9.018549323081970215e-02 3.081900998950004578e-03 -4.244842007756233215e-02 6.783261895179748535e-02 -9.332885593175888062e-02 1.414440125226974487e-01 1.164927557110786438e-01 -4.727622494101524353e-02
1.979601755738258362e-02 -2.286298274993896484e-01 1.927793771028518677e-01 2.513964474201202393e-02 -1.509817093610763550e-01 1.145873516798019409e-01 -1.224012002348899841e-01 1.462798267602920532e-01 4.287344217300415039e-02 -3.944316878914833069e-02
1.654138788580894470e-02 -1.849800199270248413e-01 1.573588550090789795e-01 -2.439595572650432587e-02 -1.808067709207534790e-01 1.404014080762863159e-01 -1.338115781545639038e-01 2.408144921064376831e-01 -3.462320426478981972e-03 -2.765964344143867493e-02
5.695752054452896118e-02 -1.209390014410018921e-01 7.822127640247344971e-02 1.951187290251255035e-02 -2.319568544626235962e-01 3.159134089946746826e-02 -1.594395190477371216e-01 2.595247328281402588e-01 1.198216900229454041e-01 -5.329274386167526245e-02
4.756199941039085388e-02 -7.000624388456344604e-02 6.205423921346664429e-02 6.735698133707046509e-02 -2.358235865831375122e-01 -4.272038117051124573e-02 -1.967819333076477051e-01 1.484380066394805908e-01 9.512662887573242188e-02 1.247944384813308716e-01
1.110808402299880981e-01 -3.126848489046096802e-02 8.542868494987487793e-02 1.653660237789154053e-01 -4.264270961284637451e-01 -7.791087031364440918e-02 -2.026670128107070923e-01 1.591831892728805542e-01 -8.507118374109268188e-02 3.022863864898681641e-01
1.754250973463058472e-01 -4.098465666174888611e-03 8.935122191905975342e-02 1.927703768014907837e-01 -4.503290057182312012e-01 -1.380721032619476318e-01 -2.500615119934082031e-01 2.085798084735870361e-01 -5.920870974659919739e-02 2.356437891721725464e-01
2.836534976959228516e-01 -6.350659579038619995e-02 -1.186609175056219101e-02 1.360911130905151367e-01 -3.568419814109802246e-01 -8.612328767776489258e-02 -3.144089281558990479e-01 2.468208819627761841e-01 3.106243908405303955e-02 1.351189613342285156e-01
2.507379949092864990e-01 1.040566060692071915e-02 -6.854621320962905884e-02 1.216755136847496033e-01 -1.890267133712768555e-01 -3.142806515097618103e-02 -3.453798592090606689e-01 2.460165321826934814e-01 -3.529312461614608765e-02 4.083802178502082825e-02
1.844673752784729004e-01 -7.814195007085800171e-02 -7.334481924772262573e-02 1.632040590047836304e-01 -9.924335032701492310e-02 -3.447696194052696228e-02 -4.193007349967956543e-01 2.728857100009918213e-01 4.333233460783958435e-02 4.061834514141082764e-02
1.294558942317962646e-01 -7.434784621000289917e-02 1.498101279139518738e-02 1.118243411183357239e-01 -8.952212333679199219e-02 1.940305158495903015e-02 -3.840714395046234131e-01 1.771185249090194702e-01 1.046795547008514404e-01 -9.521175175905227661e-03
9.544864296913146973e-02 -9.160065650939941406e-02 -1.756589487195014954e-02 1.630976498126983643e-01 -6.475959718227386475e-02 6.735235452651977539e-02 -2.966258227825164795e-01 1.266919821500778198e-01 6.868579238653182983e-02 -5.072455853223800659e-02
6.446334719657897949e-02 -1.295306682586669922e-01 -1.178965903818607330e-02 1.032214015722274780e-01 -6.346736568957567215e-03 8.932907879352569580e-02 -2.534614801406860352e-01 3.811166808009147644e-02 1.199414357542991638e-01 -1.393858715891838074e-02
1.533129811286926270e-01 -1.548412144184112549e-01 -3.859288245439529419e-02 1.580978184938430786e-02 5.920228362083435059e-02 1.824331730604171753e-01 -2.573278248310089111e-01 4.929764941334724426e-02 1.455661356449127197e-01 -1.548600345849990845e-01
1.572303771972656250e-01 -1.859415918588638306e-01 -8.418610692024230957e-02 -2.104253023862838745e-01 7.295360416173934937e-02 4.728470742702484131e-01 -2.048837095499038696e-01 -1.913439109921455383e-02 1.981169283390045166e-01 -1.965771913528442383e-01
-3.824712336063385010e-02 -1.489523649215698242e-01 -1.347726732492446899e-01 -1.476461589336395264e-01 8.183780126273632050e-03 6.297883391380310059e-01 -1.222916096448898315e-01 -7.367539405822753906e-02 1.609258055686950684e-01 -1.333127170801162720e-01
-9.758006036281585693e-02 -6.657823175191879272e-02 -5.040778219699859619e-02 -3.769648075103759766e-02 -1.788517832756042480e-02 4.246657490730285645e-01 -6.080859899520874023e-02 -4.730426147580146790e-02 1.904136687517166138e-02 -6.544670462608337402e-02
-2.954796142876148224e-02 -7.496973033994436264e-03 -6.541782990097999573e-03 -3.292563138529658318e-03 -1.446419581770896912e-02 1.058909818530082703e-01 -2.535349316895008087e-02 -1.229060254991054535e-02 9.633962996304035187e-03 -1.653735153377056122e-02
-1.816863543353974819e-03 -1.003070850856602192e-03 -4.604457353707402945e-04 -4.333526885602623224e-05 -6.917123100720345974e-04 6.874344777315855026e-03 -1.065794494934380054e-03 -1.798472949303686619e-03 8.534320513717830181e-04 -8.480805554427206516e-04
-1.841878088271187153e-06 -1.189599970530252904e-06 -2.093036528094671667e-06 -2.576675615273416042e-05 -8.211652311729267240e-05 -1.427942606824217364e-05 -2.607409442134667188e-06 3.257232310716062784e-04 -7.390819519059732556e-06 -1.884376688394695520e-04
-1.264660531887784600e-04 -1.901477662613615394e-05 -1.606862788321450353e-04 -7.807680522091686726e-04 -4.929988645017147064e-03 -4.628437745850533247e-04 -3.251021917094476521e-05 1.500374730676412582e-02 -4.979366203770041466e-04 -7.993535138666629791e-03
-9.879907156573608518e-05 -9.957583388313651085e-04 1.698094187304377556e-03 4.962888080626726151e-03 -6.904469337314367294e-03 -4.704451654106378555e-03 -3.409724682569503784e-03 4.283256828784942627e-02 -7.438818924129009247e-03 -2.594151720404624939e-02
-7.044419180601835251e-03 -2.727651037275791168e-03 1.179081574082374573e-02 4.821642488241195679e-02 -3.545105084776878357e-02 -5.214050784707069397e-02 -2.194019407033920288e-02 1.228991225361824036e-01 -4.053864162415266037e-03 -5.954861268401145935e-02
-4.329970106482505798e-02 -1.761022210121154785e-02 4.984484985470771790e-02 1.571602523326873779e-01 -4.853062704205513000e-02 -1.468205302953720093e-01 -2.791033312678337097e-02 1.784123480319976807e-01 3.443979471921920776e-02 -1.356857270002365112e-01
-5.025544017553329468e-02 -6.283269822597503662e-02 1.136681437492370605e-01 1.252323985099792480e-01 -2.451853267848491669e-02 -1.427539139986038208e-01 -8.882305026054382324e-02 1.459758281707763672e-01 8.542316406965255737e-02 -1.011158153414726257e-01
-4.637144505977630615e-02 -9.654615819454193115e-02 5.191846936941146851e-02 7.529538869857788086e-02 -6.775427609682083130e-02 -5.234219878911972046e-02 -9.225038439035415649e-02 1.009743064641952515e-01 1.423181593418121338e-01 -1.524197217077016830e-02
-6.380480527877807617e-02 -1.170505285263061523e-01 6.444051396101713181e-04 -2.000151434913277626e-03 -3.902708739042282104e-02 5.252072960138320923e-02 -3.738881275057792664e-02 7.633673399686813354e-02 1.665319949388504028e-01 -3.676237910985946655e-02
-5.396946519613265991e-02 -1.767821013927459717e-01 -1.161962375044822693e-02 -7.350943982601165771e-02 -4.404348134994506836e-02 1.627851277589797974e-01 -3.861412778496742249e-02 6.396263837814331055e-02 1.487036496400833130e-01 2.308701537549495697e-02
3.738791914656758308e-03 -2.233864963054656982e-01 6.300672888755798340e-02 -1.067431718111038208e-01 -1.532894931733608246e-02 1.270912885665893555e-01 -8.172637224197387695e-02 4.383161291480064392e-02 1.707220971584320068e-01 1.879436708986759186e-02
3.288532048463821411e-02 -1.999345272779464722e-01 1.541254371404647827e-01 -1.997913271188735962e-01 -9.628222137689590454e-02 1.725157499313354492e-01 -1.056105419993400574e-01 4.425381869077682495e-02 1.334500461816787720e-01 6.438814848661422729e-02
-1.332426629960536957e-02 -1.250260770320892334e-01 1.051696911454200745e-01 -3.103979527950286865e-01 -1.121697723865509033e-01 2.872144281864166260e-01 -1.039771139621734619e-01 1.236874237656593323e-01 1.068648174405097961e-01 4.195891320705413818e-02
2.673603780567646027e-02 -6.781642138957977295e-02 6.480245292186737061e-02 -2.564764916896820068e-01 -7.773460447788238525e-02 1.819178313016891479e-01 -1.592468023300170898e-01 1.777475923299789429e-01 7.118413597345352173e-02 3.888644650578498840e-02
9.360420703887939453e-02 5.613571032881736755e-02 6.652204692363739014e-02 -1.055447906255722046e-01 -1.888630837202072144e-01 4.126014560461044312e-02 -1.953619271516799927e-01 1.562159955501556396e-01 1.742521114647388458e-02 5.860653892159461975e-02
7.158628851175308228e-02 1.977904438972473145e-01 1.036384031176567078e-01 1.523408293724060059e-01 -5.046207308769226074e-01 -1.157857105135917664e-01 -1.345708221197128296e-01 2.640029191970825195e-01 -1.696127355098724365e-01 1.352309435606002808e-01
5.245770514011383057e-02 2.856124639511108398e-01 1.365503221750259399e-01 2.623206079006195068e-01 -3.955009877681732178e-01 -2.244737446308135986e-01 -2.703698575496673584e-01 3.222078382968902588e-01 -2.793084383010864258e-01 1.105039939284324646e-01
1.465257853269577026e-01 1.295457482337951660e-01 9.909353405237197876e-02 2.181014716625213623e-01 -1.179875060915946960e-01 -2.486897557973861694e-01 -3.922961354255676270e-01 3.556694984436035156e-01 -1.554673761129379272e-01 -3.449526801705360413e-02
2.192798554897308350e-01 2.072871662676334381e-02 1.818570774048566818e-03 1.634518653154373169e-01 -6.728779524564743042e-03 -1.852578967809677124e-01 -4.733100235462188721e-01 3.326601684093475342e-01 -5.338492244482040405e-02 -1.925722695887088776e-02
2.163807749748229980e-01 -8.820971846580505371e-02 4.422510415315628052e-02 1.155200228095054626e-01 -1.369314547628164291e-02 -1.306989789009094238e-01 -4.800974428653717041e-01 2.501097917556762695e-01 3.712711855769157410e-02 4.933602735400199890e-02
1.942867040634155273e-01 -1.684153378009796143e-01 1.246047671884298325e-02 1.375230699777603149e-01 -4.488255456089973450e-02 -6.391856074333190918e-02 -4.202981591224670410e-01 2.448149770498275757e-01 1.059656888246536255e-01 2.463873708620667458e-03
1.149265617132186890e-01 -2.102849632501602173e-01 -3.208134695887565613e-02 2.282360345125198364e-01 -4.394469410181045532e-02 2.546278946101665497e-02 -3.125303983688354492e-01 1.371800452470779419e-01 8.041574060916900635e-02 1.262035127729177475e-02
3.451459854841232300e-02 -2.232521325349807739e-01 -3.476059809327125549e-02 1.688988208770751953e-01 -3.515184298157691956e-02 1.604736298322677612e-01 -2.535103857517242432e-01 1.500467211008071899e-01 1.043016910552978516e-01 -7.156080752611160278e-02
1.339875161647796631e-01 -2.384341359138488770e-01 -1.292393263429403305e-02 6.646944582462310791e-02 -4.468363523483276367e-02 2.942664921283721924e-01 -2.646793723106384277e-01 6.715513020753860474e-02 1.361668705940246582e-01 -1.373241990804672241e-01
2.231398671865463257e-01 -2.139004170894622803e-01 -8.758708089590072632e-02 -1.320153325796127319e-01 -6.334762275218963623e-02 5.401062369346618652e-01 -1.841214001178741455e-01 -6.450594961643218994e-02 1.630762517452239990e-01 -1.808445304632186890e-01
3.519250452518463135e-02 -1.385433971881866455e-01 -1.319790333509445190e-01 -1.176274344325065613e-01 -1.289512068033218384e-01 7.501416206359863281e-01 -1.444344818592071533e-01 -7.287189364433288574e-02 7.079461216926574707e-02 -1.217206418514251709e-01
-9.477287530899047852e-02 -5.938703566789627075e-02 -4.609870910644531250e-02 -2.821183949708938599e-02 -8.936846256256103516e-02 5.336251854896545410e-01 -1.050419211387634277e-01 -3.683552891016006470e-02 -1.409981958568096161e-02 -5.980903655290603638e-02
-2.688714116811752319e-02 -7.385318633168935776e-03 -5.515065509825944901e-03 -4.738807212561368942e-03 -2.540676295757293701e-02 1.128779277205467224e-01 -3.597744926810264587e-02 -6.076229270547628403e-03 1.580134406685829163e-02 -1.669246517121791840e-02
-6.535392021760344505e-04 -7.994472980499267578e-04 -4.602150293067097664e-04 -1.529853907413780689e-04 -2.106335246935486794e-03 7.989563047885894775e-03 -2.170397667214274406e-03 7.097823079675436020e-03 -7.365171331912279129e-03 -1.379297347739338875e-03
-2.942625087598571554e-06 -1.402461066390969791e-06 -3.768923761526821181e-06 -3.733700577868148685e-05 -9.624237281968817115e-05 -1.809487730497494340e-05 -3.040607225557323545e-06 4.756160196848213673e-04 -1.009809693641727790e-05 -3.026889171451330185e-04
-5.769201670773327351e-04 -3.676896812976337969e-05 -1.182509440695866942e-04 -1.306531019508838654e-03 -5.322816781699657440e-03 -8.608122589066624641e-04 -1.095357147278264165e-04 1.890430599451065063e-02 -4.926733672618865967e-04 -1.007999479770660400e-02
2.855818020179867744e-03 -5.176310660317540169e-04 1.121385575970634818e-04 2.070873044431209564e-03 -1.456056442111730576e-02 -4.318600986152887344e-03 -6.839856971055269241e-03 6.181129068136215210e-02 -6.921527907252311707e-03 -3.369198739528656006e-02
-1.202133484184741974e-02 -5.745621863752603531e-03 1.179810054600238800e-02 6.044877693057060242e-02 -4.719204083085060120e-02 -3.998928144574165344e-02 -2.185788191854953766e-02 1.302748024463653564e-01 -1.701742969453334808e-02 -5.869796127080917358e-02
-4.480405896902084351e-02 -1.445419434458017349e-02 -4.321086686104536057e-03 7.188746333122253418e-02 -5.426062643527984619e-02 -7.234934717416763306e-02 -3.989839926362037659e-02 1.932757943868637085e-01 6.276144832372665405e-02 -9.783715754747390747e-02
-4.073017463088035583e-02 -5.546282604336738586e-02 4.179183021187782288e-02 1.375455642119050026e-03 -6.455533206462860107e-02 -6.191371381282806396e-02 -7.482486963272094727e-02 1.594616323709487915e-01 9.854531288146972656e-02 -3.687378950417041779e-03
-4.596880823373794556e-02 -1.032008528709411621e-01 2.059617824852466583e-02 -8.271267265081405640e-02 -9.264677762985229492e-02 5.440712347626686096e-02 -6.249724701046943665e-02 6.224697828292846680e-02 1.531302332878112793e-01 9.664598107337951660e-02
-4.069841280579566956e-02 -1.158354282379150391e-01 -1.195151731371879578e-01 -1.842090040445327759e-01 -1.517124939709901810e-02 1.551772803068161011e-01 2.565620234236121178e-03 3.743363171815872192e-02 2.071709483861923218e-01 7.308184355497360229e-02
-4.392480850219726562e-02 -1.403899937868118286e-01 -1.244363039731979370e-01 -3.012443184852600098e-01 3.404166921973228455e-02 2.467590719461441040e-01 1.885012350976467133e-02 -5.303601548075675964e-02 1.984016448259353638e-01 1.649792790412902832e-01
1.718739978969097137e-03 -1.900545507669448853e-01 -1.356989443302154541e-01 -3.617510497570037842e-01 1.261661648750305176e-01 2.535797655582427979e-01 -2.571351453661918640e-02 1.822168380022048950e-02 2.209726721048355103e-01 9.255906939506530762e-02
-2.475525438785552979e-02 -1.473382413387298584e-01 -1.008403301239013672e-01 -4.192520678043365479e-01 4.804983735084533691e-02 2.389695644378662109e-01 -9.938564151525497437e-03 5.310659110546112061e-02 2.203809916973114014e-01 1.416178196668624878e-01
5.946001969277858734e-03 -6.888423115015029907e-02 -1.467115879058837891e-01 -4.685823321342468262e-01 4.247662797570228577e-02 3.015223741531372070e-01 -5.912256985902786255e-02 2.767623215913772583e-02 1.601302176713943481e-01 2.055493146181106567e-01
4.196320474147796631e-02 -3.172925440594553947e-03 -2.208804786205291748e-01 -3.794853389263153076e-01 1.309818029403686523e-01 3.058384060859680176e-01 -1.104449182748794556e-01 1.759822247549891472e-03 1.376084089279174805e-01 9.583213925361633301e-02
4.642780497670173645e-02 1.700408458709716797e-01 -2.711555063724517822e-01 -2.797433547675609589e-02 -2.101967185735702515e-01 2.228912562131881714e-01 -5.201295763254165649e-02 1.517220586538314819e-01 5.490346997976303101e-02 -8.464563637971878052e-02
-3.818508610129356384e-02 4.245618581771850586e-01 -1.192412003874778748e-01 2.035610824823379517e-01 -5.491150021553039551e-01 7.985127717256546021e-02 -1.551693379878997803e-01 2.834762930870056152e-01 -6.427742540836334229e-02 -6.546244025230407715e-02
-1.310235261917114258e-01 4.971098899841308594e-01 -8.568908274173736572e-02 2.237741798162460327e-01 -2.273400276899337769e-01 -5.853800475597381592e-02 -3.355466723442077637e-01 4.060713052749633789e-01 -2.061568498611450195e-01 -8.266130089759826660e-02
-5.879340320825576782e-02 1.949764937162399292e-01 -2.537026628851890564e-02 2.190369814634323120e-01 2.600920572876930237e-02 -1.574972420930862427e-01 -3.885408341884613037e-01 4.605873823165893555e-01 -2.510218024253845215e-01 -1.938657648861408234e-02
1.275528371334075928e-01 1.117007224820554256e-03 1.117097586393356323e-02 1.679355949163436890e-01 7.545340806245803833e-02 -2.413512021303176880e-01 -4.041570723056793213e-01 3.449830710887908936e-01 -1.364983320236206055e-01 5.379403382539749146e-02
1.874335259199142456e-01 -1.529604643583297729e-01 5.737194046378135681e-02 1.376163214445114136e-01 -3.666593879461288452e-02 -2.513374388217926025e-01 -3.865064680576324463e-01 2.936311364173889160e-01 7.542951405048370361e-02 7.598872482776641846e-02
1.742421239614486694e-01 -1.977215111255645752e-01 2.130812034010887146e-03 1.830833107233047485e-01 -2.832970209419727325e-02 -2.121146023273468018e-01 -3.365760743618011475e-01 2.581659555435180664e-01 1.166414469480514526e-01 4.047811403870582581e-02
1.322865337133407593e-01 -2.418783009052276611e-01 -3.020875900983810425e-02 2.439357042312622070e-01 -1.129789203405380249e-01 -1.083612814545631409e-01 -2.268189042806625366e-01 2.256022840738296509e-01 3.828058391809463501e-02 8.014110475778579712e-02
9.497071057558059692e-02 -2.232865393161773682e-01 -3.919320181012153625e-02 1.107726320624351501e-01 -1.024333685636520386e-01 8.072644472122192383e-03 -1.731658726930618286e-01 2.210425436496734619e-01 8.787404000759124756e-02 1.534629706293344498e-02
1.976502537727355957e-01 -1.967661678791046143e-01 -3.265757858753204346e-02 -6.009428761899471283e-03 -1.221160888671875000e-01 1.022468060255050659e-01 -1.496919840574264526e-01 9.489208459854125977e-02 1.647737622261047363e-01 -5.232223123311996460e-02
2.871592342853546143e-01 -1.644585132598876953e-01 -8.968510478734970093e-02 -8.198236674070358276e-02 -1.959710270166397095e-01 3.271248042583465576e-01 -7.507921755313873291e-02 -8.040125668048858643e-02 1.727908104658126831e-01 -9.949738532304763794e-02
1.024847701191902161e-01 -1.122259050607681274e-01 -9.095339477062225342e-02 -7.509482651948928833e-02 -1.666994839906692505e-01 5.929352641105651855e-01 -1.103116944432258606e-01 -7.188431173563003540e-02 4.832283779978752136e-02 -1.165729090571403503e-01
-7.515658438205718994e-02 -3.747799620032310486e-02 -2.625527791678905487e-02 -1.396784372627735138e-02 -9.921179711818695068e-02 4.907774031162261963e-01 -1.189814284443855286e-01 -2.708221599459648132e-02 -3.796470537781715393e-02 -5.467946454882621765e-02
-2.630039490759372711e-02 -7.548158057034015656e-03 -6.260543013922870159e-04 -2.444588346406817436e-03 -2.721993066370487213e-02 1.209614947438240051e-01 -3.670757636427879333e-02 -6.543122231960296631e-03 1.715611317194998264e-03 -1.528723631054162979e-02
-3.856668481603264809e-04 1.239495031768456101e-04 -2.714400179684162140e-04 -5.820629303343594074e-05 -5.712388665415346622e-04 5.568796768784523010e-03 -4.578944295644760132e-03 7.445283117704093456e-04 1.491294358856976032e-03 -2.063072286546230316e-03
-5.030075499234953895e-06 -8.759486718190601096e-07 -3.593197561713168398e-06 -2.895664874813519418e-05 -1.590890315128490329e-05 -2.082358696497976780e-05 -5.185350460124027450e-07 3.768749593291431665e-04 -1.448246985091827810e-05 -2.866853028535842896e-04
5.206037894822657108e-04 2.991007204400375485e-05 -2.204876509495079517e-04 -1.746023190207779408e-03 -7.432355545461177826e-03 -2.391153946518898010e-03 -2.626633504405617714e-04 2.654174342751502991e-02 -6.755739450454711914e-04 -1.436399668455123901e-02
-3.236239310353994370e-03 -1.546158891869708896e-04 -1.268749823793768883e-03 1.033860840834677219e-03 -3.442310169339179993e-02 -6.216067355126142502e-03 -1.235062838532030582e-03 9.742168337106704712e-02 -5.098814610391855240e-03 -4.682289063930511475e-02
-1.409597694873809814e-02 -2.537658670917153358e-03 -5.008630454540252686e-03 4.398148879408836365e-02 -4.497899115085601807e-02 -3.563793748617172241e-02 -2.027290500700473785e-02 1.511204838752746582e-01 -1.059098448604345322e-02 -6.197889894247055054e-02
-7.566574215888977051e-02 -5.150883458554744720e-03 -4.756715893745422363e-02 1.953140087425708771e-02 -7.970947772264480591e-02 -2.970666997134685516e-02 -3.368239849805831909e-02 2.113206386566162109e-01 4.098716005682945251e-02 -3.567088861018419266e-04
-5.513013154268264771e-02 -3.321106731891632080e-02 -9.421420097351074219e-02 -9.833267331123352051e-02 -6.530181318521499634e-02 9.450489655137062073e-03 -2.597455680370330811e-02 1.229035481810569763e-01 1.380057483911514282e-01 1.018048599362373352e-01
-4.801794886589050293e-03 -8.687225729227066040e-02 -2.062221765518188477e-01 -2.301217913627624512e-01 -1.926060020923614502e-02 1.481396555900573730e-01 -1.613457128405570984e-02 3.903881832957267761e-02 1.955414563417434692e-01 1.806931346654891968e-01
1.984949596226215363e-02 -1.106363758444786072e-01 -3.272476792335510254e-01 -3.585270047187805176e-01 6.730319559574127197e-02 1.722240895032882690e-01 6.444685906171798706e-02 5.398192629218101501e-02 2.557264268398284912e-01 1.628793776035308838e-01
-1.142826676368713379e-02 -1.339185535907745361e-01 -3.314956426620483398e-01 -4.251465797424316406e-01 1.607201397418975830e-01 1.946419179439544678e-01 4.816442728042602539e-02 -1.715157739818096161e-02 2.431944757699966431e-01 2.724195420742034912e-01
-4.190579801797866821e-02 -1.868955343961715698e-01 -3.569497764110565186e-01 -3.728011846542358398e-01 2.246092706918716431e-01 1.734169870615005493e-01 7.751691341400146484e-02 6.891354918479919434e-02 2.645757794380187988e-01 1.495199352502822876e-01
-2.019568160176277161e-02 -1.761957257986068726e-01 -4.622820615768432617e-01 -3.045701682567596436e-01 2.455748170614242554e-01 1.698433160781860352e-01 5.498480424284934998e-02 9.174912422895431519e-02 1.899864673614501953e-01 2.111044526100158691e-01
5.543738370761275291e-04 -1.438125520944595337e-01 -5.032703876495361328e-01 -2.175287306308746338e-01 2.490444183349609375e-01 2.361962646245956421e-01 1.027065236121416092e-02 6.144903227686882019e-02 1.204990148544311523e-01 1.865980178117752075e-01
-1.776926405727863312e-02 -4.565420746803283691e-02 -5.638011693954467773e-01 -1.052244082093238831e-01 2.474709153175354004e-01 3.281475007534027100e-01 8.000264316797256470e-02 -4.705230519175529480e-02 1.828361451625823975e-01 -5.895481631159782410e-02
-5.338062718510627747e-02 1.957982182502746582e-01 -5.802183151245117188e-01 1.235556900501251221e-01 -3.125724196434020996e-01 3.596403002738952637e-01 6.956006586551666260e-02 2.738788351416587830e-02 2.824828326702117920e-01 -1.122529283165931702e-01
-2.635058462619781494e-01 5.616424679756164551e-01 -4.079023003578186035e-01 1.885540187358856201e-01 -4.884998500347137451e-01 1.317951083183288574e-01 -1.735160648822784424e-01 1.834582835435867310e-01 2.922087609767913818e-01 -2.423355169594287872e-02
-3.936917185783386230e-01 5.673294663429260254e-01 -3.030329942703247070e-01 1.959336251020431519e-01 -4.505509976297616959e-03 -8.359783887863159180e-02 -3.581910431385040283e-01 3.350012302398681641e-01 -1.531939581036567688e-02 6.007342413067817688e-02
-3.461820185184478760e-01 1.702052205801010132e-01 -1.532517969608306885e-01 1.133273541927337646e-01 2.699731886386871338e-01 -1.691250801086425781e-01 -2.783927619457244873e-01 3.670387566089630127e-01 -1.445543766021728516e-01 1.709618866443634033e-01
-9.665378928184509277e-02 -4.825450852513313293e-02 -1.432181000709533691e-01 1.440593153238296509e-01 1.359952986240386963e-01 -2.345652580261230469e-01 -2.637553215026855469e-01 3.109180033206939697e-01 -1.036657243967056274e-01 2.991401553153991699e-01
2.438915334641933441e-02 -1.070046126842498779e-01 -5.884015187621116638e-02 1.568964719772338867e-01 -2.821709029376506805e-02 -2.809349894523620605e-01 -2.168207913637161255e-01 3.037029802799224854e-01 -2.678653411567211151e-02 2.336161285638809204e-01
1.279273182153701782e-01 -1.657280176877975464e-01 4.528665542602539062e-02 1.612969338893890381e-01 -7.699380069971084595e-02 -3.966723084449768066e-01 -1.918219774961471558e-01 1.960773617029190063e-01 4.705965146422386169e-02 2.535685002803802490e-01
1.370704770088195801e-01 -1.706137657165527344e-01 -2.717890776693820953e-02 1.556472182273864746e-01 -1.075388863682746887e-01 -4.538265764713287354e-01 -1.061677634716033936e-01 1.845376938581466675e-01 5.454523116350173950e-02 3.335253596305847168e-01
1.699176132678985596e-01 -1.419806927442550659e-01 -1.577407866716384888e-02 -3.979944810271263123e-02 -9.846349805593490601e-02 -3.999339938163757324e-01 3.245849628001451492e-03 1.550543606281280518e-01 1.474540680646896362e-01 2.202797085046768188e-01
2.508945763111114502e-01 -1.074827536940574646e-01 -6.532148271799087524e-02 -8.651316910982131958e-02 -1.302432566881179810e-01 -3.498140275478363037e-01 5.528023838996887207e-02 8.509101718664169312e-02 2.465525567531585693e-01 1.015563756227493286e-01
2.914808094501495361e-01 -7.756570726633071899e-02 -9.562548995018005371e-02 -8.771612495183944702e-02 -1.649262160062789917e-01 -1.300053447484970093e-01 1.174094751477241516e-01 -6.025432422757148743e-02 2.472317516803741455e-01 -4.002841189503669739e-02
1.631635129451751709e-01 -5.177200958132743835e-02 -4.739738255739212036e-02 -5.385188013315200806e-02 -1.246790364384651184e-01 1.031289249658584595e-01 -1.132466178387403488e-02 -5.395407602190971375e-02 1.574236601591110229e-01 -8.073680847883224487e-02
-3.461718931794166565e-02 -2.451844885945320129e-02 1.153089478611946106e-02 -3.463414497673511505e-03 -5.308514460921287537e-02 2.117756158113479614e-01 -8.296423405408859253e-02 -2.137420885264873505e-02 3.627728298306465149e-02 -3.956114128232002258e-02
-1.525141019374132156e-02 -6.344065535813570023e-03 3.341484582051634789e-03 -8.962380234152078629e-04 -6.977304816246032715e-03 6.011499091982841492e-02 -4.173107072710990906e-02 -7.253681309521198273e-03 2.702720649540424347e-02 -1.202991325408220291e-02
-2.160536678275093436e-04 5.010676104575395584e-04 -5.019223681301809847e-05 -1.765551496646367013e-05 -2.878395607694983482e-04 2.651208546012639999e-03 -2.851377939805388451e-03 -9.509776136837899685e-04 2.133599948137998581e-03 -9.117796435020864010e-04
-8.396287398682034109e-07 -2.255676889717506128e-08 -1.566775949868315365e-06 -1.202170460601337254e-05 -1.247665636583406013e-06 -4.510889084485825151e-06 -1.035846430852416233e-08 5.338736809790134430e-04 -5.601224984275177121e-06 -5.080526461824774742e-04
-3.300723037682473660e-04 -4.941750739817507565e-05 -5.233099363977089524e-05 -2.250893041491508484e-03 -7.577198091894388199e-03 -2.080675214529037476e-03 -4.303438181523233652e-04 2.292136661708354950e-02 -4.057921178173273802e-04 -9.744643233716487885e-03
-3.458056133240461349e-03 -3.172854194417595863e-04 -4.247047472745180130e-04 -6.061682477593421936e-03 -3.253677487373352051e-02 -5.489719100296497345e-03 -1.151537057012319565e-03 9.522520750761032104e-02 -2.959836507216095924e-03 -4.282557591795921326e-02
-1.577964797616004944e-02 2.094424096867442131e-03 -2.138607203960418701e-02 -2.051631221547722816e-03 -6.542376428842544556e-02 -1.359045971184968948e-02 -1.615649275481700897e-02 1.710975617170333862e-01 3.615949768573045731e-03 -4.241987690329551697e-02
-7.276394218206405640e-02 1.654872467042878270e-04 -7.916182279586791992e-02 -2.951054275035858154e-02 -1.048071980476379395e-01 4.361661616712808609e-03 -3.961441665887832642e-02 2.174027711153030396e-01 1.876691170036792755e-02 8.516135066747665405e-02
-1.200583018362522125e-02 -2.749998494982719421e-02 -2.469885796308517456e-01 -1.500653475522994995e-01 -4.534235969185829163e-02 5.017025396227836609e-02 -1.303970906883478165e-02 1.280542016029357910e-01 1.220278069376945496e-01 1.946893781423568726e-01
7.793416827917098999e-02 -5.810043215751647949e-02 -4.508776366710662842e-01 -2.813323736190795898e-01 9.061710536479949951e-02 1.478008776903152466e-01 6.877734512090682983e-02 3.717677667737007141e-02 1.367931514978408813e-01 2.312107533216476440e-01
6.961336731910705566e-02 -8.257927745580673218e-02 -5.302016139030456543e-01 -3.615646362304687500e-01 2.105577141046524048e-01 1.606529355049133301e-01 1.051802709698677063e-01 1.066404804587364197e-01 1.337958127260208130e-01 1.879054009914398193e-01
1.626978814601898193e-02 -1.179654449224472046e-01 -4.207829535007476807e-01 -3.398704528808593750e-01 2.839444577693939209e-01 1.149280071258544922e-01 9.449151903390884399e-02 1.087738424539566040e-01 9.928605705499649048e-02 1.609255969524383545e-01
1.220498350448906422e-03 -1.571773886680603027e-01 -4.325751960277557373e-01 -1.830248832702636719e-01 2.543228268623352051e-01 4.614677280187606812e-02 1.211164817214012146e-01 2.904525399208068848e-02 1.019767969846725464e-01 2.189483791589736938e-01
3.545555844902992249e-02 -2.418067455291748047e-01 -4.942862391471862793e-01 -5.215942114591598511e-02 3.793663382530212402e-01 1.772967278957366943e-01 6.161914765834808350e-02 -5.187313258647918701e-02 4.582736641168594360e-03 1.818050146102905273e-01
4.328797385096549988e-02 -2.984072268009185791e-01 -4.930968880653381348e-01 -5.539738759398460388e-02 4.750824868679046631e-01 3.237864971160888672e-01 1.631032973527908325e-01 -1.588713377714157104e-01 -1.805214397609233856e-02 1.856465637683868408e-02
4.115648940205574036e-02 -8.649920672178268433e-02 -4.867447614669799805e-01 4.711707308888435364e-02 3.858709335327148438e-01 3.568170070648193359e-01 1.669498831033706665e-01 -3.768909573554992676e-01 1.169758588075637817e-01 -1.647529155015945435e-01
-1.411776691675186157e-01 2.197651416063308716e-01 -4.457218647003173828e-01 1.305520385503768921e-01 -1.166907995939254761e-01 3.092608451843261719e-01 7.560889422893524170e-02 -4.281183183193206787e-01 3.858852088451385498e-01 1.063694059848785400e-02
-4.317207634449005127e-01 6.908218860626220703e-01 -3.784042596817016602e-01 2.658356428146362305e-01 -2.893292307853698730e-01 2.387236990034580231e-02 -1.681388318538665771e-01 -1.656443327665328979e-01 2.703233063220977783e-01 1.823844760656356812e-01
-5.335355997085571289e-01 5.029796957969665527e-01 -3.261117637157440186e-01 1.464264690876007080e-01 1.134223714470863342e-01 -1.434199512004852295e-01 -2.106078714132308960e-01 1.457076668739318848e-01 7.125595957040786743e-02 2.338823974132537842e-01
-4.628621637821197510e-01 9.164404124021530151e-02 -2.559483647346496582e-01 8.191245794296264648e-02 3.211783170700073242e-01 -2.969892919063568115e-01 -8.568920195102691650e-02 3.175354003906250000e-01 1.597900688648223877e-02 2.732397019863128662e-01
-2.183796912431716919e-01 -8.714124560356140137e-03 -1.971863657236099243e-01 7.140580564737319946e-02 1.559534817934036255e-01 -2.802191376686096191e-01 -8.893159031867980957e-02 2.626469135284423828e-01 -3.172266110777854919e-02 3.351475298404693604e-01
-3.996362164616584778e-02 -9.918455034494400024e-02 -1.204666718840599060e-01 1.077951639890670776e-01 2.614601701498031616e-02 -2.440149039030075073e-01 -1.266655921936035156e-01 2.124790102243423462e-01 -4.409568756818771362e-02 3.279708325862884521e-01
3.862772509455680847e-02 -1.479890793561935425e-01 3.616629540920257568e-02 -3.016896080225706100e-04 2.882989682257175446e-02 -3.157612681388854980e-01 -1.685946583747863770e-01 6.005572900176048279e-02 9.281568229198455811e-02 3.761510550975799561e-01
3.254887461662292480e-02 -1.170184686779975891e-01 -1.807499863207340240e-02 -9.035015851259231567e-02 1.582912355661392212e-02 -3.988492786884307861e-01 -5.336870625615119934e-02 7.412286102771759033e-02 1.807303577661514282e-01 3.744300901889801025e-01
1.433528661727905273e-01 -7.745537906885147095e-02 -2.884159423410892487e-02 -1.980386972427368164e-01 2.830440178513526917e-02 -5.177127122879028320e-01 8.119573444128036499e-02 3.453496098518371582e-02 2.501220405101776123e-01 2.845382988452911377e-01
2.974463999271392822e-01 -5.896361172199249268e-02 -1.032541096210479736e-01 -1.549681723117828369e-01 -3.430393338203430176e-02 -5.485048890113830566e-01 2.009974718093872070e-01 2.144659310579299927e-02 2.204369157552719116e-01 1.596675068140029907e-01
3.261686563491821289e-01 -3.594442829489707947e-02 -1.542992293834686279e-01 -9.918703883886337280e-02 -8.885982632637023926e-02 -4.161032140254974365e-01 2.808435559272766113e-01 -3.232688456773757935e-02 2.066710889339447021e-01 1.303748600184917450e-02
2.162797898054122925e-01 -2.621866948902606964e-02 2.468123857397586107e-04 -4.006962105631828308e-02 -4.996069148182868958e-02 -2.394099831581115723e-01 1.141104847192764282e-01 -2.786488458514213562e-02 1.314752995967864990e-01 -7.858832180500030518e-02
-2.024539746344089508e-03 -1.266896259039640427e-02 5.896174535155296326e-02 -1.598894596099853516e-04 -1.076453644782304764e-02 4.469215404242277145e-03 -4.508012905716896057e-02 3.639746690168976784e-03 3.831852227449417114e-02 -3.469118103384971619e-02
-8.686716668307781219e-03 -4.945747554302215576e-03 3.108696267008781433e-02 -1.851507549872621894e-04 -4.264560062438249588e-03 2.453967556357383728e-02 -3.868515416979789734e-02 4.050704650580883026e-03 9.696928784251213074e-03 -1.260694302618503571e-02
-3.679136352729983628e-05 2.803941024467349052e-04 2.709182910621166229e-03 -2.219352245447225869e-05 -1.960007240995764732e-03 -2.423382829874753952e-04 -1.716288155876100063e-03 2.574113430455327034e-03 -1.279634307138621807e-03 -3.064373158849775791e-04
-9.252266508497086761e-09 1.792515104170888662e-05 -2.668338311195839196e-06 -6.796019079047255218e-06 -1.482208205061397166e-07 -4.536348967576486757e-07 -6.897729463162249885e-07 -2.008556975852116011e-06 -2.651941940712276846e-06 -2.499458105376106687e-06
4.706395848188549280e-04 -1.278324089071247727e-05 -4.657978570321574807e-05 -1.396383973769843578e-03 -6.249655038118362427e-03 -8.204605546779930592e-04 -4.211266932543367147e-04 1.318763568997383118e-02 -1.201045743073336780e-04 -4.591180477291345596e-03
-1.489613670855760574e-03 -4.102455568499863148e-05 -1.336870191153138876e-04 -3.452249802649021149e-03 -1.900943927466869354e-02 -2.245423384010791779e-03 -3.057808207813650370e-04 5.652356892824172974e-02 -8.409867295995354652e-04 -2.900536917150020599e-02
-1.096431352198123932e-02 2.611491829156875610e-03 -2.594880573451519012e-02 -6.396451499313116074e-03 -5.030658841133117676e-02 1.647635828703641891e-03 -1.307585835456848145e-02 1.215406581759452820e-01 1.381290960125625134e-03 -2.048905752599239349e-02
-4.191435500979423523e-02 -7.469885167665779591e-04 -1.232881993055343628e-01 -5.867992341518402100e-02 -4.339863732457160950e-02 2.633344382047653198e-02 -4.748012870550155640e-02 1.468524634838104248e-01 -1.362547557801008224e-02 1.559480279684066772e-01
2.858554944396018982e-02 -2.275158464908599854e-02 -3.385322690010070801e-01 -1.489727944135665894e-01 8.318039029836654663e-02 6.817510724067687988e-02 2.143456041812896729e-02 9.516644477844238281e-02 5.044598132371902466e-03 2.086701691150665283e-01
1.387401074171066284e-01 -4.905980825424194336e-02 -5.025928616523742676e-01 -2.567499876022338867e-01 2.321652621030807495e-01 7.546387612819671631e-02 1.322297602891921997e-01 4.958534613251686096e-02 -7.383087649941444397e-03 1.876018941402435303e-01
1.956502050161361694e-01 -7.436349987983703613e-02 -4.957099556922912598e-01 -3.173096776008605957e-01 2.995744049549102783e-01 1.457694172859191895e-01 9.271611273288726807e-02 4.551826417446136475e-02 -5.810192972421646118e-02 1.662559211254119873e-01
1.078019514679908752e-01 -8.205084502696990967e-02 -3.452796041965484619e-01 -2.264018654823303223e-01 3.016531467437744141e-01 7.561677694320678711e-02 1.110147014260292053e-01 5.531076341867446899e-03 -8.321219682693481445e-02 1.353271156549453735e-01
8.420314639806747437e-02 -1.627899706363677979e-01 -2.893675863742828369e-01 -1.175317540764808655e-01 2.854450941085815430e-01 9.677383303642272949e-02 1.321926563978195190e-01 -7.172947376966476440e-02 -4.533740133047103882e-02 8.814227581024169922e-02
1.226288676261901855e-01 -3.452714383602142334e-01 -2.297635525465011597e-01 -1.320544183254241943e-01 4.146864712238311768e-01 2.118709236383438110e-01 1.384618133306503296e-01 -1.562305539846420288e-01 -7.574313133955001831e-02 5.141550675034523010e-02
8.877408504486083984e-02 -4.098556637763977051e-01 -1.384056061506271362e-01 -9.378753602504730225e-02 5.436602830886840820e-01 2.822143137454986572e-01 1.608898192644119263e-01 -4.018452167510986328e-01 6.153118237853050232e-02 -9.317633509635925293e-02
-3.217590972781181335e-03 -1.637655794620513916e-01 -1.299642771482467651e-01 6.699981540441513062e-02 2.933119237422943115e-01 3.388539850711822510e-01 1.422167271375656128e-01 -6.433099508285522461e-01 2.224735319614410400e-01 -1.235986649990081787e-01
-3.128024041652679443e-01 2.932269275188446045e-01 -4.595310986042022705e-02 2.159944325685501099e-01 -7.766838371753692627e-02 2.188375443220138550e-01 -3.243163973093032837e-02 -6.800736188888549805e-01 3.381942808628082275e-01 8.267637342214584351e-02
-5.096177458763122559e-01 6.410368084907531738e-01 -8.651472628116607666e-02 1.776564866304397583e-01 -8.922196179628372192e-02 -3.271544585004448891e-03 -1.358542889356613159e-01 -3.079547882080078125e-01 1.019204705953598022e-01 2.118222862482070923e-01
-5.656815767288208008e-01 4.188662767410278320e-01 -2.110977321863174438e-01 -1.100232079625129700e-02 1.780279278755187988e-01 -2.295528352260589600e-01 6.947636138647794724e-03 1.822448521852493286e-02 1.758722960948944092e-01 2.193972617387771606e-01
-4.819303452968597412e-01 6.650444120168685913e-02 -2.353484779596328735e-01 6.169078499078750610e-02 2.832138836383819580e-01 -3.350020051002502441e-01 4.592311382293701172e-02 1.584524214267730713e-01 8.964308351278305054e-02 3.468542993068695068e-01
-2.531787455081939697e-01 -2.895505353808403015e-02 -1.441646814346313477e-01 5.552374944090843201e-02 2.614457309246063232e-01 -2.166480422019958496e-01 -8.184381574392318726e-02 1.270666867494583130e-01 -5.858971923589706421e-02 3.393436670303344727e-01
-9.674128144979476929e-02 -1.819056868553161621e-01 -1.182556897401809692e-01 7.849057763814926147e-02 1.597774624824523926e-01 -1.249989420175552368e-01 -1.450702100992202759e-01 1.246425434947013855e-01 1.633895188570022583e-02 2.877224087715148926e-01
-5.130426958203315735e-02 -1.672550290822982788e-01 -5.847800150513648987e-02 -1.032783836126327515e-01 1.215305775403976440e-01 -8.718612790107727051e-02 -7.449927181005477905e-02 5.402894690632820129e-02 3.313206881284713745e-02 3.333092629909515381e-01
-8.235835283994674683e-02 -1.118452325463294983e-01 -5.272516980767250061e-02 -2.314954102039337158e-01 1.481078267097473145e-01 -1.213282570242881775e-01 -2.247149124741554260e-02 9.217971563339233398e-02 9.286989271640777588e-02 2.890665829181671143e-01
1.018089205026626587e-01 -7.688898593187332153e-02 -5.085732415318489075e-02 -2.103253751993179321e-01 7.712370157241821289e-02 -2.645761072635650635e-01 1.423970162868499756e-01 5.342671275138854980e-02 4.040602594614028931e-02 1.874855756759643555e-01
2.768410146236419678e-01 -6.130626052618026733e-02 -1.208704411983489990e-01 -1.870200186967849731e-01 3.144507482647895813e-02 -3.262378871440887451e-01 2.821058034896850586e-01 2.342586033046245575e-02 3.738118708133697510e-02 4.423565790057182312e-02
3.164825737476348877e-01 -4.955584555864334106e-02 -1.143771708011627197e-01 -1.065121665596961975e-01 -3.804866224527359009e-02 -3.440123200416564941e-01 3.584446012973785400e-01 1.794602163136005402e-02 5.075029283761978149e-02 -9.111712127923965454e-02
1.944193094968795776e-01 -3.709664568305015564e-02 5.369242653250694275e-02 -3.941552340984344482e-02 -5.614900216460227966e-02 -2.145437449216842651e-01 1.798855960369110107e-01 1.680296100676059723e-02 1.920646801590919495e-02 -1.168016716837882996e-01
1.336958073079586029e-02 -1.753733493387699127e-02 1.125686615705490112e-01 -4.860382527112960815e-03 -3.447126829996705055e-03 -3.330139443278312683e-02 -3.592021018266677856e-02 1.425464358180761337e-02 2.084234962239861488e-03 -4.721064865589141846e-02
-2.647469285875558853e-03 -7.376747205853462219e-03 6.758213043212890625e-02 -6.624578963965177536e-04 -5.925320088863372803e-03 8.964044391177594662e-04 -3.673253208398818970e-02 1.390863675624132156e-03 -3.605149919167160988e-03 -1.291973982006311417e-02
