0.000000000000000000e+00 0.000000000000000000e+00 0.000000000000000000e+00 0.000000000000000000e+00 0.000000000000000000e+00 0.000000000000000000e+00 0.000000000000000000e+00 0.000000000000000000e+00 0.000000000000000000e+00 0.000000000000000000e+00
0.000000000000000000e+00 0.000000000000000000e+00 0.000000000000000000e+00 0.000000000000000000e+00 0.000000000000000000e+00 0.000000000000000000e+00 0.000000000000000000e+00 0.000000000000000000e+00 0.000000000000000000e+00 0.000000000000000000e+00
0.000000000000000000e+00 0.000000000000000000e+00 0.000000000000000000e+00 0.000000000000000000e+00 0.000000000000000000e+00 0.000000000000000000e+00 0.000000000000000000e+00 0.000000000000000000e+00 0.000000000000000000e+00 0.000000000000000000e+00
0.000000000000000000e+00 0.000000000000000000e+00 0.000000000000000000e+00 0.000000000000000000e+00 0.000000000000000000e+00 0.000000000000000000e+00 0.000000000000000000e+00 0.000000000000000000e+00 0.000000000000000000e+00 0.000000000000000000e+00
0.000000000000000000e+00 0.000000000000000000e+00 0.000000000000000000e+00 0.000000000000000000e+00 0.000000000000000000e+00 0.000000000000000000e+00 0.000000000000000000e+00 0.000000000000000000e+00 0.000000000000000000e+00 0.000000000000000000e+00
0.000000000000000000e+00 0.000000000000000000e+00 0.000000000000000000e+00 0.000000000000000000e+00 0.000000000000000000e+00 0.000000000000000000e+00 0.000000000000000000e+00 0.000000000000000000e+00 0.000000000000000000e+00 0.000000000000000000e+00
0.000000000000000000e+00 0.000000000000000000e+00 0.000000000000000000e+00 0.000000000000000000e+00 0.000000000000000000e+00 0.000000000000000000e+00 0.000000000000000000e+00 0.000000000000000000e+00 0.000000000000000000e+00 0.000000000000000000e+00
0.000000000000000000e+00 0.000000000000000000e+00 0.000000000000000000e+00 0.000000000000000000e+00 0.000000000000000000e+00 0.000000000000000000e+00 0.000000000000000000e+00 0.000000000000000000e+00 0.000000000000000000e+00 0.000000000000000000e+00
0.000000000000000000e+00 0.000000000000000000e+00 0.000000000000000000e+00 0.000000000000000000e+00 0.000000000000000000e+00 0.000000000000000000e+00 0.000000000000000000e+00 0.000000000000000000e+00 0.000000000000000000e+00 0.000000000000000000e+00
0.000000000000000000e+00 0.000000000000000000e+00 0.000000000000000000e+00 0.000000000000000000e+00 0.000000000000000000e+00 0.000000000000000000e+00 0.000000000000000000e+00 0.000000000000000000e+00 0.000000000000000000e+00 0.000000000000000000e+00
0.000000000000000000e+00 0.000000000000000000e+00 0.000000000000000000e+00 0.000000000000000000e+00 0.000000000000000000e+00 0.000000000000000000e+00 0.000000000000000000e+00 0.000000000000000000e+00 0.000000000000000000e+00 0.000000000000000000e+00
0.000000000000000000e+00 0.000000000000000000e+00 0.000000000000000000e+00 0.000000000000000000e+00 0.000000000000000000e+00 0.000000000000000000e+00 0.000000000000000000e+00 0.000000000000000000e+00 0.000000000000000000e+00 0.000000000000000000e+00
-1.021732941808295436e-06 -2.740669970080489293e-06 -1.155829813797026873e-04 -1.540449375170283020e-05 -1.693887868896126747e-03 -1.978618820430710912e-05 2.010348951444029808e-03 -1.953371793206315488e-06 -2.931059134425595403e-05 -1.306611229665577412e-04
-4.884056124865310267e-06 -6.128325367171783000e-06 -4.167888255324214697e-05 -3.577098686946555972e-05 -3.849657252430915833e-03 -4.349885421106591821e-05 4.346830770373344421e-03 -6.287067662924528122e-06 -6.728153675794601440e-05 -2.916429366450756788e-04
-2.945396772702224553e-06 -1.415528458892367780e-07 2.352566225454211235e-04 -2.270639470225432888e-06 -1.564911217428743839e-04 -1.935460431923274882e-07 -6.136069714557379484e-05 -2.236586624349001795e-06 -3.451312750257784501e-06 -6.165124432300217450e-06
-1.227248702662109281e-07 -5.898034949325392517e-09 9.802359272725880146e-06 -9.460997318910813192e-08 -6.520464012282900512e-06 -8.064418466346978676e-09 -2.556695790190133266e-06 -9.319110461092350306e-08 -1.438046979274076875e-07 -2.568801846791757271e-07
0.000000000000000000e+00 0.000000000000000000e+00 0.000000000000000000e+00 0.000000000000000000e+00 0.000000000000000000e+00 0.000000000000000000e+00 0.000000000000000000e+00 0.000000000000000000e+00 0.000000000000000000e+00 0.000000000000000000e+00
0.000000000000000000e+00 0.000000000000000000e+00 0.000000000000000000e+00 0.000000000000000000e+00 0.000000000000000000e+00 0.000000000000000000e+00 0.000000000000000000e+00 0.000000000000000000e+00 0.000000000000000000e+00 0.000000000000000000e+00
0.000000000000000000e+00 0.000000000000000000e+00 0.000000000000000000e+00 0.000000000000000000e+00 0.000000000000000000e+00 0.000000000000000000e+00 0.000000000000000000e+00 0.000000000000000000e+00 0.000000000000000000e+00 0.000000000000000000e+00
0.000000000000000000e+00 0.000000000000000000e+00 0.000000000000000000e+00 0.000000000000000000e+00 0.000000000000000000e+00 0.000000000000000000e+00 0.000000000000000000e+00 0.000000000000000000e+00 0.000000000000000000e+00 0.000000000000000000e+00
0.000000000000000000e+00 0.000000000000000000e+00 0.000000000000000000e+00 0.000000000000000000e+00 0.000000000000000000e+00 0.000000000000000000e+00 0.000000000000000000e+00 0.000000000000000000e+00 0.000000000000000000e+00 0.000000000000000000e+00
0.000000000000000000e+00 0.000000000000000000e+00 0.000000000000000000e+00 0.000000000000000000e+00 0.000000000000000000e+00 0.000000000000000000e+00 0.000000000000000000e+00 0.000000000000000000e+00 0.000000000000000000e+00 0.000000000000000000e+00
0.000000000000000000e+00 0.000000000000000000e+00 0.000000000000000000e+00 0.000000000000000000e+00 0.000000000000000000e+00 0.000000000000000000e+00 0.000000000000000000e+00 0.000000000000000000e+00 0.000000000000000000e+00 0.000000000000000000e+00
0.000000000000000000e+00 0.000000000000000000e+00 0.000000000000000000e+00 0.000000000000000000e+00 0.000000000000000000e+00 0.000000000000000000e+00 0.000000000000000000e+00 0.000000000000000000e+00 0.000000000000000000e+00 0.000000000000000000e+00
0.000000000000000000e+00 0.000000000000000000e+00 0.000000000000000000e+00 0.000000000000000000e+00 0.000000000000000000e+00 0.000000000000000000e+00 0.000000000000000000e+00 0.000000000000000000e+00 0.000000000000000000e+00 0.000000000000000000e+00
0.000000000000000000e+00 0.000000000000000000e+00 0.000000000000000000e+00 0.000000000000000000e+00 0.000000000000000000e+00 0.000000000000000000e+00 0.000000000000000000e+00 0.000000000000000000e+00 0.000000000000000000e+00 0.000000000000000000e+00
0.000000000000000000e+00 0.000000000000000000e+00 0.000000000000000000e+00 0.000000000000000000e+00 0.000000000000000000e+00 0.000000000000000000e+00 0.000000000000000000e+00 0.000000000000000000e+00 0.000000000000000000e+00 0.000000000000000000e+00
0.000000000000000000e+00 0.000000000000000000e+00 0.000000000000000000e+00 0.000000000000000000e+00 0.000000000000000000e+00 0.000000000000000000e+00 0.000000000000000000e+00 0.000000000000000000e+00 0.000000000000000000e+00 0.000000000000000000e+00
0.000000000000000000e+00 0.000000000000000000e+00 0.000000000000000000e+00 0.000000000000000000e+00 0.000000000000000000e+00 0.000000000000000000e+00 0.000000000000000000e+00 0.000000000000000000e+00 0.000000000000000000e+00 0.000000000000000000e+00
0.000000000000000000e+00 0.000000000000000000e+00 0.000000000000000000e+00 0.000000000000000000e+00 0.000000000000000000e+00 0.000000000000000000e+00 0.000000000000000000e+00 0.000000000000000000e+00 0.000000000000000000e+00 0.000000000000000000e+00
0.000000000000000000e+00 0.000000000000000000e+00 0.000000000000000000e+00 0.000000000000000000e+00 0.000000000000000000e+00 0.000000000000000000e+00 0.000000000000000000e+00 0.000000000000000000e+00 0.000000000000000000e+00 0.000000000000000000e+00
0.000000000000000000e+00 0.000000000000000000e+00 0.000000000000000000e+00 0.000000000000000000e+00 0.000000000000000000e+00 0.000000000000000000e+00 0.000000000000000000e+00 0.000000000000000000e+00 0.000000000000000000e+00 0.000000000000000000e+00
-8.881197111065830541e-09 -2.466143200763326604e-08 -3.021130396518856287e-06 -2.911884067202663573e-09 -1.950720070453826338e-05 -1.008968553151134984e-07 2.361181759624741971e-05 -6.177009481689310633e-08 -2.772572997855604626e-07 -6.070790732337627560e-07
-3.855152286291740893e-08 -7.246020317097645602e-08 -9.314464477938599885e-06 -9.475138895709278586e-09 -9.725307609187439084e-05 -2.979919599965796806e-07 1.099407381843775511e-04 -2.740492277553130407e-07 -8.209369184442039113e-07 -1.859621420408075210e-06
-2.161795237043406814e-06 -2.179890934428385663e-08 -8.955871453508734703e-05 -2.327370111743221059e-06 -6.191048305481672287e-03 -6.192430646478896961e-06 6.334805861115455627e-03 -1.586578218848444521e-05 -1.319503553531831130e-06 -2.631061761348973960e-05
-8.685635293659288436e-06 -1.893001353892032057e-05 -2.257801825180649757e-04 -8.941359737946186215e-06 -1.487433444708585739e-02 -1.199635153170675039e-05 1.540401484817266464e-02 -1.457225880585610867e-04 -2.319539635209366679e-05 -8.642656030133366585e-05
-3.406020914553664625e-05 -7.576914504170417786e-04 -7.256155950017273426e-04 -7.577572978334501386e-05 -1.069103647023439407e-02 -1.960782901733182371e-05 1.366582885384559631e-02 -8.153319940902292728e-04 -3.288720035925507545e-04 -2.178396098315715790e-04
-7.097649358911439776e-05 -6.473690737038850784e-04 -1.021118601784110069e-03 -9.523885819362476468e-05 -6.580921355634927750e-03 -2.509877049305941910e-05 9.337529540061950684e-03 -2.918762911576777697e-04 -3.908388316631317139e-04 -2.140943688573315740e-04
-5.283569335006177425e-04 -4.204909782856702805e-04 -7.609584135934710503e-04 -1.272007939405739307e-04 -1.500737760215997696e-02 -1.105621631722897291e-04 1.838180236518383026e-02 -2.099199336953461170e-04 -3.581597411539405584e-04 -8.587783086113631725e-04
3.242545761168003082e-03 -3.317208320368081331e-04 -4.255745094269514084e-03 -2.234512940049171448e-04 -2.046054415404796600e-02 -2.145093749277293682e-04 2.720810286700725555e-02 -1.964076189324259758e-03 -5.968755576759576797e-04 -2.403728198260068893e-03
7.229338865727186203e-03 -3.567451785784214735e-04 -5.345794837921857834e-03 -3.655682376120239496e-04 -3.653962537646293640e-02 -6.701638922095298767e-04 4.447058215737342834e-02 -3.711094381287693977e-03 -7.350751548074185848e-04 -3.975863102823495865e-03
1.689198194071650505e-03 -2.563567832112312317e-04 -3.410304663702845573e-03 -3.291980829089879990e-04 -2.137103118002414703e-02 -1.163415028713643551e-03 2.951955795288085938e-02 -1.418985310010612011e-03 -1.067397883161902428e-03 -2.192063257098197937e-03
-2.025275025516748428e-03 4.413455724716186523e-03 4.368269583210349083e-04 -1.205770764499902725e-03 -9.094437584280967712e-03 -1.180446008220314980e-03 1.238326448947191238e-02 -2.988809719681739807e-04 -1.591145060956478119e-03 -1.837584306485950947e-03
2.077687531709671021e-03 6.735175848007202148e-03 4.200597293674945831e-03 -1.440752646885812283e-03 -1.740132085978984833e-02 -1.002763397991657257e-03 1.207386795431375504e-02 -4.602690460160374641e-04 -1.245300867594778538e-03 -3.536919597536325455e-03
7.668175734579563141e-03 -1.147551927715539932e-03 1.472424063831567764e-02 -4.919052007608115673e-04 -1.982912421226501465e-02 -7.075757603161036968e-04 8.203749544918537140e-03 -7.190841715782880783e-04 -1.453715027309954166e-03 -6.247208453714847565e-03
3.420658875256776810e-03 -8.757868781685829163e-04 2.460479736328125000e-03 -1.753876858856528997e-04 -9.335894137620925903e-03 -4.532066523097455502e-04 9.739309549331665039e-03 -2.932799980044364929e-04 -1.037131762132048607e-03 -3.449762938544154167e-03
-5.003995029255747795e-04 -1.983046531677246094e-04 -3.197732614353299141e-03 -6.447703344747424126e-05 -4.534502513706684113e-03 -6.605437374673783779e-04 1.139712426811456680e-02 -1.127119394368492067e-04 -1.130679389461874962e-03 -9.977800073102116585e-04
-3.829120541922748089e-04 -2.588774077594280243e-04 -3.141029737889766693e-03 -7.542429375462234020e-05 -5.320576019585132599e-03 -6.727242725901305676e-04 1.234809216111898422e-02 -2.184447657782584429e-04 -1.346203847788274288e-03 -9.318997035734355450e-04
-1.898144837468862534e-04 -1.142741020885296166e-04 -1.757142134010791779e-03 -5.748664261773228645e-05 -3.468414302915334702e-03 -3.331031184643507004e-04 6.938038393855094910e-03 -9.199256601277738810e-05 -4.694693489000201225e-04 -4.563407273963093758e-04
-6.275636405916884542e-05 -1.169531678897328675e-04 -1.349903177469968796e-03 -5.541285281651653349e-05 -5.778358783572912216e-03 -8.349317795364186168e-05 8.104334585368633270e-03 -3.855251179629703984e-06 -4.226301971357315779e-04 -2.309718256583437324e-04
-1.067483026417903602e-05 -1.225921732839196920e-05 -1.986318384297192097e-04 -4.619153060048120096e-06 -6.187744438648223877e-03 -5.371290171751752496e-06 6.643487140536308289e-03 -9.615365343051962554e-06 -1.031167121254839003e-04 -1.114545593736693263e-04
-2.701821415485028410e-07 -2.981677198476972990e-07 -5.221051833359524608e-05 -4.419331389726721682e-08 -1.009302213788032532e-03 -1.767515868777991273e-06 1.146078691817820072e-03 -1.192996387544553727e-05 -1.600791983946692199e-05 -5.424817936727777123e-05
0.000000000000000000e+00 0.000000000000000000e+00 0.000000000000000000e+00 0.000000000000000000e+00 0.000000000000000000e+00 0.000000000000000000e+00 0.000000000000000000e+00 0.000000000000000000e+00 0.000000000000000000e+00 0.000000000000000000e+00
0.000000000000000000e+00 0.000000000000000000e+00 0.000000000000000000e+00 0.000000000000000000e+00 0.000000000000000000e+00 0.000000000000000000e+00 0.000000000000000000e+00 0.000000000000000000e+00 0.000000000000000000e+00 0.000000000000000000e+00
0.000000000000000000e+00 0.000000000000000000e+00 0.000000000000000000e+00 0.000000000000000000e+00 0.000000000000000000e+00 0.000000000000000000e+00 0.000000000000000000e+00 0.000000000000000000e+00 0.000000000000000000e+00 0.000000000000000000e+00
0.000000000000000000e+00 0.000000000000000000e+00 0.000000000000000000e+00 0.000000000000000000e+00 0.000000000000000000e+00 0.000000000000000000e+00 0.000000000000000000e+00 0.000000000000000000e+00 0.000000000000000000e+00 0.000000000000000000e+00
0.000000000000000000e+00 0.000000000000000000e+00 0.000000000000000000e+00 0.000000000000000000e+00 0.000000000000000000e+00 0.000000000000000000e+00 0.000000000000000000e+00 0.000000000000000000e+00 0.000000000000000000e+00 0.000000000000000000e+00
0.000000000000000000e+00 0.000000000000000000e+00 0.000000000000000000e+00 0.000000000000000000e+00 0.000000000000000000e+00 0.000000000000000000e+00 0.000000000000000000e+00 0.000000000000000000e+00 0.000000000000000000e+00 0.000000000000000000e+00
-1.641595304135989863e-08 -2.928171038973914619e-10 -2.055585071047971724e-07 -9.668139622220905949e-10 -1.040589950207504444e-06 -3.561623316272743978e-07 1.875484713309560902e-06 -4.668591034595603873e-12 -1.548379344740169472e-07 -1.006676413339846476e-07
2.974495582748204470e-04 -1.865573695525313269e-09 -5.198178769205696881e-06 -4.715840873359411489e-07 -2.404384285910055041e-04 -1.645294287300202996e-05 5.345223326003178954e-05 -5.546613829210400581e-05 -4.460765921976417303e-06 -2.841190507751889527e-05
1.196712182718329132e-04 -3.944264221900084522e-07 -9.094420238398015499e-05 -3.672797106446523685e-07 -1.727770722936838865e-04 -4.509913651418173686e-06 1.926925324369221926e-04 -2.023080742219462991e-05 -6.337271315715042874e-06 -1.680272180237807333e-05
-2.514484913263004273e-05 -1.185614792120759375e-06 -4.288486525183543563e-05 -2.656212245710776187e-06 -2.009505988098680973e-04 -1.979005446628434584e-06 2.877349616028368473e-04 -1.495544893259648234e-06 -4.755802820000099018e-06 -6.682434559479588643e-06
-9.380080737173557281e-04 -1.590325700817629695e-05 -6.639806670136749744e-04 -6.415088864741846919e-05 -6.829386111348867416e-03 -8.539345435565337539e-05 8.804400451481342316e-03 -6.789039616705849767e-05 -8.525426528649404645e-05 -5.443285772344097495e-05
-1.905199722386896610e-03 -5.046049482189118862e-04 -1.943230628967285156e-03 -6.557622691616415977e-04 -2.414597757160663605e-02 -5.515589145943522453e-04 3.093133307993412018e-02 -4.636232624761760235e-04 -4.214330401737242937e-04 -3.399385022930800915e-04
-3.450406715273857117e-03 -4.589842632412910461e-03 -7.922423537820577621e-04 -2.640197984874248505e-03 -2.653794921934604645e-02 -8.119555423036217690e-04 4.238492622971534729e-02 -1.627658610232174397e-03 -1.197673846036195755e-03 -7.370013045147061348e-04
-5.769585259258747101e-03 -7.925568148493766785e-03 1.064075250178575516e-02 -5.090396851301193237e-03 -3.174413368105888367e-02 -3.019717289134860039e-03 5.082966387271881104e-02 -2.143377671018242836e-03 -3.996717743575572968e-03 -1.780929393135011196e-03
-7.609936408698558807e-03 -1.144427619874477386e-02 1.560706179589033127e-02 -3.522302955389022827e-03 -6.202875077724456787e-02 -9.016104042530059814e-03 9.686335921287536621e-02 -4.299791995435953140e-03 -8.974047377705574036e-03 -5.575220566242933273e-03
-1.118237338960170746e-02 -1.427036989480257034e-02 2.626676671206951141e-02 2.492837375029921532e-03 -7.919482886791229248e-02 -1.829472184181213379e-02 1.272818297147750854e-01 -1.015091221779584885e-02 -1.347851194441318512e-02 -9.469687938690185547e-03
-1.310224644839763641e-02 -4.443605896085500717e-03 1.820193603634834290e-02 4.001080524176359177e-03 -1.011298969388008118e-01 -2.040149644017219543e-02 1.567539572715759277e-01 -1.035248767584562302e-02 -1.618651486933231354e-02 -1.334083080291748047e-02
-2.144602127373218536e-02 1.704905554652214050e-02 1.438849233090877533e-02 -3.584709018468856812e-03 -9.106247872114181519e-02 -2.425622940063476562e-02 1.524753272533416748e-01 -7.485819980502128601e-03 -2.002537809312343597e-02 -1.605210267007350922e-02
-3.162326291203498840e-02 2.401576377451419830e-02 2.558169700205326080e-02 -4.620333202183246613e-03 -7.029350847005844116e-02 -2.812128141522407532e-02 1.322864294052124023e-01 -7.184040267020463943e-03 -2.281326800584793091e-02 -1.722824387252330780e-02
-3.724925220012664795e-02 4.815912246704101562e-02 3.270449861884117126e-02 -9.682860225439071655e-03 -7.900080829858779907e-02 -1.940067857503890991e-02 1.143946498632431030e-01 -6.817796267569065094e-03 -2.508217841386795044e-02 -1.802458800375461578e-02
-3.363222628831863403e-02 2.928471378982067108e-02 2.747270651161670685e-02 -7.432367186993360519e-03 -7.686524838209152222e-02 -5.534890573471784592e-03 1.189810261130332947e-01 -5.236817058175802231e-03 -2.689307928085327148e-02 -2.014373242855072021e-02
-2.853637933731079102e-02 2.934141317382454872e-03 2.218166599050164223e-03 -6.142309401184320450e-03 -4.345064982771873474e-02 6.291046272963285446e-03 1.082844436168670654e-01 -4.623839631676673889e-03 -2.147358842194080353e-02 -1.550106611102819443e-02
-2.249774895608425140e-02 -5.808352027088403702e-03 -1.773484423756599426e-02 -7.635448127985000610e-03 -3.240967169404029846e-02 6.653065793216228485e-03 1.057773008942604065e-01 -3.628879552707076073e-03 -1.218929048627614975e-02 -1.052612252533435822e-02
-1.754119060933589935e-02 -2.492526546120643616e-04 -3.659435361623764038e-02 -5.781728774309158325e-03 -1.654731668531894684e-02 -1.416613231413066387e-03 1.008407771587371826e-01 -2.471385058015584946e-03 -1.305311545729637146e-02 -7.185877300798892975e-03
-1.313336286693811417e-02 -4.108740948140621185e-03 -2.341259270906448364e-02 -3.166083712130784988e-03 -9.747507050633430481e-03 -1.058660447597503662e-02 7.491597533226013184e-02 -1.103624934330582619e-03 -6.182656157761812210e-03 -3.474807366728782654e-03
-8.164681494235992432e-03 -4.110410343855619431e-03 -2.096680179238319397e-02 -3.900778247043490410e-03 -7.362985517829656601e-03 -6.979838013648986816e-03 6.006528437137603760e-02 -6.968975067138671875e-04 -5.061272066086530685e-03 -2.821650821715593338e-03
-4.170767962932586670e-03 -2.413790207356214523e-03 -1.508884411305189133e-02 -3.222496947273612022e-03 -8.529630489647388458e-03 -2.797720953822135925e-03 4.205858334898948669e-02 -4.275541286915540695e-04 -3.564064856618642807e-03 -1.843712292611598969e-03
-2.053576288744807243e-03 -1.548289903439581394e-03 -4.971596878021955490e-03 -1.048989128321409225e-03 -5.057746544480323792e-03 -3.109767101705074310e-03 2.008885145187377930e-02 -5.760795465903356671e-05 -1.556710572913289070e-03 -6.845608004368841648e-04
-5.267803790047764778e-04 -5.492845666594803333e-04 6.024365779012441635e-03 -1.413536228938028216e-04 -7.468372350558638573e-04 -2.020009094849228859e-03 -9.030533838085830212e-04 -7.179759450082201511e-06 -1.072345767170190811e-03 -5.752089782617986202e-05
-9.522110303805675358e-06 -3.845385072054341435e-05 5.177552811801433563e-03 -7.354660169767157640e-07 -9.324161510448902845e-05 -2.495235821697860956e-04 -4.281427245587110519e-03 -1.646441916136609507e-07 -5.009942688047885895e-04 -3.489510163490194827e-06
0.000000000000000000e+00 0.000000000000000000e+00 0.000000000000000000e+00 0.000000000000000000e+00 0.000000000000000000e+00 0.000000000000000000e+00 0.000000000000000000e+00 0.000000000000000000e+00 0.000000000000000000e+00 0.000000000000000000e+00
0.000000000000000000e+00 0.000000000000000000e+00 0.000000000000000000e+00 0.000000000000000000e+00 0.000000000000000000e+00 0.000000000000000000e+00 0.000000000000000000e+00 0.000000000000000000e+00 0.000000000000000000e+00 0.000000000000000000e+00
0.000000000000000000e+00 0.000000000000000000e+00 0.000000000000000000e+00 0.000000000000000000e+00 0.000000000000000000e+00 0.000000000000000000e+00 0.000000000000000000e+00 0.000000000000000000e+00 0.000000000000000000e+00 0.000000000000000000e+00
0.000000000000000000e+00 0.000000000000000000e+00 0.000000000000000000e+00 0.000000000000000000e+00 0.000000000000000000e+00 0.000000000000000000e+00 0.000000000000000000e+00 0.000000000000000000e+00 0.000000000000000000e+00 0.000000000000000000e+00
-3.677951454506001028e-08 9.006224718177691102e-05 -9.061116543307434767e-06 -2.587526978459209204e-06 -2.307471959284157492e-06 -1.305948330809769686e-06 -4.954464384354650974e-05 -1.022327644761844567e-08 -2.494544787623453885e-05 -2.631811639730585739e-07
5.322605138644576073e-04 2.137890987796708941e-05 -5.269189205137081444e-05 -1.537446041766088456e-05 -7.562258979305624962e-04 3.805962114711292088e-05 5.657789297401905060e-04 -1.715215475996956229e-04 -5.797591074951924384e-05 -1.036884204950183630e-04
-1.956913154572248459e-03 -1.581567994435317814e-05 -1.015389105305075645e-03 -6.174920126795768738e-04 -6.762936827726662159e-04 2.076579723507165909e-03 2.883477834984660149e-03 -4.941029474139213562e-04 -1.035555105772800744e-04 -8.049643656704574823e-05
-1.070528663694858551e-02 -4.816426080651581287e-04 1.196801662445068359e-03 1.339031942188739777e-02 -1.196798868477344513e-03 -4.157072864472866058e-03 3.319799900054931641e-03 -4.309773794375360012e-04 -8.071386837400496006e-04 -1.280000287806615233e-04
-1.387268770486116409e-02 -1.121358014643192291e-03 5.195462144911289215e-03 1.190959755331277847e-02 -1.277547702193260193e-02 -4.010423552244901657e-03 1.869037002325057983e-02 -6.863761809654533863e-04 -2.751661231741309166e-03 -5.774364108219742775e-04
-1.726968958973884583e-02 -5.629696883261203766e-03 1.704557426273822784e-02 2.089765481650829315e-02 -2.654188685119152069e-02 -8.725603111088275909e-03 3.349898755550384521e-02 -4.883093759417533875e-03 -6.534377578645944595e-03 -1.857806113548576832e-03
-6.931105162948369980e-03 -1.880690269172191620e-02 4.313714429736137390e-02 2.147621847689151764e-02 -5.166387930512428284e-02 -1.142150536179542542e-02 5.302356183528900146e-02 -1.305811293423175812e-02 -1.089989300817251205e-02 -4.855497274547815323e-03
-2.142201922833919525e-02 -2.991674281656742096e-02 1.145710125565528870e-01 1.045048516243696213e-02 -7.951031625270843506e-02 -2.486312575638294220e-02 7.838312536478042603e-02 -1.708695851266384125e-02 -2.062649652361869812e-02 -9.978946298360824585e-03
-2.031547017395496368e-02 -4.721940308809280396e-02 1.422058939933776855e-01 3.217446804046630859e-02 -1.078707948327064514e-01 -3.004706278443336487e-02 1.119074225425720215e-01 -2.745697088539600372e-02 -3.503379970788955688e-02 -1.834419742226600647e-02
-1.742535084486007690e-02 -7.206983119249343872e-02 1.607697308063507080e-01 1.018652617931365967e-01 -1.401678025722503662e-01 -5.458734184503555298e-02 1.404113322496414185e-01 -3.891196474432945251e-02 -5.162782967090606689e-02 -2.825620397925376892e-02
-4.090993106365203857e-02 -4.635064676403999329e-02 1.937079280614852905e-01 1.459237933158874512e-01 -1.873631775379180908e-01 -4.944325238466262817e-02 1.200723722577095032e-01 -3.514586016535758972e-02 -6.352840363979339600e-02 -3.696302324533462524e-02
-3.471149131655693054e-02 -1.772791519761085510e-02 2.148036211729049683e-01 1.321662515401840210e-01 -2.133653163909912109e-01 -5.496956035494804382e-02 1.343105733394622803e-01 -3.517528623342514038e-02 -7.604357600212097168e-02 -4.928705468773841858e-02
-4.755314812064170837e-02 -1.155915576964616776e-02 1.524289548397064209e-01 1.772805005311965942e-01 -1.865294128656387329e-01 -3.693223372101783752e-02 1.396745741367340088e-01 -3.405021876096725464e-02 -9.332434833049774170e-02 -5.943538621068000793e-02
-5.785432457923889160e-02 1.572223007678985596e-02 1.159674450755119324e-01 1.578458696603775024e-01 -1.853397786617279053e-01 -7.173744961619377136e-06 1.611749678850173950e-01 -3.632849827408790588e-02 -1.007622927427291870e-01 -7.041853666305541992e-02
-5.849060416221618652e-02 6.317381747066974640e-03 1.161880418658256531e-01 1.287019997835159302e-01 -1.572349369525909424e-01 9.354803711175918579e-03 1.476084291934967041e-01 -3.088333271443843842e-02 -9.548383951187133789e-02 -6.607805937528610229e-02
-7.543427497148513794e-02 -2.891021035611629486e-02 6.235305219888687134e-02 1.026103496551513672e-01 -1.105770021677017212e-01 5.463139340281486511e-02 1.558209061622619629e-01 -2.417989820241928101e-02 -8.431999385356903076e-02 -5.199462920427322388e-02
-9.973748028278350830e-02 -5.070009827613830566e-02 -5.127369612455368042e-02 8.041845262050628662e-02 -7.091341912746429443e-02 9.407264739274978638e-02 1.998346596956253052e-01 -2.005484141409397125e-02 -4.872791841626167297e-02 -3.291823714971542358e-02
-1.000003814697265625e-01 -4.534528404474258423e-02 -8.995933085680007935e-02 7.059390842914581299e-02 -2.034080028533935547e-02 7.724362611770629883e-02 2.026442289352416992e-01 -1.386218518018722534e-02 -5.555704981088638306e-02 -2.541668154299259186e-02
-7.159765809774398804e-02 -4.992398992180824280e-02 -9.426770359277725220e-02 5.137562006711959839e-02 -2.911953255534172058e-03 6.316868215799331665e-02 1.658519208431243896e-01 -1.014929730445146561e-02 -3.287421166896820068e-02 -1.867116801440715790e-02
-5.125077441334724426e-02 -3.581373021006584167e-02 -7.593591511249542236e-02 -1.872325129806995392e-02 6.090315291658043861e-04 5.260595306754112244e-02 1.563058793544769287e-01 -5.993511527776718140e-03 -1.062966138124465942e-02 -1.117394305765628815e-02
-3.401475399732589722e-02 -2.283097058534622192e-02 -5.754360929131507874e-02 -2.801963686943054199e-02 1.598205766640603542e-03 2.452900260686874390e-02 1.238521337509155273e-01 -2.617841120809316635e-03 -8.317461470142006874e-05 -4.869210068136453629e-03
-1.921059563755989075e-02 -1.605772599577903748e-02 -3.489391505718231201e-02 -1.305261068046092987e-02 3.070862498134374619e-03 -2.078454755246639252e-02 9.784324467182159424e-02 -9.256610064767301083e-04 5.978076718747615814e-03 -1.967098796740174294e-03
-6.963612046092748642e-03 -1.074939779937267303e-02 -7.884619757533073425e-03 -3.984268289059400558e-03 -3.106378950178623199e-03 -2.192812412977218628e-02 5.629365891218185425e-02 -2.589999057818204165e-04 -8.629836956970393658e-04 -5.552937509492039680e-04
-2.825662726536393166e-03 -1.414779224433004856e-03 3.499890211969614029e-03 -3.425411123316735029e-04 -2.855442871805280447e-04 2.614650176838040352e-03 -6.465429905802011490e-04 -1.376739874103805050e-05 -5.200312007218599319e-04 -6.567264790646731853e-05
-6.830081110820174217e-04 -1.128766452893614769e-03 -2.956241078209131956e-04 -3.376372842467390001e-05 -5.859190787305124104e-05 1.041913055814802647e-03 1.612475840374827385e-03 -1.015433667816978414e-06 -4.485155805014073849e-04 -5.103529474581591785e-06
0.000000000000000000e+00 0.000000000000000000e+00 0.000000000000000000e+00 0.000000000000000000e+00 0.000000000000000000e+00 0.000000000000000000e+00 0.000000000000000000e+00 0.000000000000000000e+00 0.000000000000000000e+00 0.000000000000000000e+00
0.000000000000000000e+00 0.000000000000000000e+00 0.000000000000000000e+00 0.000000000000000000e+00 0.000000000000000000e+00 0.000000000000000000e+00 0.000000000000000000e+00 0.000000000000000000e+00 0.000000000000000000e+00 0.000000000000000000e+00
-8.449973165625124238e-09 -2.645561991698741622e-08 -2.969502702399040572e-06 4.463247478270204738e-06 -1.456409535194325144e-07 -8.954422128226724453e-07 -5.642582223686076759e-08 -1.375196490016605821e-08 -3.411910824979713652e-07 -6.420444620403031877e-09
-5.707217496819794178e-06 3.066666831728070974e-04 -1.686083851382136345e-04 1.397570886183530092e-04 -3.176847258146153763e-06 -1.563259284012019634e-04 -1.915942557388916612e-04 -5.822078819051057508e-08 7.999014633242040873e-05 -9.433558147975418251e-07
-1.819835888454690576e-04 -9.518495789961889386e-05 -7.092095329426229000e-04 3.643072210252285004e-03 -1.916430628625676036e-04 -1.633507316000759602e-03 -4.186098522040992975e-04 4.005158916697837412e-05 -3.331458428874611855e-04 -1.198395329993218184e-04
-2.669530920684337616e-03 -2.466544392518699169e-04 -8.515716530382633209e-03 1.615691371262073517e-02 5.470853298902511597e-03 -9.606458246707916260e-03 3.097609151154756546e-03 -9.819454280659556389e-04 -2.085687825456261635e-03 -6.193809094838798046e-04
-1.843483187258243561e-02 -8.800340583547949791e-04 1.125987432897090912e-02 5.712871253490447998e-02 6.848180666565895081e-03 -3.342773765325546265e-02 -4.067117813974618912e-03 -6.373065989464521408e-03 -9.433314204216003418e-03 -2.620621584355831146e-03
-2.539278566837310791e-02 -8.469092659652233124e-03 4.805801063776016235e-02 8.054994046688079834e-02 -8.457956835627555847e-03 -4.660421237349510193e-02 -9.176663123071193695e-03 -7.621738594025373459e-03 -1.786524243652820587e-02 -5.020271521061658859e-03
-2.500867098569869995e-02 -3.006802313029766083e-02 6.695654988288879395e-02 1.208146736025810242e-01 -1.937362924218177795e-02 -6.514105945825576782e-02 9.325054474174976349e-03 -2.001000568270683289e-02 -2.532748691737651825e-02 -1.216742303222417831e-02
-1.880433782935142517e-02 -4.236827418208122253e-02 1.160717159509658813e-01 1.662356108427047729e-01 -5.506787076592445374e-02 -1.213635802268981934e-01 3.224475309252738953e-02 -3.371608257293701172e-02 -2.050514705479145050e-02 -2.272658050060272217e-02
-1.473793294280767441e-02 -5.245332419872283936e-02 2.141475379467010498e-01 1.794375926256179810e-01 -1.063090190291404724e-01 -1.277513951063156128e-01 2.473861165344715118e-02 -5.587422847747802734e-02 -2.102527022361755371e-02 -4.017243534326553345e-02
-2.681041881442070007e-02 -5.272073298692703247e-02 2.372934073209762573e-01 2.211916148662567139e-01 -1.711895912885665894e-01 -1.041533946990966797e-01 5.132147669792175293e-02 -8.245873451232910156e-02 -1.655849069356918335e-02 -5.591491237282752991e-02
-3.079824894666671753e-02 -4.930418729782104492e-02 2.757740914821624756e-01 2.685265541076660156e-01 -1.895467340946197510e-01 -8.610159158706665039e-02 -6.310889031738042831e-03 -1.013619229197502136e-01 5.613041575998067856e-03 -8.649050444364547729e-02
-5.959744378924369812e-02 2.827024459838867188e-02 2.927740514278411865e-01 2.755054235458374023e-01 -2.138955444097518921e-01 -1.098031699657440186e-01 -3.003945760428905487e-02 -1.275729089975357056e-01 7.055146992206573486e-02 -1.261925995349884033e-01
-4.812642559409141541e-02 1.202434375882148743e-01 2.336333245038986206e-01 2.744721174240112305e-01 -2.029065936803817749e-01 -1.449869871139526367e-01 -2.698505856096744537e-02 -1.452624350786209106e-01 8.994867652654647827e-02 -1.500302255153656006e-01
-5.499491840600967407e-02 1.473084390163421631e-01 2.019125968217849731e-01 2.404409050941467285e-01 -2.250836938619613647e-01 -7.864429801702499390e-02 -3.054544329643249512e-02 -1.523486524820327759e-01 1.435855180025100708e-01 -1.916304528713226318e-01
-1.282811351120471954e-02 9.550563246011734009e-02 1.497231572866439819e-01 2.211261540651321411e-01 -2.390646785497665405e-01 4.345737025141716003e-02 -1.070561818778514862e-02 -1.472948938608169556e-01 1.169168800115585327e-01 -2.168357074260711670e-01
-4.643720388412475586e-02 4.470408707857131958e-02 1.523738056421279907e-01 2.089693546295166016e-01 -1.713685989379882812e-01 6.148916110396385193e-02 4.777603968977928162e-02 -1.411410719156265259e-01 7.134718447923660278e-02 -2.277128845453262329e-01
-3.415898606181144714e-02 4.746838938444852829e-03 1.125450432300567627e-01 1.033115983009338379e-01 -1.168535351753234863e-01 1.033066138625144958e-01 1.224372759461402893e-01 -1.215602681040763855e-01 1.109119411557912827e-02 -1.848656982183456421e-01
-5.044354870915412903e-02 -8.343081921339035034e-03 2.448209002614021301e-02 8.037286996841430664e-02 -6.180690601468086243e-02 1.570832729339599609e-01 1.386266201734542847e-01 -9.607244282960891724e-02 -4.513041302561759949e-02 -1.387688964605331421e-01
-6.458906084299087524e-02 6.883617490530014038e-02 -8.035714179277420044e-02 2.176182717084884644e-02 2.311954647302627563e-02 7.237356901168823242e-02 1.862169057130813599e-01 -6.904672831296920776e-02 -4.800404980778694153e-02 -1.103107482194900513e-01
-6.402532756328582764e-02 8.010464906692504883e-02 -1.037405207753181458e-01 -3.325984254479408264e-02 6.244201958179473877e-02 -2.156392298638820648e-02 2.288233935832977295e-01 -5.419754609465599060e-02 -1.500741858035326004e-02 -7.957567274570465088e-02
-5.548851564526557922e-02 8.326741307973861694e-02 -1.396885514259338379e-01 -7.831526547670364380e-02 4.891465604305267334e-02 7.840973138809204102e-02 2.191449999809265137e-01 -3.143444284796714783e-02 -6.256263703107833862e-02 -6.224751845002174377e-02
-4.289467632770538330e-02 5.760099366307258606e-02 -1.405605673789978027e-01 -7.627549022436141968e-02 6.407828629016876221e-02 9.078487753868103027e-02 1.885037720203399658e-01 -2.124162949621677399e-02 -8.552290499210357666e-02 -3.447297587990760803e-02
-5.225409567356109619e-02 2.470132336020469666e-02 -9.504333138465881348e-02 -8.420567214488983154e-02 6.137237697839736938e-02 1.147939562797546387e-01 1.287249028682708740e-01 -1.034143101423978806e-02 -7.248245924711227417e-02 -1.526563707739114761e-02
-4.283272102475166321e-02 -2.314614877104759216e-02 -4.542070627212524414e-02 -2.223328500986099243e-02 3.488482162356376648e-02 7.480241358280181885e-02 4.574049636721611023e-02 -3.576996503397822380e-03 -1.293767336755990982e-02 -5.280244164168834686e-03
-1.369282416999340057e-02 -1.194545254111289978e-02 -4.551609978079795837e-03 -2.366077853366732597e-03 3.412441816180944443e-03 1.585804857313632965e-02 8.657346479594707489e-03 -9.351740591228008270e-04 6.959545891731977463e-03 -1.396240317262709141e-03
-2.011257922276854515e-03 -2.073508687317371368e-03 -7.406881777569651604e-04 -7.927435945020988584e-05 -3.157208673655986786e-03 2.928434638306498528e-03 7.768114446662366390e-04 -2.218626323156058788e-04 4.975909832864999771e-03 -3.973554703406989574e-04
-2.434183079458307475e-05 -1.114833983592689037e-03 -5.195558769628405571e-04 -1.014318422676296905e-05 -6.278310902416706085e-04 -6.362562999129295349e-04 2.413243055343627930e-03 -1.059536953107453883e-05 5.580104188993573189e-04 -2.769585807982366532e-05
0.000000000000000000e+00 0.000000000000000000e+00 0.000000000000000000e+00 0.000000000000000000e+00 0.000000000000000000e+00 0.000000000000000000e+00 0.000000000000000000e+00 0.000000000000000000e+00 0.000000000000000000e+00 0.000000000000000000e+00
0.000000000000000000e+00 0.000000000000000000e+00 0.000000000000000000e+00 0.000000000000000000e+00 0.000000000000000000e+00 0.000000000000000000e+00 0.000000000000000000e+00 0.000000000000000000e+00 0.000000000000000000e+00 0.000000000000000000e+00
-7.755351543892174959e-05 3.254205148550681770e-05 7.537397323176264763e-05 1.123642898164689541e-03 -1.899928611237555742e-05 -1.039688126184046268e-03 1.257774692930979654e-05 -2.790512326100724749e-06 -1.034533415804617107e-04 -1.651794491408509202e-06
-8.600694709457457066e-04 8.230382809415459633e-04 7.906373357400298119e-04 1.874202489852905273e-02 3.263172693550586700e-04 -9.383526630699634552e-03 -5.255099385976791382e-03 -1.566487335367128253e-04 -4.189058206975460052e-03 -8.376164478249847889e-04
-7.354994770139455795e-03 1.350083970464766026e-03 -3.268133616074919701e-03 5.594753473997116089e-02 7.329426240175962448e-03 -3.503025695681571960e-02 2.397569594904780388e-03 -3.620221978053450584e-03 -1.388232223689556122e-02 -3.868677653372287750e-03
-3.030177950859069824e-02 5.923455115407705307e-03 2.441790141165256500e-02 1.229448765516281128e-01 2.186489291489124298e-02 -6.440194696187973022e-02 -3.508297726511955261e-02 4.365420434623956680e-03 -3.478222340345382690e-02 -1.494755875319242477e-02
-3.805750980973243713e-02 -1.787451095879077911e-02 7.730858772993087769e-02 1.718622744083404541e-01 2.640902251005172729e-02 -1.059244945645332336e-01 -3.129285573959350586e-02 1.886201556771993637e-03 -4.825941473245620728e-02 -3.605736419558525085e-02
-4.089896380901336670e-02 -6.533821672201156616e-02 1.506422311067581177e-01 1.852285414934158325e-01 2.399401180446147919e-02 -9.924198687076568604e-02 -3.233698010444641113e-02 -1.391168963164091110e-02 -4.708500578999519348e-02 -6.105216965079307556e-02
-4.077421501278877258e-02 -1.177501156926155090e-01 2.202237844467163086e-01 1.777040660381317139e-01 4.937711171805858612e-03 -9.558066725730895996e-02 5.201908294111490250e-03 -1.422486733645200729e-02 -4.992267489433288574e-02 -8.981503546237945557e-02
-3.934036195278167725e-02 -1.232537254691123962e-01 2.544584274291992188e-01 1.786678731441497803e-01 -2.346076257526874542e-02 -3.460892662405967712e-02 -3.765678964555263519e-03 -5.317177623510360718e-02 -2.947918325662612915e-02 -1.260460615158081055e-01
1.924184733070433140e-03 -8.477719873189926147e-02 2.779646813869476318e-01 1.622134745121002197e-01 -1.118834689259529114e-01 5.345381796360015869e-03 -8.425617590546607971e-03 -1.081587970256805420e-01 -2.560072392225265503e-02 -1.086015999317169189e-01
1.390747539699077606e-02 -4.857768490910530090e-02 2.933295965194702148e-01 1.112640276551246643e-01 -1.269753724336624146e-01 -2.831301186233758926e-03 -1.483192592859268188e-01 -1.603976041078567505e-01 1.117203906178474426e-01 -4.312040284276008606e-02
1.732917129993438721e-02 2.242532931268215179e-02 2.422509938478469849e-01 8.224524557590484619e-02 -1.569496244192123413e-01 -2.882405556738376617e-02 -1.301722526550292969e-01 -1.969837397336959839e-01 1.803062707185745239e-01 -3.162736818194389343e-02
9.672714024782180786e-02 7.926112413406372070e-02 2.357716113328933716e-01 8.829873800277709961e-02 -1.887689083814620972e-01 -5.563296377658843994e-02 -1.456903517246246338e-01 -2.522766888141632080e-01 1.568590700626373291e-01 -1.454882696270942688e-02
1.239478588104248047e-01 1.066231504082679749e-01 2.312480807304382324e-01 4.450835660099983215e-02 -1.199674531817436218e-01 -6.308029592037200928e-02 -7.674591243267059326e-02 -2.922683358192443848e-01 1.815015673637390137e-01 -1.357674449682235718e-01
1.299324482679367065e-01 1.007984578609466553e-01 2.309227287769317627e-01 9.018179774284362793e-02 -8.887109905481338501e-02 -4.172891378402709961e-02 -7.611499726772308350e-02 -3.026608526706695557e-01 1.685377806425094604e-01 -2.109975963830947876e-01
1.197419017553329468e-01 -1.565229706466197968e-02 2.588424682617187500e-01 1.431105881929397583e-01 -3.289505839347839355e-02 8.182428777217864990e-03 -4.827174171805381775e-02 -2.988549768924713135e-01 1.911179125308990479e-01 -3.253211677074432373e-01
1.774445325136184692e-01 -7.318025827407836914e-02 2.382478863000869751e-01 2.352703176438808441e-02 -2.354922145605087280e-02 5.227496847510337830e-02 1.106456853449344635e-03 -2.817637920379638672e-01 1.964423209428787231e-01 -3.105501830577850342e-01
1.412423551082611084e-01 -1.476845983415842056e-02 1.427630186080932617e-01 -8.617060258984565735e-03 5.198167264461517334e-02 7.190328091382980347e-02 8.571721613407135010e-02 -2.498185932636260986e-01 5.313637107610702515e-02 -2.735393643379211426e-01
6.322266906499862671e-02 7.283423095941543579e-02 1.458215061575174332e-02 -2.746152505278587341e-02 1.087245792150497437e-01 2.140068821609020233e-02 1.570790857076644897e-01 -2.193664759397506714e-01 4.533855989575386047e-02 -2.363539785146713257e-01
-8.434659801423549652e-03 1.319295316934585571e-01 -5.149415507912635803e-02 -6.572280079126358032e-02 8.799158781766891479e-02 7.187771797180175781e-02 1.644910424947738647e-01 -1.754886358976364136e-01 4.764346033334732056e-02 -2.027930617332458496e-01
1.018495857715606689e-02 1.892018765211105347e-01 -6.050895527005195618e-02 -1.338578164577484131e-01 9.242487698793411255e-02 1.015992611646652222e-01 1.337587982416152954e-01 -1.135895028710365295e-01 -4.736652225255966187e-02 -1.718466281890869141e-01
-1.447583548724651337e-02 1.609617322683334351e-01 -1.088231280446052551e-01 -1.512062251567840576e-01 1.489553004503250122e-01 1.947766542434692383e-01 1.046796664595603943e-01 -7.649087905883789062e-02 -1.096523106098175049e-01 -1.487252712249755859e-01
-7.668337970972061157e-02 8.532692492008209229e-02 -1.275434643030166626e-01 -1.538236588239669800e-01 1.845476925373077393e-01 2.411977946758270264e-01 9.133227914571762085e-02 -4.460591450333595276e-02 -1.025741249322891235e-01 -9.717447310686111450e-02
-7.782392203807830811e-02 1.678615435957908630e-02 -7.491713017225265503e-02 -5.156140029430389404e-02 7.739473879337310791e-02 1.725086122751235962e-01 4.106301069259643555e-02 -1.768974401056766510e-02 -4.143531247973442078e-02 -4.432507976889610291e-02
-3.412751853466033936e-02 -2.486139535903930664e-02 -1.594760827720165253e-02 -1.093441899865865707e-02 8.579428307712078094e-03 7.597517967224121094e-02 3.047230653464794159e-03 -6.295900326222181320e-03 1.875826530158519745e-02 -1.419324148446321487e-02
-9.284515865147113800e-03 -4.749369807541370392e-03 -3.142368746921420097e-03 -1.259823562577366829e-03 -5.422892048954963684e-03 2.345894277095794678e-02 3.654716070741415024e-03 -2.501852344721555710e-03 2.263918053358793259e-03 -3.016742644831538200e-03
-1.945821451954543591e-03 -1.441601547412574291e-03 -7.908269762992858887e-04 -9.447545016882941127e-05 -1.525367988506332040e-04 1.907085999846458435e-03 3.529665526002645493e-03 -7.763982284814119339e-05 -8.807153208181262016e-04 -5.313397196005098522e-05
0.000000000000000000e+00 0.000000000000000000e+00 0.000000000000000000e+00 0.000000000000000000e+00 0.000000000000000000e+00 0.000000000000000000e+00 0.000000000000000000e+00 0.000000000000000000e+00 0.000000000000000000e+00 0.000000000000000000e+00
-3.113384082098491490e-06 -6.519159796880558133e-06 -1.217819772136863321e-05 1.082197777577675879e-04 -1.054224526342295576e-06 -1.341616643912857398e-05 -1.080861466107307933e-06 -8.601341505709569901e-06 -1.496193544880952686e-05 -4.729453212348744273e-05
-2.787333796732127666e-04 -1.927010482177138329e-03 -1.564992009662091732e-03 2.516589127480983734e-03 -5.610639927908778191e-04 1.235637610079720616e-04 -1.927986595546826720e-04 3.641392104327678680e-03 -7.823995547369122505e-04 -9.745473507791757584e-04
-1.561281736940145493e-03 -2.766244870144873857e-04 2.497670007869601250e-03 3.839964792132377625e-02 -4.301464185118675232e-03 -2.689533866941928864e-02 -8.772585541009902954e-03 1.963729970157146454e-02 -1.210118923336267471e-02 -6.626138463616371155e-03
-1.342167984694242477e-02 6.522465264424681664e-04 7.351214531809091568e-03 9.500141441822052002e-02 1.372335292398929596e-02 -6.245883926749229431e-02 -4.719561431556940079e-03 1.818232238292694092e-02 -3.033939562737941742e-02 -2.397103980183601379e-02
-2.292542904615402222e-02 -1.996829546988010406e-02 4.841688647866249084e-02 1.604055315256118774e-01 4.954066500067710876e-02 -9.206428378820419312e-02 -3.569975122809410095e-02 3.282363340258598328e-02 -4.634198918938636780e-02 -7.418670505285263062e-02
-3.721541166305541992e-02 -5.041749030351638794e-02 1.259332448244094849e-01 1.880807727575302124e-01 6.535494327545166016e-02 -1.143030077219009399e-01 -6.055281683802604675e-02 5.783640220761299133e-02 -5.863308534026145935e-02 -1.160834431648254395e-01
-4.936908185482025146e-02 -1.067177653312683105e-01 1.791759133338928223e-01 1.409221589565277100e-01 6.798878312110900879e-02 -6.747496873140335083e-02 -3.120956569910049438e-02 6.338165700435638428e-02 -2.738279104232788086e-02 -1.693143546581268311e-01
-7.584302127361297607e-02 -1.720728576183319092e-01 1.885190457105636597e-01 1.670465618371963501e-01 6.219294853508472443e-03 -2.035200595855712891e-02 -2.761377766728401184e-02 9.833169728517532349e-02 2.289490588009357452e-02 -1.871296763420104980e-01
-9.080127626657485962e-02 -2.044295519590377808e-01 2.147302329540252686e-01 1.743447035551071167e-01 -6.264441646635532379e-03 1.061681378632783890e-02 -6.970974802970886230e-02 7.410757988691329956e-02 4.092767834663391113e-02 -1.435222625732421875e-01
-2.416849508881568909e-02 -1.505177021026611328e-01 1.683975011110305786e-01 1.647382974624633789e-01 -8.928238600492477417e-02 5.022472143173217773e-02 -1.398390531539916992e-01 7.876877486705780029e-02 2.465449087321758270e-02 -8.297628909349441528e-02
1.206899806857109070e-02 -7.605895400047302246e-02 7.900760322809219360e-02 1.010596305131912231e-01 -1.869028955698013306e-01 5.020380392670631409e-02 -1.624641567468643188e-01 6.041279062628746033e-02 8.162556588649749756e-02 4.104744270443916321e-02
2.862866222858428955e-02 -5.089362710714340210e-02 6.749676913022994995e-02 9.318539500236511230e-02 -2.052191048860549927e-01 3.177460655570030212e-02 -1.200967356562614441e-01 -3.323051333427429199e-02 1.011856943368911743e-01 8.716870844364166260e-02
1.120395436882972717e-01 -6.259597092866897583e-02 1.000114828348159790e-01 1.763604283332824707e-01 -2.499022483825683594e-01 1.531209144741296768e-02 -1.642702668905258179e-01 -1.390178054571151733e-01 3.210622072219848633e-02 1.799563020467758179e-01
1.209667623043060303e-01 -8.802044391632080078e-02 1.117245927453041077e-01 1.332175433635711670e-01 -2.862379550933837891e-01 4.549439623951911926e-02 -1.600919663906097412e-01 -1.702453345060348511e-01 7.408878952264785767e-02 2.191031277179718018e-01
9.087654948234558105e-02 -1.381494253873825073e-01 1.103259474039077759e-01 1.305699348449707031e-01 -2.609647810459136963e-01 -5.774490162730216980e-02 -1.004617512226104736e-01 -1.334653198719024658e-01 2.303935736417770386e-01 1.286195218563079834e-01
1.233253329992294312e-01 -1.734624654054641724e-01 1.154927015304565430e-01 1.754955798387527466e-01 -2.480006366968154907e-01 -4.995928704738616943e-02 -1.165542751550674438e-01 -1.006148383021354675e-01 1.464251726865768433e-01 1.278524845838546753e-01
1.988763064146041870e-01 -1.946147531270980835e-01 7.489570975303649902e-02 9.575948119163513184e-02 -1.948317140340805054e-01 1.515551470220088959e-02 -1.138631552457809448e-01 -9.330813586711883545e-02 1.024488136172294617e-01 1.094821766018867493e-01
1.850655674934387207e-01 -9.389159083366394043e-02 4.677348211407661438e-02 1.348821967840194702e-01 -1.740470230579376221e-01 6.012064218521118164e-02 -1.124256998300552368e-01 -1.457691043615341187e-01 -5.589057691395282745e-04 9.985052049160003662e-02
9.847494959831237793e-02 -4.192493855953216553e-03 -9.577672928571701050e-03 -1.169822178781032562e-02 -3.287378698587417603e-02 8.265874534845352173e-02 -4.962226375937461853e-02 -1.511634886264801025e-01 9.406463801860809326e-02 -1.607039943337440491e-02
6.439935415983200073e-02 8.239178359508514404e-02 -5.243248119950294495e-02 -5.846037529408931732e-03 -1.248069200664758682e-02 8.198296278715133667e-02 -2.532049454748630524e-02 -1.102831512689590454e-01 7.522947341203689575e-02 -9.764116257429122925e-02
1.098358035087585449e-01 9.987536072731018066e-02 -6.428080052137374878e-02 -3.463419154286384583e-02 8.250842243432998657e-02 6.806515902280807495e-02 -3.782128915190696716e-02 -6.303897500038146973e-02 9.222633205354213715e-03 -1.697320044040679932e-01
9.652384370565414429e-02 7.745046913623809814e-02 -1.055725067853927612e-01 -1.517594456672668457e-01 2.222434431314468384e-01 1.960211098194122314e-01 -3.139153495430946350e-02 -6.830618530511856079e-02 -1.740000396966934204e-02 -2.178096324205398560e-01
-2.705871500074863434e-02 2.276592329144477844e-02 -1.676903665065765381e-01 -1.749517768621444702e-01 2.714438438415527344e-01 3.298878967761993408e-01 -2.803497388958930969e-02 -7.268849015235900879e-02 3.508850559592247009e-02 -1.887618601322174072e-01
-1.174547299742698669e-01 -2.251891978085041046e-02 -9.176024794578552246e-02 -7.377611845731735229e-02 1.157181337475776672e-01 3.444563448429107666e-01 -2.037163265049457550e-02 -4.236984997987747192e-02 1.593967713415622711e-02 -1.078627705574035645e-01
-7.916849851608276367e-02 -3.360319510102272034e-02 -2.753248997032642365e-02 -2.394572086632251740e-02 1.877704262733459473e-02 1.891300678253173828e-01 -1.700622588396072388e-02 -1.997058093547821045e-02 3.577809408307075500e-02 -4.245850443840026855e-02
-3.142502158880233765e-02 -3.971904981881380081e-03 -4.133811220526695251e-03 -3.018966643139719963e-03 5.964018870145082474e-03 6.435053795576095581e-02 -9.922390803694725037e-03 -6.875180173665285110e-03 1.906065503135323524e-03 -1.287328638136386871e-02
-5.961034912616014481e-03 -8.730837726034224033e-05 -6.776861846446990967e-05 -6.525727076223120093e-05 -3.730751923285424709e-04 9.095041081309318542e-03 -3.021606244146823883e-04 -3.009478386957198381e-04 -1.663909642957150936e-03 -2.735806338023394346e-04
0.000000000000000000e+00 0.000000000000000000e+00 0.000000000000000000e+00 0.000000000000000000e+00 0.000000000000000000e+00 0.000000000000000000e+00 0.000000000000000000e+00 0.000000000000000000e+00 0.000000000000000000e+00 0.000000000000000000e+00
-1.261418801732361317e-04 -2.427566505502909422e-04 -3.271536552347242832e-04 2.474969252943992615e-03 -1.405142829753458500e-04 -4.015274171251803637e-04 -3.950778045691549778e-05 9.658285416662693024e-04 -7.847465458326041698e-04 -1.378449378535151482e-03
-6.452035158872604370e-04 -1.447347458451986313e-03 3.050997154787182808e-03 -1.926773547893390059e-04 -1.300160656683146954e-03 -5.819712765514850616e-03 -9.599743061698973179e-04 1.377572491765022278e-02 -2.314507728442549706e-03 -4.147139843553304672e-03
-3.517259610816836357e-03 -2.561569912359118462e-03 3.136149840429425240e-03 4.287208616733551025e-02 -2.496835310012102127e-03 -3.770995885133743286e-02 -1.245423499494791031e-02 4.674140736460685730e-02 -1.382372807711362839e-02 -2.018607594072818756e-02
-2.424926683306694031e-02 -5.474244244396686554e-03 4.432290419936180115e-02 1.540302187204360962e-01 2.295606769621372223e-02 -1.316726803779602051e-01 -1.262020785361528397e-02 5.117200687527656555e-02 -2.686646394431591034e-02 -7.159812003374099731e-02
-2.907836623489856720e-02 -3.849533200263977051e-02 8.292265236377716064e-02 2.077798843383789062e-01 6.111145764589309692e-02 -1.505922824144363403e-01 -4.315488040447235107e-02 9.355576336383819580e-02 -3.552388399839401245e-02 -1.485246419906616211e-01
-4.321252554655075073e-02 -8.894155174493789673e-02 1.912193447351455688e-01 1.736968606710433960e-01 4.794993624091148376e-02 -1.339506655931472778e-01 -8.000409603118896484e-02 1.394918709993362427e-01 -1.329150795936584473e-02 -1.929574310779571533e-01
-7.106825709342956543e-02 -1.327123343944549561e-01 1.398729532957077026e-01 1.077784895896911621e-01 4.988200217485427856e-02 -3.138395026326179504e-02 -3.282365947961807251e-02 1.622001975774765015e-01 5.530425906181335449e-02 -2.470494657754898071e-01
-1.038997545838356018e-01 -2.226260751485824585e-01 1.389220952987670898e-01 8.762155473232269287e-02 -3.300821408629417419e-02 6.471957266330718994e-02 -4.516904801130294800e-02 1.851030141115188599e-01 9.694234281778335571e-02 -1.686052829027175903e-01
-3.022291325032711029e-02 -2.359172552824020386e-01 7.321956753730773926e-02 6.413178145885467529e-02 -6.181755289435386658e-02 8.503133803606033325e-02 -1.028166562318801880e-01 2.267534881830215454e-01 5.096808448433876038e-02 -6.933014839887619019e-02
1.254434511065483093e-02 -1.973602920770645142e-01 1.810472086071968079e-02 4.690663143992424011e-02 -1.510177403688430786e-01 1.291304379701614380e-01 -1.508662998676300049e-01 2.519536912441253662e-01 5.092496797442436218e-02 -1.032064575701951981e-02
3.457190841436386108e-02 -1.452769935131072998e-01 5.814017727971076965e-02 5.263099819421768188e-02 -2.207475602626800537e-01 1.216246336698532104e-01 -1.482132673263549805e-01 2.318262904882431030e-01 -5.618608370423316956e-02 7.162977010011672974e-02
3.952220082283020020e-02 -9.492199122905731201e-02 1.751784794032573700e-02 1.262737810611724854e-01 -3.281361758708953857e-01 5.059297382831573486e-02 -1.408996284008026123e-01 1.835329234600067139e-01 -5.211738869547843933e-02 1.986356228590011597e-01
6.598458439111709595e-02 -1.164604350924491882e-01 8.671668916940689087e-02 1.316899955272674561e-01 -3.161709010601043701e-01 -1.491728704422712326e-02 -1.887523233890533447e-01 8.429453521966934204e-02 -5.118136480450630188e-02 3.187969028949737549e-01
7.746757566928863525e-02 -1.484953016042709351e-01 7.131288200616836548e-02 1.792971044778823853e-01 -3.977054357528686523e-01 5.965802073478698730e-02 -1.524274498224258423e-01 -2.462845109403133392e-02 -9.255875647068023682e-02 4.280797541141510010e-01
7.617797702550888062e-02 -2.038092613220214844e-01 2.725750394165515900e-02 2.108743339776992798e-01 -4.436295926570892334e-01 -7.541528344154357910e-02 -1.390252113342285156e-01 1.305387914180755615e-02 5.782288685441017151e-02 4.766926765441894531e-01
1.161513328552246094e-01 -1.859709918498992920e-01 1.920071663334965706e-03 9.643305838108062744e-02 -4.258772432804107666e-01 2.873312309384346008e-02 -1.857023239135742188e-01 1.046447232365608215e-01 2.072966098785400391e-02 4.289380311965942383e-01
2.037808448076248169e-01 -1.746822595596313477e-01 -1.101454645395278931e-01 1.078200936317443848e-01 -2.842008769512176514e-01 7.592168450355529785e-02 -2.095037698745727539e-01 1.631426960229873657e-01 -5.896255746483802795e-02 2.868300080299377441e-01
2.136373221874237061e-01 -1.270167082548141479e-01 -6.249651685357093811e-02 5.819338560104370117e-02 -2.328181415796279907e-01 7.723255455493927002e-02 -2.616396546363830566e-01 1.486099064350128174e-01 3.397264331579208374e-02 1.523252576589584351e-01
1.285958439111709595e-01 -1.088908314704895020e-02 -2.361018769443035126e-02 8.566409349441528320e-02 -1.198382005095481873e-01 8.821257948875427246e-02 -2.706692218780517578e-01 7.257536798715591431e-02 -1.516302861273288727e-02 6.512188911437988281e-02
5.527114495635032654e-02 2.623949572443962097e-02 -4.851162433624267578e-02 6.772972643375396729e-02 -8.688915520906448364e-02 8.419102430343627930e-02 -2.319469600915908813e-01 8.100903034210205078e-02 3.937890008091926575e-02 1.352834794670343399e-02
7.790829241275787354e-02 -4.820880945771932602e-03 -2.241344936192035675e-02 1.009439863264560699e-02 2.175405248999595642e-02 8.547802269458770752e-02 -2.028998285531997681e-01 1.766825653612613678e-02 7.622849941253662109e-02 -5.899761989712715149e-02
1.375027894973754883e-01 -2.952213212847709656e-02 -3.609957173466682434e-02 -1.012124791741371155e-01 1.739569306373596191e-01 1.625150144100189209e-01 -1.907239854335784912e-01 7.799273822456598282e-03 7.370893657207489014e-02 -1.979244500398635864e-01
6.111760810017585754e-02 -7.051551342010498047e-02 -1.785567402839660645e-01 -1.733555942773818970e-01 2.317159175872802734e-01 3.724605739116668701e-01 -1.384384483098983765e-01 -3.789109364151954651e-02 1.618742346763610840e-01 -2.284108847379684448e-01
-8.318777382373809814e-02 -1.060959771275520325e-01 -1.250111758708953857e-01 -1.116156131029129028e-01 9.639231860637664795e-02 4.647261798381805420e-01 -4.998658597469329834e-02 -5.752742290496826172e-02 1.260753870010375977e-01 -1.537694036960601807e-01
-9.712795913219451904e-02 -5.507045984268188477e-02 -3.536770120263099670e-02 -2.826512977480888367e-02 8.049122057855129242e-03 3.181759417057037354e-01 -3.871640563011169434e-02 -3.619620576500892639e-02 2.652389928698539734e-02 -6.200473383069038391e-02
-3.488081321120262146e-02 -4.619800951331853867e-03 -5.740210413932800293e-03 -3.530224552378058434e-03 2.726118080317974091e-03 8.548117429018020630e-02 -1.159437838941812515e-02 -7.810173090547323227e-03 -4.359459271654486656e-04 -1.959581673145294189e-02
-2.358161145821213722e-03 -1.341825118288397789e-03 -1.870731503004208207e-04 -8.915050420910120010e-05 -4.572449834086000919e-04 7.604350801557302475e-03 -2.083763480186462402e-03 -2.244470961159095168e-04 -1.347765210084617138e-04 -7.279093842953443527e-04
2.046342473477125168e-03 -5.522967398974287789e-07 -4.247938340995460749e-05 -4.414701209043414565e-07 -6.127022061264142394e-05 -2.790775852190563455e-06 -9.022061021823901683e-06 -1.018365379422903061e-03 -1.074612373486161232e-05 -9.006747277453541756e-04
-1.276600087294355035e-04 -1.147406655945815146e-04 1.068549347110092640e-03 -2.076300559565424919e-03 -1.603484968654811382e-03 -3.357150126248598099e-04 -5.332839282345958054e-05 8.088580332696437836e-03 -6.728025036863982677e-04 -4.173095338046550751e-03
-1.155137782916426659e-03 -8.046154980547726154e-04 2.311622258275747299e-03 -1.401864108629524708e-03 -3.325877711176872253e-03 -8.539373055100440979e-03 -1.373254461213946342e-03 3.371194377541542053e-02 -4.827396478503942490e-03 -1.459605526179075241e-02
-6.014804355800151825e-03 -2.330024959519505501e-03 2.307100454345345497e-03 4.788155481219291687e-02 -1.040858961641788483e-02 -4.572057723999023438e-02 -1.248385105282068253e-02 9.496061503887176514e-02 -1.049761008471250534e-02 -5.769370868802070618e-02
-4.029138758778572083e-02 -1.258932705968618393e-02 5.797029659152030945e-02 1.787541657686233521e-01 5.013843998312950134e-03 -1.714855134487152100e-01 -1.888609491288661957e-02 1.256124526262283325e-01 -7.398650981485843658e-03 -1.166996508836746216e-01
-5.196240916848182678e-02 -3.778944164514541626e-02 1.032825112342834473e-01 1.725950688123703003e-01 4.076182097196578979e-02 -1.634024679660797119e-01 -6.677213311195373535e-02 1.417986303567886353e-01 2.492506988346576691e-02 -1.634366363286972046e-01
-5.268201231956481934e-02 -9.188504517078399658e-02 1.408321112394332886e-01 1.337478905916213989e-01 3.371433354914188385e-03 -1.456987559795379639e-01 -9.868624806404113770e-02 1.629368364810943604e-01 1.047374904155731201e-01 -1.566736847162246704e-01
-8.142329007387161255e-02 -1.312606334686279297e-01 1.074281781911849976e-01 6.705992668867111206e-02 -1.570712961256504059e-02 -6.303340941667556763e-02 -6.588491052389144897e-02 2.210068255662918091e-01 1.493908166885375977e-01 -1.875764727592468262e-01
-6.147019192576408386e-02 -2.167034745216369629e-01 9.650763869285583496e-02 4.179635271430015564e-02 -9.646667540073394775e-02 5.871533602476119995e-02 -7.327898591756820679e-02 1.930446475744247437e-01 8.739674836397171021e-02 -2.954160422086715698e-02
4.134563356637954712e-02 -2.659187614917755127e-01 6.931943446397781372e-02 8.296616375446319580e-03 -4.660137742757797241e-02 5.820325016975402832e-02 -1.025883555412292480e-01 1.810842752456665039e-01 1.196672990918159485e-01 -6.280833482742309570e-02
3.709971159696578979e-02 -2.345834076404571533e-01 1.678152382373809814e-01 3.746476396918296814e-02 -1.334004849195480347e-01 8.182017505168914795e-02 -1.704783439636230469e-01 1.984304785728454590e-01 6.315758079290390015e-02 -4.732602834701538086e-02
1.972973532974720001e-02 -1.691303551197052002e-01 1.195346340537071228e-01 -3.174260258674621582e-03 -1.883320510387420654e-01 1.271259486675262451e-01 -1.392126232385635376e-01 2.586857974529266357e-01 5.499131046235561371e-03 -3.072588518261909485e-02
4.843975603580474854e-02 -1.061778366565704346e-01 5.702096223831176758e-02 2.753392420709133148e-02 -2.426043599843978882e-01 5.165446177124977112e-02 -1.482127457857131958e-01 2.685335874557495117e-01 9.656185656785964966e-02 -5.274943262338638306e-02
4.614301025867462158e-02 -4.637191817164421082e-02 6.062822416424751282e-02 7.587070763111114502e-02 -2.472073435783386230e-01 -4.952465742826461792e-02 -1.887989342212677002e-01 1.572085320949554443e-01 9.030729532241821289e-02 1.017450988292694092e-01
1.089861094951629639e-01 -3.467702865600585938e-02 1.235425248742103577e-01 1.690052598714828491e-01 -4.160359501838684082e-01 -9.882268309593200684e-02 -2.045090496540069580e-01 1.648832708597183228e-01 -7.617907971143722534e-02 2.638064324855804443e-01
1.865143030881881714e-01 1.372435968369245529e-02 1.006099954247474670e-01 1.896911263465881348e-01 -4.366804957389831543e-01 -1.955644935369491577e-01 -2.297027558088302612e-01 2.097620815038681030e-01 -7.907100021839141846e-02 2.407166361808776855e-01
2.904910445213317871e-01 -7.830571383237838745e-02 1.522823609411716461e-02 1.392059326171875000e-01 -3.754912912845611572e-01 -1.277583241462707520e-01 -2.904269099235534668e-01 2.354365736246109009e-01 1.527768839150667191e-02 1.763420999050140381e-01
2.489834427833557129e-01 -3.453468903899192810e-03 -1.951332390308380127e-02 1.328038871288299561e-01 -2.238609939813613892e-01 -5.306250974535942078e-02 -3.549557924270629883e-01 2.382968664169311523e-01 -3.436149284243583679e-02 6.912393122911453247e-02
1.932568848133087158e-01 -6.513947993516921997e-02 -4.281122982501983643e-02 1.655552387237548828e-01 -1.173837482929229736e-01 -3.531830385327339172e-02 -4.385673999786376953e-01 2.442721575498580933e-01 5.613763257861137390e-02 3.999843075871467590e-02
1.118660271167755127e-01 -5.355926603078842163e-02 6.048377603292465210e-02 1.378384083509445190e-01 -7.204766571521759033e-02 -2.346624154597520828e-03 -4.198256134986877441e-01 1.606500893831253052e-01 1.000006422400474548e-01 -2.305955998599529266e-02
7.388101518154144287e-02 -1.015568152070045471e-01 4.040025174617767334e-03 1.316717565059661865e-01 -6.617454439401626587e-02 8.309969305992126465e-02 -3.337657749652862549e-01 1.444820016622543335e-01 7.718596607446670532e-02 -1.286268141120672226e-02
4.805072769522666931e-02 -1.302920728921890259e-01 -2.382421121001243591e-02 1.150246560573577881e-01 -9.943358600139617920e-03 1.007673069834709167e-01 -2.780719697475433350e-01 3.870791569352149963e-02 1.062896475195884705e-01 3.329147398471832275e-02
1.613332033157348633e-01 -1.628194451332092285e-01 -5.729266628623008728e-02 4.311164095997810364e-02 5.915288627147674561e-02 1.585728079080581665e-01 -2.637861371040344238e-01 3.430645912885665894e-02 1.568303406238555908e-01 -1.294093728065490723e-01
1.752240955829620361e-01 -1.916968673467636108e-01 -1.112817302346229553e-01 -1.906487345695495605e-01 8.565533906221389771e-02 4.541597962379455566e-01 -2.095997780561447144e-01 -1.695857569575309753e-02 2.141418159008026123e-01 -2.089953422546386719e-01
-2.470474317669868469e-02 -1.596926599740982056e-01 -1.425844281911849976e-01 -1.452746540307998657e-01 2.062995731830596924e-02 6.427952647209167480e-01 -1.228900253772735596e-01 -7.727805525064468384e-02 1.512205302715301514e-01 -1.422206312417984009e-01
-9.271991252899169922e-02 -6.888452172279357910e-02 -4.656842350959777832e-02 -3.941941633820533752e-02 -1.719957403838634491e-02 4.222975969314575195e-01 -6.459118425846099854e-02 -4.738181456923484802e-02 1.721182838082313538e-02 -6.274476647377014160e-02
-2.823225222527980804e-02 -7.257685996592044830e-03 -5.400379188358783722e-03 -3.338282695040106773e-03 -1.530125923454761505e-02 1.095370352268218994e-01 -2.926749922335147858e-02 -1.132198143750429153e-02 9.268395602703094482e-03 -1.868614368140697479e-02
-1.895620138384401798e-03 -1.034538378007709980e-03 -3.699305525515228510e-04 -5.567814150708727539e-05 -7.065560785122215748e-04 6.578857544809579849e-03 -2.738019684329628944e-03 -1.491339760832488537e-03 3.060142509639263153e-03 -1.347318408079445362e-03
-4.402867944008903578e-06 -3.835697498288936913e-06 -3.990498498751549050e-06 -5.932919521001167595e-05 -1.941407099366188049e-04 -2.460485302435699850e-05 -8.845447155181318521e-06 8.005342097021639347e-04 -2.350432441744487733e-05 -4.778811417054384947e-04
-6.583741196664050221e-05 -1.244018494617193937e-05 -1.106335475924424827e-04 -2.159479074180126190e-03 -1.685652649030089378e-03 -3.899227594956755638e-04 -2.577349005150608718e-05 1.048658695071935654e-02 -3.865774488076567650e-04 -5.650267470628023148e-03
-9.267901186831295490e-04 -5.863294936716556549e-04 8.628628565929830074e-04 5.825930275022983551e-03 -7.356099318712949753e-03 -4.820494446903467178e-03 -1.923986477777361870e-03 3.787840902805328369e-02 -7.258997298777103424e-03 -2.169449441134929657e-02
-7.262499071657657623e-03 -3.162394277751445770e-03 1.298299711197614670e-02 5.577612295746803284e-02 -3.571366146206855774e-02 -4.835534840822219849e-02 -2.070006541907787323e-02 1.266515552997589111e-01 -1.352361403405666351e-02 -6.669288128614425659e-02
-4.138359427452087402e-02 -1.833661831915378571e-02 5.592642351984977722e-02 1.702900379896163940e-01 -4.640877246856689453e-02 -1.481009274721145630e-01 -2.509019523859024048e-02 1.832515448331832886e-01 1.349853537976741791e-02 -1.436464935541152954e-01
-5.036418884992599487e-02 -5.849163979291915894e-02 1.302116215229034424e-01 1.144768819212913513e-01 -2.647181786596775055e-02 -1.489100456237792969e-01 -8.435604721307754517e-02 1.633723378181457520e-01 7.628885656595230103e-02 -1.157561987638473511e-01
-5.890039727091789246e-02 -8.846773952245712280e-02 5.763023719191551208e-02 7.540974020957946777e-02 -7.468568533658981323e-02 -8.897320926189422607e-02 -9.573784470558166504e-02 1.216413080692291260e-01 1.670840382575988770e-01 -1.500038802623748779e-02
-6.004543602466583252e-02 -1.061020940542221069e-01 2.123624831438064575e-02 -2.945061773061752319e-03 -7.460965961217880249e-02 1.507246214896440506e-02 -3.457418829202651978e-02 9.329067915678024292e-02 1.761937141418457031e-01 -2.751698717474937439e-02
-1.519789360463619232e-02 -1.730629801750183105e-01 -8.073467761278152466e-03 -5.023185536265373230e-02 -5.528373271226882935e-02 1.177739575505256653e-01 -3.246103599667549133e-02 5.229558050632476807e-02 1.481611877679824829e-01 1.608018577098846436e-02
3.340647369623184204e-02 -2.250811904668807983e-01 7.008639723062515259e-02 -8.856675773859024048e-02 2.839175052940845490e-03 1.001368314027786255e-01 -1.071806997060775757e-01 2.128333970904350281e-02 1.840540915727615356e-01 9.022212587296962738e-03
3.804361447691917419e-02 -1.908890306949615479e-01 1.581845581531524658e-01 -1.731847524642944336e-01 -9.723580628633499146e-02 1.811794787645339966e-01 -1.495467871427536011e-01 3.614229336380958557e-02 1.550715565681457520e-01 4.223489016294479370e-02
-2.218688465654850006e-02 -1.220124512910842896e-01 1.046832427382469177e-01 -3.014179468154907227e-01 -1.063577607274055481e-01 2.663089334964752197e-01 -1.182869449257850647e-01 1.310397386550903320e-01 1.297108978033065796e-01 3.851885348558425903e-02
2.745135128498077393e-02 -8.967544883489608765e-02 5.991121754050254822e-02 -2.616639137268066406e-01 -8.822846412658691406e-02 1.666744500398635864e-01 -1.230191588401794434e-01 1.875013113021850586e-01 9.746010601520538330e-02 2.358901686966419220e-02
9.287965297698974609e-02 4.619167745113372803e-02 5.993497371673583984e-02 -7.126973569393157959e-02 -1.914909631013870239e-01 -1.661784946918487549e-02 -1.692444980144500732e-01 1.708973944187164307e-01 1.725584827363491058e-02 6.146390736103057861e-02
5.085275322198867798e-02 1.691720932722091675e-01 1.221950948238372803e-01 2.083541899919509888e-01 -4.855729937553405762e-01 -1.667815297842025757e-01 -1.414463222026824951e-01 2.763969898223876953e-01 -1.880644708871841431e-01 1.548936814069747925e-01
4.890998080372810364e-02 2.901767194271087646e-01 1.431177258491516113e-01 2.812018096446990967e-01 -3.926508128643035889e-01 -2.788604497909545898e-01 -2.765127420425415039e-01 3.350514769554138184e-01 -2.992554008960723877e-01 1.488209962844848633e-01
1.502225995063781738e-01 1.161548942327499390e-01 1.294869333505630493e-01 2.230857014656066895e-01 -1.397056132555007935e-01 -2.715374827384948730e-01 -3.991562724113464355e-01 3.696451485157012939e-01 -1.669547557830810547e-01 -1.124141458421945572e-02
2.281643301248550415e-01 2.219317480921745300e-02 4.057054966688156128e-02 1.543195843696594238e-01 -3.619079291820526123e-02 -2.037601470947265625e-01 -4.907233119010925293e-01 3.351177871227264404e-01 -4.945745691657066345e-02 -2.331102732568979263e-04
2.366753816604614258e-01 -9.116696566343307495e-02 4.999515786767005920e-02 1.234268397092819214e-01 -3.757856413722038269e-02 -1.158381029963493347e-01 -4.923872351646423340e-01 2.423297613859176636e-01 3.483804687857627869e-02 4.970595240592956543e-02
1.849849373102188110e-01 -1.634503006935119629e-01 4.722418263554573059e-02 1.443801522254943848e-01 -2.910149842500686646e-02 -5.596821382641792297e-02 -4.439097344875335693e-01 2.362833321094512939e-01 1.028375402092933655e-01 -2.328070439398288727e-02
1.216162443161010742e-01 -2.103926390409469604e-01 -9.709646925330162048e-03 2.118075191974639893e-01 -2.975986711680889130e-02 2.692972123622894287e-02 -3.438785374164581299e-01 1.365849524736404419e-01 7.350878417491912842e-02 2.329368889331817627e-02
5.393440276384353638e-02 -2.341170758008956909e-01 -4.044010862708091736e-02 1.687317639589309692e-01 -1.162618864327669144e-02 1.470070928335189819e-01 -2.687077224254608154e-01 1.316304802894592285e-01 1.086822226643562317e-01 -5.509485304355621338e-02
1.360166817903518677e-01 -2.364753782749176025e-01 -3.082784824073314667e-02 6.664768606424331665e-02 -3.898148611187934875e-02 2.395306378602981567e-01 -2.677295506000518799e-01 7.057216018438339233e-02 1.738665252923965454e-01 -1.126187294721603394e-01
2.423416972160339355e-01 -2.095629125833511353e-01 -1.128229573369026184e-01 -1.255379319190979004e-01 -6.504334509372711182e-02 4.932716488838195801e-01 -1.835509389638900757e-01 -4.549067467451095581e-02 1.927820146083831787e-01 -1.863863319158554077e-01
5.036383867263793945e-02 -1.372449249029159546e-01 -1.327009946107864380e-01 -1.258418112993240356e-01 -1.312313079833984375e-01 7.364313602447509766e-01 -1.359652578830718994e-01 -7.545205950736999512e-02 7.588577270507812500e-02 -1.242443025112152100e-01
-9.113079309463500977e-02 -5.889012292027473450e-02 -4.412891715764999390e-02 -2.964819036424160004e-02 -9.008021652698516846e-02 5.174154043197631836e-01 -9.989123046398162842e-02 -3.312619030475616455e-02 -1.390312425792217255e-02 -5.661648511886596680e-02
-2.949875406920909882e-02 -7.479484658688306808e-03 -3.721661400049924850e-03 -3.893136745318770409e-03 -2.378096431493759155e-02 1.137967929244041443e-01 -3.754325956106185913e-02 -4.966715350747108459e-03 1.554038003087043762e-02 -1.845316588878631592e-02
-3.914144763257354498e-04 -6.650728755630552769e-04 -3.722833644133061171e-04 -1.418877654941752553e-04 -1.968675060197710991e-03 5.586517043411731720e-03 -2.309105824679136276e-03 7.304321974515914917e-03 -5.765787791460752487e-03 -1.276612747460603714e-03
-6.075747478462290019e-06 -4.484685632633045316e-06 -6.584623861272120848e-06 -8.963275467976927757e-05 -2.269297692691907287e-04 -3.112852209596894681e-05 -1.030510338750900701e-05 1.192879397422075272e-03 -3.129813921987079084e-05 -7.864407380111515522e-04
-1.311037689447402954e-03 -1.171605399576947093e-04 -3.026308841072022915e-04 -1.988749485462903976e-03 -1.797160832211375237e-03 -1.160350278951227665e-03 -2.668732486199587584e-04 1.438697986304759979e-02 -6.798121030442416668e-04 -6.763202603906393051e-03
1.273664645850658417e-03 -4.699540731962770224e-04 1.916789798997342587e-03 2.903808839619159698e-03 -1.346300914883613586e-02 -5.073941778391599655e-03 -5.421444308012723923e-03 5.539991706609725952e-02 -6.635222118347883224e-03 -3.043058328330516815e-02
-1.319217495620250702e-02 -7.182565517723560333e-03 2.183905243873596191e-02 5.791328474879264832e-02 -4.637370258569717407e-02 -3.439165651798248291e-02 -2.053912915289402008e-02 1.295164078474044800e-01 -2.198154106736183167e-02 -6.560806930065155029e-02
-3.917308151721954346e-02 -1.696343533694744110e-02 -5.172390956431627274e-03 7.072326540946960449e-02 -4.938036948442459106e-02 -7.417051494121551514e-02 -3.343939781188964844e-02 1.893348991870880127e-01 6.031043455004692078e-02 -1.020691245794296265e-01
-4.247377440333366394e-02 -5.709101259708404541e-02 3.140776976943016052e-02 1.492953579872846603e-02 -6.686664372682571411e-02 -6.200772896409034729e-02 -7.380580902099609375e-02 1.796542257070541382e-01 9.866192191839218140e-02 -2.240836992859840393e-02
-5.766293779015541077e-02 -1.010341271758079529e-01 1.075518503785133362e-02 -6.883119046688079834e-02 -1.026134192943572998e-01 2.102552354335784912e-02 -5.701795592904090881e-02 9.144563972949981689e-02 1.772012114524841309e-01 8.673209697008132935e-02
-2.609263919293880463e-02 -1.117429360747337341e-01 -1.085684671998023987e-01 -1.592203378677368164e-01 -5.228911712765693665e-02 1.249106898903846741e-01 2.135588228702545166e-02 5.354422703385353088e-02 1.934870183467864990e-01 6.461553275585174561e-02
7.132397033274173737e-03 -1.412478536367416382e-01 -1.011704951524734497e-01 -2.766622602939605713e-01 3.153627365827560425e-02 1.975173950195312500e-01 2.030721679329872131e-02 -4.770150035619735718e-02 1.768945157527923584e-01 1.333941519260406494e-01
1.375383045524358749e-02 -1.915985792875289917e-01 -1.185415238142013550e-01 -3.563030362129211426e-01 1.086991280317306519e-01 2.523888051509857178e-01 -5.930925905704498291e-02 2.474402636289596558e-02 2.386071234941482544e-01 8.755967766046524048e-02
-4.252662882208824158e-02 -1.466266959905624390e-01 -1.109535619616508484e-01 -4.014827907085418701e-01 5.785547941923141479e-02 2.550114691257476807e-01 -4.442557319998741150e-02 4.754964634776115417e-02 2.304296791553497314e-01 1.551697552204132080e-01
4.321552813053131104e-03 -8.596248179674148560e-02 -1.381537765264511108e-01 -4.399145543575286865e-01 4.082875698804855347e-02 2.750779986381530762e-01 -5.905670672655105591e-02 2.136487513780593872e-02 1.816141456365585327e-01 1.998803317546844482e-01
2.623004466295242310e-02 -2.385331131517887115e-02 -2.039013206958770752e-01 -3.725482523441314697e-01 1.046010404825210571e-01 2.782681584358215332e-01 -8.194357901811599731e-02 1.152814645320177078e-02 1.226077228784561157e-01 1.390109509229660034e-01
4.615200683474540710e-02 1.461913287639617920e-01 -2.597117125988006592e-01 -9.439760819077491760e-03 -2.030139863491058350e-01 1.518091857433319092e-01 -4.746416211128234863e-02 1.811434328556060791e-01 4.216135293245315552e-02 -4.782796278595924377e-02
-3.744600713253021240e-02 4.042994976043701172e-01 -1.504053324460983276e-01 2.260020673274993896e-01 -5.396712422370910645e-01 3.762214258313179016e-02 -1.506650894880294800e-01 3.160442113876342773e-01 -8.021784573793411255e-02 -2.556234225630760193e-02
-1.259063780307769775e-01 4.821524918079376221e-01 -1.049041375517845154e-01 2.376201152801513672e-01 -2.273909151554107666e-01 -5.774890631437301636e-02 -3.442929089069366455e-01 4.535034596920013428e-01 -2.358549982309341431e-01 -7.717795670032501221e-02
-9.101288020610809326e-02 1.933192312717437744e-01 1.627301424741744995e-02 2.238249778747558594e-01 2.926559373736381531e-02 -1.698851585388183594e-01 -3.914920091629028320e-01 4.925953745841979980e-01 -2.797097265720367432e-01 -2.317837066948413849e-02
8.695939183235168457e-02 1.370761357247829437e-02 4.219444096088409424e-02 1.643632799386978149e-01 5.837660655379295349e-02 -2.477081716060638428e-01 -4.045096039772033691e-01 3.524009585380554199e-01 -1.425950676202774048e-01 7.680997997522354126e-02
1.606538891792297363e-01 -1.567846387624740601e-01 6.380685418844223022e-02 1.742825359106063843e-01 -5.585370957851409912e-02 -2.467456609010696411e-01 -3.918503820896148682e-01 2.923581600189208984e-01 6.974449008703231812e-02 9.038928896188735962e-02
1.389981657266616821e-01 -1.901380419731140137e-01 2.090108767151832581e-02 2.106142491102218628e-01 -1.207800582051277161e-02 -2.031559199094772339e-01 -3.416951298713684082e-01 2.508089840412139893e-01 9.679081290960311890e-02 2.895405516028404236e-02
1.409576088190078735e-01 -2.506105601787567139e-01 -1.590377092361450195e-02 2.457319349050521851e-01 -6.500172615051269531e-02 -9.351799637079238892e-02 -2.487546056509017944e-01 2.067612111568450928e-01 3.882800415158271790e-02 4.151020199060440063e-02
9.711135923862457275e-02 -2.300641983747482300e-01 -3.176087141036987305e-02 1.216886937618255615e-01 -7.089548557996749878e-02 -1.980924606323242188e-02 -1.848576664924621582e-01 2.050589323043823242e-01 1.067647859454154968e-01 6.763979326933622360e-03
1.984903067350387573e-01 -1.920328736305236816e-01 -6.332182139158248901e-02 7.951499894261360168e-03 -1.133948564529418945e-01 5.549145117402076721e-02 -1.544979065656661987e-01 1.039233505725860596e-01 1.858643889427185059e-01 -2.847330458462238312e-02
2.929936051368713379e-01 -1.593941301107406616e-01 -1.049382239580154419e-01 -8.125627040863037109e-02 -1.965240389108657837e-01 3.200049400329589844e-01 -8.444476127624511719e-02 -6.258566677570343018e-02 1.715095937252044678e-01 -9.536509960889816284e-02
1.172075793147087097e-01 -1.076604574918746948e-01 -9.678111225366592407e-02 -7.806024700403213501e-02 -1.579580008983612061e-01 5.805168747901916504e-01 -1.042287647724151611e-01 -7.535945624113082886e-02 4.060485586524009705e-02 -1.182808429002761841e-01
-7.823967188596725464e-02 -3.846773505210876465e-02 -2.615273743867874146e-02 -1.648462377488613129e-02 -1.020040512084960938e-01 4.871313869953155518e-01 -1.066419631242752075e-01 -2.839856967329978943e-02 -3.823898360133171082e-02 -5.250317975878715515e-02
-3.317385911941528320e-02 -7.613410707563161850e-03 8.766377577558159828e-04 -2.137768082320690155e-03 -2.567866817116737366e-02 1.232929453253746033e-01 -3.342282772064208984e-02 -6.284401752054691315e-03 -7.271507056429982185e-04 -1.513145957142114639e-02
-2.730003325268626213e-04 -7.944260869408026338e-05 -2.295621525263413787e-04 -4.672263821703381836e-05 -7.816416909918189049e-04 3.760311519727110863e-03 -4.838618915528059006e-03 7.547750137746334076e-04 3.831323003396391869e-03 -2.097422024235129356e-03
-4.996092684450559318e-06 -9.204217121805413626e-07 -3.379783947821124457e-06 -3.671466402010992169e-05 -2.917542587965726852e-05 -1.664479532337281853e-05 -1.257311737390409689e-06 4.621345724444836378e-04 -1.448987313779070973e-05 -3.545561339706182480e-04
6.081013907532906160e-06 1.672676080488599837e-05 -3.978227905463427305e-04 -1.568740583024919033e-03 -4.915578290820121765e-03 -2.995565067976713181e-03 -3.710784949362277985e-04 2.164988033473491669e-02 -8.633760735392570496e-04 -1.056053116917610168e-02
-4.745020065456628799e-03 -2.465559809934347868e-04 -1.212308765389025211e-03 1.071959617547690868e-03 -2.679695934057235718e-02 -7.686188910156488419e-03 -1.109662582166492939e-03 9.030560404062271118e-02 -5.217177793383598328e-03 -4.436365514993667603e-02
-1.703869178891181946e-02 -4.557441920042037964e-03 -6.457820069044828415e-03 3.861124441027641296e-02 -3.560393676161766052e-02 -3.174522146582603455e-02 -1.610388979315757751e-02 1.413250118494033813e-01 -1.250498928129673004e-02 -5.592406541109085083e-02
-7.458852231502532959e-02 -7.127641234546899796e-03 -6.002039089798927307e-02 8.440054953098297119e-03 -6.215492635965347290e-02 -3.056513331830501556e-02 -2.587289735674858093e-02 2.082504034042358398e-01 4.569349810481071472e-02 -2.054391661658883095e-03
-6.195976212620735168e-02 -3.403675556182861328e-02 -1.212356686592102051e-01 -9.791532158851623535e-02 -5.794246867299079895e-02 9.854507632553577423e-03 -2.549643442034721375e-02 1.341217160224914551e-01 1.357863098382949829e-01 1.188241392374038696e-01
-1.705374568700790405e-02 -8.512695133686065674e-02 -2.100672423839569092e-01 -2.192356884479522705e-01 -2.767237834632396698e-02 1.304541975259780884e-01 1.633977866731584072e-03 5.665288493037223816e-02 1.797968894243240356e-01 1.906182318925857544e-01
2.775142528116703033e-02 -1.096637099981307983e-01 -3.064911961555480957e-01 -3.487255275249481201e-01 4.683797061443328857e-02 1.401641219854354858e-01 8.845140039920806885e-02 5.227005481719970703e-02 2.546578347682952881e-01 1.547472327947616577e-01
1.252878643572330475e-02 -1.399281322956085205e-01 -3.260919451713562012e-01 -4.041603207588195801e-01 1.492255181074142456e-01 1.583128720521926880e-01 5.926515161991119385e-02 -9.990247897803783417e-03 2.430487424135208130e-01 2.577888965606689453e-01
-4.294274002313613892e-02 -1.901038736104965210e-01 -3.457879424095153809e-01 -3.729187548160552979e-01 2.156225442886352539e-01 1.707504540681838989e-01 4.366188496351242065e-02 9.861847013235092163e-02 2.745128273963928223e-01 1.485884487628936768e-01
-3.565813601016998291e-02 -1.840134859085083008e-01 -4.507102072238922119e-01 -2.994809150695800781e-01 2.618439495563507080e-01 1.676234304904937744e-01 2.534197643399238586e-02 1.153626069426536560e-01 1.732595860958099365e-01 2.264314591884613037e-01
-2.075093425810337067e-02 -1.778451502323150635e-01 -5.024390816688537598e-01 -2.240041792392730713e-01 2.750297486782073975e-01 1.974215507507324219e-01 2.182126790285110474e-02 8.035966753959655762e-02 1.349131166934967041e-01 2.154948115348815918e-01
-1.733270101249217987e-02 -7.710011303424835205e-02 -5.582113265991210938e-01 -1.128389090299606323e-01 2.362491190433502197e-01 2.689652144908905029e-01 8.751683682203292847e-02 -1.087500620633363724e-02 1.795283108949661255e-01 4.098757170140743256e-03
-4.265976324677467346e-02 1.671167165040969849e-01 -5.593884587287902832e-01 1.320513486862182617e-01 -2.896820008754730225e-01 3.274238407611846924e-01 5.767670273780822754e-02 4.180266708135604858e-02 2.545445561408996582e-01 -8.888515830039978027e-02
-2.494667172431945801e-01 5.781670808792114258e-01 -4.218907356262207031e-01 1.828366070985794067e-01 -4.588240385055541992e-01 1.119602471590042114e-01 -1.752879768610000610e-01 1.768494397401809692e-01 2.792258560657501221e-01 -2.356957830488681793e-02
-3.998306095600128174e-01 5.675523281097412109e-01 -2.968952953815460205e-01 1.942662894725799561e-01 -5.205467808991670609e-03 -8.172646164894104004e-02 -3.601486384868621826e-01 3.349946439266204834e-01 -2.154782786965370178e-02 6.853946298360824585e-02
-3.759640157222747803e-01 1.999878585338592529e-01 -1.317019462585449219e-01 8.074861764907836914e-02 2.658201754093170166e-01 -1.470845639705657959e-01 -2.743831276893615723e-01 3.793805837631225586e-01 -1.641587764024734497e-01 1.673547476530075073e-01
-1.332564651966094971e-01 -4.475191235542297363e-02 -1.381715387105941772e-01 1.494500190019607544e-01 1.095377355813980103e-01 -2.135794907808303833e-01 -2.325484752655029297e-01 3.198564648628234863e-01 -1.009959131479263306e-01 2.844599783420562744e-01
-1.240144763141870499e-02 -1.028990373015403748e-01 -3.662217780947685242e-02 1.651283949613571167e-01 -3.103323094546794891e-02 -2.433388680219650269e-01 -2.095798999071121216e-01 2.994336783885955811e-01 -5.832163989543914795e-02 2.296342104673385620e-01
1.211466714739799500e-01 -1.600793898105621338e-01 6.271388381719589233e-02 1.613537222146987915e-01 -3.327625244855880737e-02 -3.452790975570678711e-01 -1.863540410995483398e-01 1.561733335256576538e-01 -6.544820033013820648e-03 2.301456332206726074e-01
1.203036457300186157e-01 -1.734933555126190186e-01 -1.289815455675125122e-02 1.617981493473052979e-01 -9.051017463207244873e-02 -4.086806476116180420e-01 -1.056146547198295593e-01 1.555503010749816895e-01 5.285136774182319641e-02 3.006935417652130127e-01
1.546454131603240967e-01 -1.360875368118286133e-01 -9.470590390264987946e-03 -3.958533704280853271e-02 -8.627471327781677246e-02 -3.777054548263549805e-01 -8.786611724644899368e-04 1.499314755201339722e-01 1.472501456737518311e-01 1.981752961874008179e-01
2.297147959470748901e-01 -1.027105003595352173e-01 -6.629431247711181641e-02 -7.996574044227600098e-02 -1.364038288593292236e-01 -3.439761102199554443e-01 4.952018707990646362e-02 7.788183540105819702e-02 2.528248727321624756e-01 1.194082796573638916e-01
3.054144978523254395e-01 -7.312712818384170532e-02 -1.001451835036277771e-01 -8.444294333457946777e-02 -1.741228550672531128e-01 -1.223782896995544434e-01 1.089792102575302124e-01 -5.375881493091583252e-02 2.330267429351806641e-01 -3.944462910294532776e-02
1.813367605209350586e-01 -5.028374493122100830e-02 -5.071083456277847290e-02 -4.994245618581771851e-02 -1.303541660308837891e-01 1.094323322176933289e-01 -4.055112134665250778e-03 -5.664798617362976074e-02 1.331479996442794800e-01 -8.192265778779983521e-02
-3.685467690229415894e-02 -2.244614437222480774e-02 7.541523315012454987e-03 -4.269140772521495819e-03 -5.939927697181701660e-02 2.172657549381256104e-01 -6.413524597883224487e-02 -2.339951135218143463e-02 2.499024197459220886e-02 -3.929340839385986328e-02
-1.806857809424400330e-02 -5.357899703085422516e-03 3.555565141141414642e-03 -7.517111371271312237e-04 -8.548042736947536469e-03 5.919950082898139954e-02 -3.244297578930854797e-02 -8.445203304290771484e-03 2.357926964759826660e-02 -1.271992363035678864e-02
-1.985871058423072100e-04 6.794668151997029781e-04 -6.576355372089892626e-05 -1.810456342354882509e-05 -4.098179342690855265e-04 2.490983344614505768e-03 -2.722297096624970436e-03 -9.176942403428256512e-04 2.003785455599427223e-03 -8.419708465225994587e-04
-1.253479126717138570e-06 -5.602707631169323577e-08 -1.496363893238594756e-06 -1.216989949170965701e-05 -2.535309477025293745e-06 -5.495788172993343323e-06 -7.945154578692381619e-08 8.387524285353720188e-04 -6.555317213496891782e-06 -8.091105264611542225e-04
1.462322979932650924e-04 -2.621433668537065387e-05 -2.259920074720866978e-05 -1.215141965076327324e-03 -7.429128047078847885e-03 -2.940413309261202812e-03 -2.307324029970914125e-04 2.193295210599899292e-02 -3.080809256061911583e-04 -9.906874969601631165e-03
-2.783591626212000847e-03 -4.469943814910948277e-04 -5.462872213684022427e-04 -6.282827816903591156e-03 -2.535403706133365631e-02 -6.185419391840696335e-03 -1.111907768063247204e-03 8.563896268606185913e-02 -3.432559082284569740e-03 -3.949532657861709595e-02
-1.477546617388725281e-02 -3.780072147492319345e-04 -3.139276430010795593e-02 -3.625273937359452248e-03 -4.299910366535186768e-02 -1.120962947607040405e-02 -1.243027765303850174e-02 1.470083743333816528e-01 1.165135690825991333e-04 -3.031430765986442566e-02
-7.465827465057373047e-02 -1.218826859258115292e-03 -9.630182385444641113e-02 -3.782359138131141663e-02 -6.697704643011093140e-02 2.431242261081933975e-03 -3.011972457170486450e-02 1.841063350439071655e-01 1.749034784734249115e-02 1.030712500214576721e-01
-2.385893650352954865e-02 -2.456547319889068604e-02 -2.770857810974121094e-01 -1.467805504798889160e-01 -2.120593935251235962e-02 5.682439729571342468e-02 -1.355057768523693085e-02 1.193168461322784424e-01 1.041623130440711975e-01 2.267439663410186768e-01
6.797648221254348755e-02 -5.017368495464324951e-02 -4.554770886898040771e-01 -2.642960548400878906e-01 1.061825975775718689e-01 1.528013497591018677e-01 7.794047892093658447e-02 1.572952046990394592e-02 1.104296892881393433e-01 2.388865798711776733e-01
7.885320484638214111e-02 -7.256850600242614746e-02 -5.162701606750488281e-01 -3.139779865741729736e-01 2.110109627246856689e-01 1.012196242809295654e-01 1.195188239216804504e-01 8.452211320400238037e-02 1.497773826122283936e-01 1.579144299030303955e-01
1.907811127603054047e-02 -1.184282377362251282e-01 -4.197621345520019531e-01 -3.112537562847137451e-01 2.835826575756072998e-01 1.227207481861114502e-01 9.900597482919692993e-02 9.868202358484268188e-02 8.631713688373565674e-02 1.400572657585144043e-01
3.464533016085624695e-03 -1.716463118791580200e-01 -4.223850667476654053e-01 -1.666201800107955933e-01 2.679891586303710938e-01 4.657405614852905273e-02 9.624971449375152588e-02 1.928975991904735565e-02 8.971776813268661499e-02 2.373663634061813354e-01
3.751621395349502563e-02 -2.592482566833496094e-01 -4.634331464767456055e-01 -2.670764923095703125e-02 4.084310531616210938e-01 1.656300872564315796e-01 3.547690436244010925e-02 -6.210327520966529846e-02 -3.981868177652359009e-02 2.042566239833831787e-01
6.685323268175125122e-02 -3.216145336627960205e-01 -4.668815732002258301e-01 -6.327707320451736450e-02 5.021548271179199219e-01 2.594322860240936279e-01 1.636868417263031006e-01 -1.678171306848526001e-01 -2.491880767047405243e-02 5.238256230950355530e-02
7.007370144128799438e-02 -1.274139583110809326e-01 -4.705016314983367920e-01 3.776904940605163574e-02 3.968114852905273438e-01 2.810193002223968506e-01 1.622390747070312500e-01 -3.799911141395568848e-01 1.578167527914047241e-01 -1.278230100870132446e-01
-1.231585294008255005e-01 2.017898708581924438e-01 -4.453314840793609619e-01 1.670578569173812866e-01 -8.235856890678405762e-02 2.725060582160949707e-01 5.826575309038162231e-02 -4.502138495445251465e-01 3.900679945945739746e-01 1.137350127100944519e-02
-4.285180270671844482e-01 6.773897409439086914e-01 -3.813881576061248779e-01 2.723853290081024170e-01 -2.529929578304290771e-01 2.956904284656047821e-02 -1.800312697887420654e-01 -2.025415003299713135e-01 2.575660645961761475e-01 2.085626125335693359e-01
-5.505803823471069336e-01 4.984323084354400635e-01 -3.257055580615997314e-01 1.390258669853210449e-01 1.435726284980773926e-01 -1.083147227764129639e-01 -2.195465564727783203e-01 1.312332600355148315e-01 6.116533279418945312e-02 2.307179868221282959e-01
-5.011828541755676270e-01 1.281194239854812622e-01 -2.401005327701568604e-01 7.470349967479705811e-02 3.220190703868865967e-01 -2.913469076156616211e-01 -8.733352273702621460e-02 3.158806562423706055e-01 2.983487211167812347e-03 2.762572765350341797e-01
-2.313004285097122192e-01 4.633489996194839478e-03 -2.004145383834838867e-01 8.673988282680511475e-02 1.289190948009490967e-01 -2.927393019199371338e-01 -1.003441438078880310e-01 3.079098463058471680e-01 -3.303784877061843872e-02 3.296345770359039307e-01
-5.946415662765502930e-02 -9.460629522800445557e-02 -9.272486716508865356e-02 1.145812124013900757e-01 2.537741139531135559e-02 -2.523497641086578369e-01 -1.256102472543716431e-01 2.295566052198410034e-01 -7.197801023721694946e-02 3.272179961204528809e-01
1.878795586526393890e-02 -1.525829285383224487e-01 8.856591582298278809e-02 4.675141535699367523e-04 4.188855364918708801e-02 -3.068210780620574951e-01 -1.446900069713592529e-01 4.171964153647422791e-02 5.957587063312530518e-02 3.530888259410858154e-01
1.187312602996826172e-02 -1.221610754728317261e-01 -1.209126785397529602e-02 -6.878153979778289795e-02 3.767260164022445679e-02 -3.752634525299072266e-01 -6.415711343288421631e-02 6.373806297779083252e-02 1.739225536584854126e-01 3.552479743957519531e-01
1.049832999706268311e-01 -7.873585820198059082e-02 -2.103986777365207672e-02 -2.113949507474899292e-01 3.461170941591262817e-02 -4.886501133441925049e-01 1.033672690391540527e-01 3.262207657098770142e-02 2.495230585336685181e-01 2.747133970260620117e-01
2.723063826560974121e-01 -5.831146240234375000e-02 -9.342540055513381958e-02 -1.624024510383605957e-01 -2.755561470985412598e-02 -5.338258743286132812e-01 2.227682918310165405e-01 -3.243532264605164528e-03 2.168881297111511230e-01 1.668018549680709839e-01
3.516797423362731934e-01 -3.336168453097343445e-02 -1.562442779541015625e-01 -9.451486170291900635e-02 -8.586520701646804810e-02 -4.338141381740570068e-01 2.691101431846618652e-01 -3.534113615751266479e-02 1.988743245601654053e-01 1.947755180299282074e-02
2.415519207715988159e-01 -2.405695617198944092e-02 -8.798397146165370941e-03 -3.816674649715423584e-02 -4.535460844635963440e-02 -2.539927661418914795e-01 1.037359163165092468e-01 -3.108491748571395874e-02 1.318305581808090210e-01 -7.566405087709426880e-02
2.641276922076940536e-03 -1.137146353721618652e-02 5.258699133992195129e-02 -1.421215274604037404e-04 -6.593494210392236710e-03 -5.958963651210069656e-03 -2.912630513310432434e-02 1.949080848135054111e-03 3.078556619584560394e-02 -3.477057069540023804e-02
-7.468832191079854965e-03 -5.321263335645198822e-03 2.672027796506881714e-02 -5.697174347005784512e-04 1.934299798449501395e-04 2.074543759226799011e-02 -3.370667248964309692e-02 3.521095961332321167e-03 8.972863666713237762e-03 -1.308660861104726791e-02
-8.352656732313334942e-05 5.146358744241297245e-04 2.031038748100399971e-03 -3.041933996428269893e-05 -1.012129476293921471e-03 -5.575149552896618843e-04 -1.482479856349527836e-03 2.526182448491454124e-03 -1.447059330530464649e-03 -4.587271250784397125e-04
-9.600928763120464282e-08 3.658691275632008910e-05 -4.805531261808937415e-06 -9.027070518641266972e-06 -3.156004879656393314e-07 -1.655152800594805740e-06 -2.155383299395907670e-06 -4.036373866256326437e-06 -6.372109965013805777e-06 -8.123693078232463449e-06
7.777900318615138531e-04 -1.514146151748718694e-05 -7.961165829328820109e-05 -1.068973448127508163e-03 -5.471011158078908920e-03 -8.499394753016531467e-04 -5.867713480256497860e-04 1.293477043509483337e-02 -1.198743630084209144e-04 -5.521238781511783600e-03
-1.208268338814377785e-03 -2.084670559270307422e-04 -4.147174477111548185e-04 -4.016229417175054550e-03 -1.605919934809207916e-02 -2.461736323311924934e-03 -8.240025490522384644e-04 5.485466122627258301e-02 -1.535082701593637466e-03 -2.812696434557437897e-02
-1.549353450536727905e-02 1.176210003904998302e-03 -3.503911197185516357e-02 -4.082140512764453888e-03 -3.182359412312507629e-02 1.422793255187571049e-03 -1.040229387581348419e-02 1.043408960103988647e-01 -1.088390243239700794e-03 -9.010825306177139282e-03
-4.842884093523025513e-02 -7.048902916721999645e-04 -1.373068392276763916e-01 -5.326296389102935791e-02 -1.410546619445085526e-02 2.187271974980831146e-02 -3.543565049767494202e-02 1.133386045694351196e-01 -2.140830084681510925e-02 1.754418760538101196e-01
1.348194945603609085e-02 -2.133259922266006470e-02 -3.457745313644409180e-01 -1.361646205186843872e-01 1.035790964961051941e-01 7.568116486072540283e-02 1.294480264186859131e-02 4.542830958962440491e-02 -1.378803979605436325e-02 2.659442722797393799e-01
1.341840028762817383e-01 -4.301210865378379822e-02 -5.067179799079895020e-01 -2.377475053071975708e-01 2.697875201702117920e-01 7.399727404117584229e-02 1.476906985044479370e-01 -6.226972909644246101e-04 -3.128336369991302490e-02 1.937244832515716553e-01
1.694744676351547241e-01 -6.779314577579498291e-02 -4.711432158946990967e-01 -2.670878767967224121e-01 2.939836382865905762e-01 1.032895296812057495e-01 9.281537681818008423e-02 3.091345354914665222e-02 -3.036993741989135742e-02 1.459176540374755859e-01
9.775352478027343750e-02 -8.719746768474578857e-02 -3.493170738220214844e-01 -1.727015972137451172e-01 2.959223985671997070e-01 9.053674340248107910e-02 1.060954257845878601e-01 -3.283985704183578491e-02 -9.068164974451065063e-02 1.424296200275421143e-01
8.733183890581130981e-02 -1.840681731700897217e-01 -2.599725127220153809e-01 -6.581217795610427856e-02 2.954230010509490967e-01 1.115403696894645691e-01 1.003873720765113831e-01 -1.036303788423538208e-01 -7.326716184616088867e-02 9.206774830818176270e-02
1.389280706644058228e-01 -3.608039617538452148e-01 -2.070858329534530640e-01 -1.134799569845199585e-01 4.369109869003295898e-01 2.324439734220504761e-01 1.504835933446884155e-01 -2.042196244001388550e-01 -1.279655843973159790e-01 5.478830635547637939e-02
1.191483587026596069e-01 -4.322241842746734619e-01 -1.129925325512886047e-01 -9.320447593927383423e-02 5.537773370742797852e-01 2.818472981452941895e-01 1.813638508319854736e-01 -4.589406251907348633e-01 2.610555663704872131e-02 -6.488125771284103394e-02
2.544332668185234070e-02 -1.848307996988296509e-01 -1.070748865604400635e-01 7.097582519054412842e-02 3.298652172088623047e-01 3.065381944179534912e-01 1.510188281536102295e-01 -6.863909959793090820e-01 2.103856503963470459e-01 -1.159298419952392578e-01
-2.915591001510620117e-01 2.773346602916717529e-01 -5.199895426630973816e-02 2.230978608131408691e-01 -3.727396205067634583e-02 1.828071624040603638e-01 -1.552277989685535431e-02 -6.948667168617248535e-01 3.165834546089172363e-01 9.139836579561233521e-02
-5.008035898208618164e-01 6.321650743484497070e-01 -8.146189898252487183e-02 1.683212369680404663e-01 -7.042536884546279907e-02 -1.886457018554210663e-02 -1.100429818034172058e-01 -3.338905274868011475e-01 9.090699255466461182e-02 2.240960747003555298e-01
-5.717099308967590332e-01 4.339396953582763672e-01 -2.094734907150268555e-01 -2.951860427856445312e-02 1.688429266214370728e-01 -2.122905701398849487e-01 6.873146630823612213e-03 1.219778228551149368e-02 1.740725636482238770e-01 2.270670086145401001e-01
-4.867760539054870605e-01 9.301139414310455322e-02 -2.223920673131942749e-01 5.478820577263832092e-02 2.647041082382202148e-01 -3.414857089519500732e-01 3.226875513792037964e-02 1.623601168394088745e-01 5.945188179612159729e-02 3.840706050395965576e-01
-2.564641833305358887e-01 -3.779884427785873413e-02 -1.370931714773178101e-01 1.031444892287254333e-01 2.390626519918441772e-01 -2.360451370477676392e-01 -1.002768427133560181e-01 1.525354534387588501e-01 -7.696367055177688599e-02 3.498995602130889893e-01
-9.849923849105834961e-02 -2.053191810846328735e-01 -7.958912849426269531e-02 1.193780824542045593e-01 1.539603471755981445e-01 -1.332111656665802002e-01 -1.442862004041671753e-01 1.217836588621139526e-01 -1.484739221632480621e-02 2.806305587291717529e-01
-8.627694100141525269e-02 -1.831090897321701050e-01 -1.971364207565784454e-02 -5.890656262636184692e-02 1.211878880858421326e-01 -9.328590333461761475e-02 -6.866002082824707031e-02 6.839188933372497559e-02 1.692734658718109131e-02 3.034453392028808594e-01
-8.899672329425811768e-02 -1.268889307975769043e-01 -5.082695558667182922e-02 -1.931448727846145630e-01 1.722225248813629150e-01 -1.362903714179992676e-01 -3.807196021080017090e-02 9.082477539777755737e-02 1.014878824353218079e-01 2.696846127510070801e-01
6.724156439304351807e-02 -8.290079236030578613e-02 -5.541234463453292847e-02 -2.009952962398529053e-01 1.114627346396446228e-01 -2.657999396324157715e-01 1.416305452585220337e-01 4.497721791267395020e-02 2.927704155445098877e-02 2.105197459459304810e-01
2.524171769618988037e-01 -5.992834642529487610e-02 -1.167244687676429749e-01 -1.854347586631774902e-01 5.445441603660583496e-02 -3.205859065055847168e-01 3.046803772449493408e-01 5.330490414053201675e-03 1.894043758511543274e-02 4.685036092996597290e-02
3.436311483383178711e-01 -4.820720478892326355e-02 -1.210762262344360352e-01 -9.161379188299179077e-02 -1.369812432676553726e-02 -3.509767055511474609e-01 3.452851474285125732e-01 1.116301678121089935e-02 2.728955447673797607e-02 -1.017969325184822083e-01
2.268752306699752808e-01 -3.708144277334213257e-02 3.899618983268737793e-02 -3.398100659251213074e-02 -3.929116204380989075e-02 -2.298131287097930908e-01 1.615174263715744019e-01 1.271958835422992706e-02 1.536879874765872955e-02 -1.153105422854423523e-01
2.372330427169799805e-02 -1.849637366831302643e-02 9.772272408008575439e-02 -5.615110974758863449e-03 9.487150236964225769e-03 -4.633894935250282288e-02 -2.905084565281867981e-02 1.159195136278867722e-02 5.391773767769336700e-03 -4.841556772589683533e-02
-3.053837921470403671e-03 -6.503984332084655762e-03 6.260127574205398560e-02 -8.023502305150032043e-04 1.389184151776134968e-03 -2.946913475170731544e-03 -3.558412194252014160e-02 -4.709561180789023638e-04 -1.411050092428922653e-03 -1.321725174784660339e-02
